[[-0.026396632194519043, 0.055561518534992096, 0.10194594284883642, -0.07974324997288038, -0.005758372373077305, -0.06732522561187314, -0.09236618500218115, -0.047295526712380874, 0.0684039831560004, -0.06645244675645776, 0.04574949083816674, 0.10370514302015436, -0.10027610236161595, 0.08571796172771336, -0.07172919875362564, 0.09737552902196792, 0.10438813373397265, 0.06612547827798047, -0.07937456418628604, 0.07410317854436502, 2.1668136303449132e-05, -0.043851838333933656, 0.017944301603022926, 0.0780487844063113, -0.03574826209622853, -0.08639688943296503, 0.0893104227200479, 0.10517479125118415, -0.10257576336871725, 0.08627970949171838, -0.10304834356892131, -0.05928884972218096, 0.06005101116968351, 0.10585815165226749, 0.02838696422998067, 0.029470185428886367, 0.10797028595440918, -0.03457265322721922, -0.008819763197751112, -0.08719057630035555, 0.08997839729520953, 0.07028745545372496, -0.06821382815324338, -0.0017029454731278808, 0.09001733860370642, -0.04649327578965781, 0.01344152834231561, 0.0478000172726993, 0.09201815504911963, 0.08700602164852642, 0.05364809497834386, 0.04660680075894939, -0.09551169369077842, -0.10424572247419066, -0.040680108920039385, 0.014007832992854049, -0.064623218150265, 0.0055423498771749865, -0.10228593565669745, -0.01117688602227451, 0.07413653834310904, -0.09455797325019925, -0.09767096085387388, -0.026081279962762965, 0.07935689189935777, -0.09257022970935654, 0.08227686530437588, 0.10357022011035329, 0.015311921551226272, -0.09485158858787686, -0.00618857574691828, 0.00992934252807016, 0.05448182031437063, -0.09750466424956598, -0.025792778888992784, 0.043021512455436645, 0.07220072921139051, 0.09425016620763636, 0.08611377491059505, 0.06994472444057465], [-0.05717930942773819, 0.034813469745615645, 0.10171256375812567, 0.006815906908667932, -0.029815565090041702, -0.02456836073896026, -0.06502202026750403, -0.11166916250284359, -0.0822495986463084, 0.03230322510882297, 0.05671515135218412, 0.09374688538114319, -0.07487483212444736, 0.013165966973293123, -0.06989075285663263, -0.04755107529967193, -0.10600147042430302, 0.04399414718770436, -0.012305224047022492, 0.08474298525557095, -0.006612421692796071, 0.049246059909007336, 0.0742684566026986, 0.010542234567019266, 0.020334427995929244, -0.05556111653426369, 0.030455402546539674, -0.08262356883115533, 0.07714655731984628, -0.027348902337978494, -0.11110358156278297, -0.017493623872243805, 0.032928967922651056, 0.035270260130697076, -0.08306855165597925, -0.028175425006641493, 0.05092349830641349, -0.00035860891398777994, -0.08269284944109061, 0.08176696983955252, -0.038087434450605966, -0.0984267937106695, 0.07847519720849387, 0.01752352532372874, 0.022247959150566207, -0.10806143081548682, 0.060790015900797065, -0.010530138462507008, 0.0822370979981059, -0.011633550450061123, -0.07628439713196937, -0.021919501174178242, 0.07182175433463815, -0.013051546626701733, -0.0954894026639155, -0.08260455523277228, 0.04590054771580999, 0.09760676691471931, -0.09574953670754174, -0.03824293452363462, -0.034562646932454665, 0.08126286576779425, -0.07695226729535509, 0.03462728504098318, 0.04458978988736038, -0.01419225292930941, -0.017675863013255903, -0.07224285712745236, -0.10681390734712372, 0.022646630125744027, -0.03765658647700229, -0.058899236774300104, 0.04868852554853601, 0.03892660014535742, -0.037263590402397136, 0.006681042950015602, -0.0750955308939585, -0.05041466814779319, 0.08220743527223714, 0.06133750081062317], [-0.10740478336811066, -0.07324157802625027, -0.10290843735424465, 0.019280465974805563, -0.03577074847866597, 0.08511706507785158, 0.02725653168245302, -0.06284536707314851, -0.07171093176376174, 0.04423791661126028, 0.06318219809250296, 0.017626412999983878, 0.008293372380256934, 0.0743078519542593, -0.003347466668757332, 0.06521039486337422, -0.05940581764026841, 0.03730831512949612, -0.058838397212470396, 0.09752688775639325, -0.062138656360451246, -0.09917792374273368, -0.018914688330183286, 0.1017082983411399, 0.0766456857877252, -0.05669701044332705, 0.05465144218395206, -0.008642246917240725, -0.10374306372360612, -0.09411485946338, 0.09385809057589625, 0.01976017287135556, -0.002854350475926084, 0.009943792366348146, -0.036242026137126085, -0.009618173661432987, 0.007501124521770889, 0.0868733976555266, -0.06941958145338083, -0.10995880110714536, -0.03188845918919941, -0.08758197351259207, 0.11023254650112013, -0.09047461219696089, 0.02637557995577885, 0.017158123897326565, 0.10942283109489834, 0.0425176876470038, 0.0023629925572829103, -0.022572552200518625, -0.06391063624460874, -0.10111158111138915, -0.0804645065512728, -0.041037622107963294, -0.055698790206792734, -0.10392075633578275, 0.024645442350998758, -0.030772361952771884, -0.03383927350858622, -0.009327167438920493, 0.07044868697543354, 0.05563906202479683, 0.0923831813619361, -0.1037700744445686, 0.00570919334482433, 0.05248958148685351, 0.04201913578911838, 0.06787515730905505, -0.10264568109547718, 0.002984478488403018, -0.0671827022658051, 0.038040968284719735, 0.037839519857496104, 0.029458256396808758, 0.061182714337278996, 0.04973886601378026, -0.013561482264993398, -0.03249895830663256, -0.09406579883532198, 0.11008189618587494], [0.013482064008712769, -0.03310064226388931, 0.055462226271629333, 0.03288254141807556, -0.10103653371334076, 0.10243543982505798, -0.009126245975494385, 0.08993740379810333, -0.07854977250099182, 0.03822194039821625, -0.0920557975769043, 0.022020310163497925, -0.06214023008942604, -0.0023676827549934387, -0.05200878903269768, -0.060933951288461685, 0.04824574291706085, 0.10856394469738007, 0.058006808161735535, 0.05497188866138458, -0.08131176233291626, 0.09602563083171844, -0.07080623507499695, 0.07001462578773499, -0.06581144034862518, -0.08071400225162506, -0.0886315181851387, 0.02426108717918396, -0.05202500894665718, -0.048500336706638336, -0.025009214878082275, -0.042797595262527466, 0.08488255739212036, -0.009528256952762604, -0.03944087028503418, -0.019942693412303925, -0.03716368228197098, 0.002671636641025543, 0.011655233800411224, -0.08111146092414856, -0.03590838611125946, 0.006074368953704834, 0.05178286135196686, 0.10746148228645325, 0.04506440460681915, -0.07169987261295319, 0.0991058349609375, 0.005770385265350342, -0.09442979842424393, -0.005427658557891846, 0.011047020554542542, 0.05014204978942871, -0.08075129240751266, -0.001926816999912262, -0.08898309618234634, 0.04941534996032715, 0.11126935482025146, 0.01229587197303772, -0.11148064583539963, -0.0406908243894577, -0.07905154675245285, -0.038144998252391815, 0.05615893006324768, 0.06704844534397125, -0.017464391887187958, 0.08240802586078644, 0.035988807678222656, 0.0016347989439964294, -0.013433679938316345, 0.04297216236591339, 0.01013694703578949, -0.035417214035987854, 0.08712658286094666, 0.062158480286598206, 0.08300557732582092, 0.08199767768383026, -0.08193172514438629, -0.08024120330810547, 0.06608562171459198, -0.09687568992376328], [-0.05206625908613205, 0.10492606461048126, -0.10952509194612503, -0.06947942823171616, -0.03956427425146103, 0.028605327010154724, -0.09564880281686783, -0.05959904566407204, -0.08518114686012268, -0.09767520427703857, 0.043298572301864624, -0.05577818676829338, 0.07047954201698303, 0.012205757200717926, -0.10933346301317215, 0.044185131788253784, 0.015058785676956177, -0.03853112459182739, 0.01433207094669342, -0.025444678962230682, 0.05864815413951874, -0.052731141448020935, 0.09397201240062714, -0.02863983064889908, -0.043175600469112396, 0.07759696245193481, 0.004906661808490753, 0.027014821767807007, -0.04992556944489479, -0.0385671928524971, -0.0941808670759201, -0.10913519561290741, -0.09448094666004181, -0.05100604146718979, 0.013996079564094543, -0.10175410658121109, 0.1032281368970871, 0.07292212545871735, -0.04872933030128479, 0.024880945682525635, 0.05785605311393738, 0.08089831471443176, -0.10690082609653473, 0.07740110158920288, -0.020509302616119385, 0.009624607861042023, 0.027546972036361694, -0.04413007199764252, 0.05996416509151459, -0.05361580103635788, 0.024974465370178223, 0.05727984011173248, 0.045399799942970276, 0.07019810378551483, -0.07053545862436295, -0.09885338693857193, 0.10908812284469604, -0.012571386992931366, 0.07456931471824646, -0.030069559812545776, -0.09682665020227432, 0.014176934957504272, 0.05422082543373108, 0.06792175769805908, 0.004832655191421509, -0.023082420229911804, -0.002548597753047943, -0.10059193521738052, 0.04872043430805206, -0.07944168150424957, 0.05863367021083832, 0.10548144578933716, -0.01895863562822342, 0.07523813843727112, -0.0645911693572998, 0.022163987159729004, 0.038300275802612305, -0.04881031811237335, 0.08010277152061462, -0.07757842540740967], [0.057092055678367615, 0.007512219250202179, -0.015531152486801147, 0.06612007319927216, -0.039802126586437225, 0.07029859721660614, -0.10109898447990417, 0.008480392396450043, -0.07369641959667206, -0.05102887377142906, -0.04248514026403427, -0.019399918615818024, -0.06263220310211182, -0.06151042878627777, 0.07532478868961334, 0.040426015853881836, -0.11109063029289246, -0.05769707262516022, 0.03891921043395996, 0.09267094731330872, 0.10652413964271545, -0.061558835208415985, -0.04153502732515335, -0.013067945837974548, -0.07286129146814346, 0.10163648426532745, -0.10840547829866409, 0.00905616581439972, -0.03667359799146652, -0.000416487455368042, -0.033429428935050964, 0.02256566286087036, -0.08066926151514053, 0.08143675327301025, -0.08751576393842697, 0.10513292253017426, 0.038495853543281555, -0.06360845267772675, -0.05084921419620514, 0.09010918438434601, 0.07503481209278107, 0.02371908724308014, 0.10252143442630768, -0.09129247814416885, -0.10086224973201752, 0.05014403164386749, -0.04627101868391037, -0.02534850686788559, 0.03795807063579559, -0.029650278389453888, -0.07157180458307266, -0.021912381052970886, -0.06862710416316986, 0.05520997941493988, -0.0167727991938591, 0.04700064659118652, 0.026053473353385925, -0.044439561665058136, -0.05232570320367813, 0.06485225260257721, -0.01858905702829361, 0.1099453717470169, -0.041675545275211334, -0.09181852638721466, -0.04468540847301483, -0.03802356868982315, 0.04550844430923462, -0.03600921481847763, 0.01661999523639679, 0.041839390993118286, -0.005687542259693146, -0.08296108990907669, -0.034908585250377655, 0.02378101646900177, -0.05107048526406288, -0.022113651037216187, -0.0688549056649208, 0.09092578291893005, 0.02259029448032379, 0.04717537760734558], [-0.025821246206760406, 0.10267833335768618, 0.017145927365223117, -0.06285248791842117, 0.0403282647130864, 0.0010325903872938432, -0.017042357053100265, 0.08512943489979666, 0.09089816521713374, 0.08485641908194694, -0.022699912332838773, 0.07936268285044422, -0.08162963794203541, 0.026936844801557606, -0.10250655836341856, 0.0663998186505278, -0.08735667854736333, -0.06338500107972042, 0.05393852594652683, 0.02075511314215261, 0.0008804492613456705, -0.06781739282406866, 0.0002541509303538837, 0.01357168934672264, 0.07005192754227965, -0.03507887697736664, 0.11311472291388625, -0.061267164703277775, 0.04339142067477694, 0.03704037387481857, -0.02376834160401163, 0.10240186149154828, 0.09391358685538861, 0.08313949449889439, -0.08973212929824559, 0.0889481118512752, 0.0505554823974113, 0.1013121354032595, -0.08845508417090533, 0.10730002960648767, 0.06794924893889197, -0.08534934798279646, 0.04236343031634497, 0.004482954849865041, 0.03366366414302562, -0.09058580157896312, -0.10009424432151097, 0.09994908976509478, 0.05647951966251211, 0.08716375238014992, -0.015660157991563603, -0.06716432346150858, -0.011473323051067175, -0.0437251039806854, 0.1002162483982269, -0.03317796108682002, 0.04984271295935725, -0.10201737702221558, -0.07263095390997827, -0.101895733918824, -0.015315824227948981, -0.10987071994104894, 0.07224913562981503, 0.0530865111965943, -0.04996047764186458, 0.08039007610557554, 0.09988091805015759, 0.01835811542006269, 0.038850121347820794, -0.09004317478006482, -0.027041835899612045, -0.11221789728710291, -0.08971661581229132, -0.08218709049052084, -0.07127992760939314, -0.11129056709984719, -0.022358036580995166, -0.1102546707944071, 0.06937752203572356, 0.004524752497673035], [0.09980161488056183, -0.0032675713300704956, -0.10871627181768417, 0.09109626710414886, -0.08085308969020844, 0.008588887751102448, -0.10985428094863892, -0.00035560131072998047, -0.08357597887516022, 0.03848893940448761, 0.04428534209728241, -0.07382872700691223, 0.05425707995891571, -0.023985035717487335, 0.10627113282680511, -0.10825536400079727, -0.10401330888271332, -0.04732940346002579, 0.08652825653553009, 0.0864197313785553, -0.061950333416461945, 0.0185825377702713, 0.08072730898857117, -0.002111956477165222, 0.06636713445186615, -0.10045138746500015, 0.025996103882789612, 0.11006373167037964, -0.04166261851787567, 0.02793407440185547, 0.07864370942115784, 0.03618824481964111, -0.07120643556118011, -0.1103285476565361, -0.025195620954036713, -0.08198341727256775, 0.04912906885147095, -0.08368030935525894, 0.0776139497756958, -0.024020396173000336, -0.07741309702396393, 0.06835295259952545, 0.04934251308441162, -0.10425658524036407, 0.07705847918987274, -0.10701283067464828, -0.08148802816867828, -0.002604275941848755, 0.029340848326683044, 0.021717175841331482, -0.017059363424777985, 0.018127039074897766, 0.11173763871192932, 0.09214331209659576, 0.07900741696357727, 0.06681573390960693, -0.0717826560139656, -0.09540177136659622, -0.05606032907962799, 0.05699513852596283, 0.06430482864379883, -0.06471255421638489, -0.004199877381324768, -0.08044186234474182, 0.058127522468566895, 0.038954779505729675, 0.011964365839958191, 0.04219627380371094, 0.03973802924156189, -0.0004495382308959961, -0.043234191834926605, 0.008843906223773956, 0.007369242608547211, -0.048503123223781586, 0.020594924688339233, 0.01972632110118866, -0.021178454160690308, 0.03894208371639252, -0.06387101858854294, -0.0762881189584732], [0.03863541781902313, -0.026980355381965637, -0.03478333353996277, -0.08032400906085968, -0.0808182954788208, 0.10089990496635437, 0.028528064489364624, 0.07445590198040009, -0.010194815695285797, 0.03348183631896973, 0.10283824801445007, 0.06253273785114288, -0.007253073155879974, 0.0603204220533371, 0.06008155643939972, -0.03352038562297821, 0.04051801562309265, 0.0532708615064621, -0.07008896768093109, -0.07754584401845932, 0.034989431500434875, 0.02685028314590454, 0.09455454349517822, -0.04640321433544159, 0.05230270326137543, 0.05556301772594452, 0.06285180151462555, -0.023646079003810883, -0.08651481568813324, -0.09601402282714844, -0.0412268340587616, -0.018985286355018616, -0.00803818553686142, -0.09574688225984573, 0.05284425616264343, 0.0690285861492157, -0.07496562600135803, -0.034214720129966736, 0.07640168070793152, -0.04242466390132904, 0.10837407410144806, 0.08602364361286163, 0.10171625018119812, 0.0007103532552719116, 0.014327064156532288, 0.0035077184438705444, -0.035605378448963165, 0.03228949010372162, -0.08749545365571976, 0.10600806772708893, -0.09124386310577393, 0.06527286767959595, -0.003858432173728943, 0.0024505630135536194, 0.019627749919891357, -0.07940036803483963, 0.02493983507156372, 0.08867569267749786, 0.06835862994194031, 0.016573339700698853, -0.08981677889823914, 0.07141837477684021, -0.09981239587068558, -0.05063483119010925, 0.053446605801582336, 0.07823924720287323, 0.06027805805206299, -0.027556955814361572, 0.012638650834560394, 0.07029981911182404, 0.1056734025478363, 0.10167732834815979, 0.09423933923244476, 0.008517555892467499, 0.039581552147865295, 0.0033979490399360657, -0.026149727404117584, 0.023757338523864746, 0.07077735662460327, -0.09846679866313934], [-0.01750759780406952, -0.006610369308023067, 0.013366379036797438, -0.025401138516525344, 0.10692833765238033, 0.07048734091109683, 0.10900867378129367, -0.0653860934488002, -0.08311917670980727, -0.07585170193459902, 0.09091125515982504, -0.07621485627277967, 0.027770906563020822, 0.05247717387995562, 0.0012127777399189516, 0.0018451667172291483, 0.021963785974269304, -0.07507205088674865, 0.023460853831760338, 0.05344930241935804, 0.04953594102137232, -0.05816904140659413, 0.050907081161262, 0.00783427094191754, -0.03291012073361856, -0.04994257962390932, -0.06130784748408659, 0.06320497675975698, 0.0417998760105598, -0.10710166501986661, 0.008496467592329847, 0.05331750799883484, -0.056861541193765255, -0.050919285972046466, 0.042639878557583846, 0.027324607710621455, 0.10693220013265073, -0.06353361691079755, -0.05618724943504668, 0.07598262721920786, 0.03566865926360309, -0.030609280156036863, -0.07175050889410357, -0.10038223081712186, -0.08273280982234249, -0.06255834268178656, -0.006005977283788131, 0.05958110741977081, 0.05047362457047821, -0.07906672787866101, -0.06685726237309299, -0.09820080093159557, 0.10064701453605754, 0.05701449884388311, -0.016285232696084607, -0.07207927381193655, -0.006263934421245692, -0.1066256223065867, 0.02599383203335843, 0.10385835574395512, -0.06966016392343588, -0.0007661320137900585, 0.07077455599844298, -0.04098873176980534, 0.08037684049779385, -0.10403561795369458, -0.04388465024552187, 0.1036510468766917, 0.10119981951101896, 0.05320003541424881, 0.04775021298673066, -0.09834144226297105, -0.046406396437483705, 0.07016267979727384, -0.0035434123117392183, 0.06690218643457188, 0.05733693465814977, -0.04942815025080576, -0.017607131974668896, -0.10736410319805145], [-0.010051675140857697, -0.11159484088420868, -0.06169207766652107, -0.06511929631233215, -0.0844874158501625, -0.04292238503694534, -0.0008768513798713684, 0.03338789939880371, -0.03975014388561249, -0.0842260792851448, -0.010776154696941376, 0.06622117757797241, 0.011248365044593811, 0.09802240133285522, 0.03578612208366394, -0.06636650115251541, 0.04054085910320282, 0.09314361214637756, 0.07393288612365723, -0.10417768359184265, -0.04960052669048309, 0.0032976046204566956, 0.0643550306558609, -0.07114171981811523, -0.05031004175543785, 0.06819687783718109, -0.034857138991355896, 0.02711540460586548, 0.0830790251493454, -0.07255050539970398, 0.08408136665821075, -0.1043756976723671, -0.11012449860572815, -0.06863579154014587, 0.03932209312915802, 0.01070338487625122, 0.09761416912078857, 0.00426512211561203, -0.10293152928352356, -0.07117132842540741, 0.06761611998081207, 9.785592555999756e-05, 0.03118416666984558, 0.04482299089431763, 0.07743203639984131, -0.03697029501199722, -0.10338982939720154, 0.04919494688510895, 0.06654295325279236, 0.03777800500392914, 0.0989636778831482, -0.004702135920524597, 0.05328935384750366, -0.10881159454584122, 0.05418981611728668, 0.1022845208644867, 0.0653897076845169, 0.0316193550825119, 0.05569718778133392, -0.11042409390211105, 0.1074686348438263, -0.07983304560184479, 0.010307557880878448, -0.08482047915458679, 0.008228786289691925, -0.01084376871585846, 0.10306397080421448, -0.1093490868806839, 0.06590127944946289, -0.06619179248809814, 0.012697696685791016, 0.05772674083709717, 0.09095728397369385, 0.08198212087154388, 0.08977414667606354, -0.020308315753936768, 0.08764559030532837, 0.07090288400650024, 0.08294956386089325, -0.0015060007572174072], [0.09081348776817322, -0.041678398847579956, 0.07918389141559601, 0.09020522236824036, -0.0036646127700805664, 0.10370425879955292, 0.10186828672885895, -0.10718049854040146, 0.04215039312839508, -0.03355520963668823, 0.10207757353782654, -0.10729070752859116, 0.06346505880355835, -0.07108509540557861, -0.06367408484220505, -0.0820566788315773, -0.030883289873600006, 0.08300988376140594, 0.02609884738922119, 0.07919898629188538, 0.08161419630050659, -0.09579650312662125, 0.10591089725494385, 0.07538135349750519, -0.09566301107406616, -0.052878908812999725, -0.10873183608055115, -0.02253802865743637, 0.10447430610656738, 0.10921946167945862, 0.09103533625602722, 0.02980165183544159, 0.015591934323310852, 0.0005156472325325012, 0.08388294279575348, -0.012828685343265533, -0.024060428142547607, 0.0008272826671600342, -0.026431962847709656, 0.049467965960502625, 0.0970027893781662, -0.0626954436302185, -0.06163136661052704, -0.03319040685892105, -0.021038025617599487, 0.03197075426578522, 0.04389128088951111, 0.054074183106422424, -0.05952424928545952, -0.07046718150377274, 0.09508706629276276, -0.03623537719249725, 0.028332531452178955, -0.09968928247690201, -0.07340572774410248, -0.09605059027671814, 0.057061195373535156, 0.08281737565994263, -0.027404069900512695, -0.07876800745725632, 0.10950851440429688, -0.08594883233308792, 0.07993929088115692, 0.061980172991752625, 0.06616999208927155, 0.08126676082611084, 0.05640408396720886, 0.09367267787456512, -0.10858751088380814, 0.07843032479286194, -0.06874170899391174, 0.11004708707332611, -0.09697431325912476, 0.07282932102680206, 0.07753685116767883, 0.0459744930267334, 0.09019066393375397, -0.09997300803661346, 0.04826673865318298, 0.06768827140331268], [0.06197994947433472, 0.0026395022869110107, 0.10986591875553131, 0.0065436214208602905, -0.04586935043334961, 0.07549789547920227, 0.03167501091957092, 0.006106570363044739, 0.05496378242969513, -0.06682641804218292, -0.03608836978673935, -0.019349850714206696, 0.06995892524719238, 0.07927483320236206, 0.04561600089073181, -0.03694699704647064, -0.0997103899717331, -0.05978639796376228, 0.014243394136428833, 0.007393509149551392, -0.053316760808229446, -0.056274790316820145, -0.09261518716812134, 0.09149648249149323, -0.08549963682889938, -0.10536395758390427, 0.10770319402217865, 0.023508548736572266, -0.08729882538318634, -0.07251434773206711, -0.00550851970911026, 0.026390135288238525, -0.03984832018613815, 0.02232019603252411, 0.09558349847793579, -0.06886717677116394, 0.03792330622673035, -0.01336488127708435, 0.03511768579483032, 0.07129926979541779, -0.00807199627161026, -0.014210931956768036, 0.07533346116542816, 0.08134384453296661, 0.008328579366207123, 0.008269637823104858, 0.09078653156757355, 0.034432023763656616, 0.0058348700404167175, -0.009258098900318146, 0.05264405906200409, -0.035317905247211456, -0.003241889178752899, -0.09308183193206787, 0.06271515786647797, 0.09077449142932892, 0.0999467521905899, -0.1065417155623436, -0.11002552509307861, -0.04354853183031082, -0.011928483843803406, -0.10613926500082016, 0.013030096888542175, 0.03968086838722229, 0.041316837072372437, -0.05542045086622238, 0.003203175961971283, 0.004301309585571289, 0.03858491778373718, -0.005989432334899902, 0.040755495429039, -0.11148637533187866, 0.0677957534790039, 0.048737555742263794, 0.07595899701118469, 0.08831007778644562, -0.053758103400468826, 0.11137008666992188, -0.022966310381889343, 0.0817323625087738], [0.01001042127609253, 0.037412114705807166, 0.046468409611127984, 0.01902167791227519, 0.0028573704609228512, -0.08334666894451838, -0.10122506494373998, 0.10634773491215353, -0.03826230643730614, 0.04534322191434097, 0.058403957404447954, -0.03895686310928226, 0.09284285736577308, 0.001921509196882036, -0.02008223654350317, -0.05885433495867247, -0.016505863702221752, -0.07538648537407114, 0.061161147103265256, -0.07320473598643959, 0.08009859336441881, 0.011987792008246444, -0.08379230159977875, 0.05672899018171693, -0.024948219492197405, -0.06760279948828271, -0.040476607864282865, 0.08873293129711965, -0.04008885456473945, -0.08664062892033336, 0.0982064505194901, 0.01424991569113, 0.04377332391060215, 0.08381553155099536, 0.1092781569516797, 0.0933170744289905, 0.019492367471401872, -0.06794649550772547, 0.08506951917718013, 0.014882017109354835, 0.058010857369938995, 0.06547138403345983, 0.08658456990576624, -0.017789581979458513, -0.08908329690594972, 0.03484168688891938, -0.08956640374576236, -0.034570232646831095, -0.10208873680423955, -0.09492588537685857, 0.019060361133353694, 0.0001899225846063458, 0.05333883734435223, -0.09318518381796044, -0.031323923515104685, 0.014304171039820067, -0.11207535247448353, 0.051652769331731366, 0.08978319758859725, 0.09471127973967665, -0.017522168584616804, -0.10079413805957174, -0.11393606075038717, -0.02862590160377419, -0.07820363252532476, -0.06191354869285548, -0.11537424921048138, 0.07967588769896233, -0.001293959792443525, 0.06269716867034306, -0.07037572730736917, 0.10021332530718305, -0.0559851069588626, -0.020492380608609095, 0.0044954981066391885, -0.007346442128117209, 0.002006632148225902, -0.05885063753857434, 0.07914521518730507, 0.05150097608566284], [-0.09628545492887497, 0.06357094442839639, -0.10581504835997603, -0.059347784693132025, -0.07746190912562076, 0.04799325662438642, 0.083305161324907, 0.07135392932108753, -0.030986228464821217, 0.05471590561738447, 0.0874676171509629, 0.11391930403412465, -0.10764629483173926, 0.03585836494236463, 0.021067032982056384, 0.03089750819430996, -0.022012048585742343, -0.05988092848106762, -0.06785751617891883, -0.022490889889685395, 0.07749128646179441, -0.0037086620424992534, -0.0876896781375813, -0.08349234494627321, 0.10062526288229251, 0.03714632732362845, -0.07942751446904225, -0.003394195724513721, -0.007001694639423722, 0.06337406874760083, 0.040349261743240314, 0.03004352235986097, -0.006634407045025883, 0.07036624768798937, 0.03285783713822602, 0.048675212669819536, -0.09456164353022915, 0.0032267827274791456, -0.06025415905159256, 0.031101875430570622, -0.020757720297800084, 0.05654873200100204, 0.03441100980019649, -0.06870535797943729, 0.044022392820864974, -0.0640833694315457, -0.053630943540984286, -0.050901673434595986, -0.08530089491797785, 0.06991386236507417, 0.025519881237903306, -0.04317406902720607, -0.0350472313275073, -0.03747368207035974, -0.11221929383964635, -0.007499129797995276, 0.09247318539083803, 0.047402108972351496, -0.06251952280652456, 0.016090613538777766, 0.009070777458636041, -0.04374258481519129, 0.0802364362125053, -0.054137765245110124, -0.08921811245904615, 0.10798791570549697, 0.07869121229381087, -0.04332180976916706, 0.027392609694589246, 0.003729143384277297, -0.1040581355797334, 0.05376754093048897, 0.05810139866658335, -0.05194848018663002, 0.01658843559439408, -0.09161558412474927, -0.04563874137889328, -0.09434862897480943, -0.04071895575518628, 0.0751756876707077], [-0.03286437690258026, -0.07587321847677231, -0.0886378362774849, 0.0054295361042022705, 0.09968864917755127, 0.036164671182632446, -0.006330937147140503, -0.05389280989766121, -0.044603973627090454, -0.014550171792507172, 0.09323027729988098, -0.039950840175151825, -0.08798156678676605, -0.010145112872123718, -0.07220328599214554, -0.07707463204860687, -0.04055117070674896, 0.08998771011829376, 0.04803533852100372, -0.0984933078289032, -0.0066910311579704285, 0.03048183023929596, -0.015774264931678772, -0.06398889422416687, 0.10796639323234558, 0.006106480956077576, -0.1000593900680542, -0.020769044756889343, 0.08926220238208771, -0.11108789592981339, -0.07621845602989197, 0.0650433599948883, 0.02952897548675537, -0.09375234693288803, -0.043357931077480316, -0.007043890655040741, -0.028262324631214142, 0.06577643752098083, 0.09090526401996613, 0.00872444361448288, -0.020614460110664368, -0.014923378825187683, -0.09868086874485016, 8.779019117355347e-05, 0.07698528468608856, -0.08654988557100296, -0.055827222764492035, 0.06016707420349121, 0.005524151027202606, -0.04128625988960266, 0.03163452446460724, 0.05212941765785217, -0.023495815694332123, -0.06229493021965027, -0.05530284345149994, 0.10157553851604462, -0.02521638572216034, 0.09677490592002869, 0.020610705018043518, -0.030732348561286926, -0.09433787316083908, 0.019050970673561096, -0.0352436825633049, 0.0545995831489563, -0.04453907907009125, -0.02451132982969284, 0.043948620557785034, -0.08023743331432343, -0.05741242691874504, 0.0862458199262619, 0.041650667786598206, 0.1065106987953186, -0.059205565601587296, -0.05127396434545517, 0.11039203405380249, -0.07681450992822647, 0.07735882699489594, 0.022708788514137268, 0.0929393619298935, -0.09161147475242615], [-0.04035724699497223, -0.08920219540596008, 0.011246688663959503, 0.10856263339519501, 0.012347541749477386, 0.019644945859909058, -0.0751156136393547, 0.00544372946023941, -0.0871228575706482, -0.09622251987457275, -0.044297389686107635, -0.0006111413240432739, 0.01070917397737503, 0.015208244323730469, -0.01324162632226944, -0.096568264067173, -0.10048341751098633, -0.01717502623796463, 0.10333672165870667, -0.09395081549882889, 0.06921364367008209, -0.09926719963550568, 0.05766984820365906, 0.061116352677345276, 0.07493777573108673, 0.00832417607307434, -0.07256332784891129, -0.021623283624649048, 0.04230968654155731, 0.09359017014503479, -0.057052358984947205, -0.007884621620178223, 0.005134150385856628, -0.05027388408780098, 0.026507779955863953, -0.06030914932489395, 0.03700338304042816, 0.020238816738128662, -0.03213829547166824, 0.09101936221122742, -0.013152942061424255, 0.06917132437229156, -0.026055939495563507, 0.06720924377441406, 0.046269699931144714, 0.031470030546188354, 0.07521122694015503, -0.06971359252929688, 0.0818423181772232, -0.05872059985995293, 0.005836330354213715, -0.0013808459043502808, -0.0882187932729721, -0.052408814430236816, 0.02210114896297455, 0.0025539249181747437, 0.0703449547290802, -0.008819296956062317, 0.01690371334552765, 0.0351443737745285, 0.08221790194511414, 0.08668115735054016, 0.0001796633005142212, 0.08485434949398041, 0.04761631786823273, 0.053561508655548096, -0.001323215663433075, -0.004791460931301117, -0.004681393504142761, 0.07973463833332062, 0.09281857311725616, -0.010175973176956177, 0.07860338687896729, 0.08920642733573914, 0.029916957020759583, -0.08013829588890076, 0.07130545377731323, -0.044935375452041626, 0.10475610196590424, 0.0728851705789566], [-0.05140908062458038, -0.04004082159856149, -0.06392065628722497, 0.11133262986618452, -0.000821501065672256, 0.0015524380885198427, -0.09306759159037428, -0.054438642714144905, -0.035152270086981394, -0.010479585020407724, -0.029222468288161794, -0.04425785468104983, 0.04516243842934953, -0.018251716065608395, -0.09101195327949066, 0.10021118623710487, -0.06393390186097048, -0.10190334369142885, 0.0779713889935824, -0.04801748451889387, 0.028980666227773882, 0.08294421986821203, -0.024718087079391597, -0.018781170498506288, 0.06120188941451521, -0.07458232626394068, -0.015217345686778206, -0.0356117258551252, 0.005050006012745476, 0.02494878124202241, 0.029674279276004602, 0.000652400523562266, 0.008262915683544966, -0.0936866352455481, 0.07173414315965863, -0.10183291012351521, -0.06629016884207961, -0.07111071440371083, 0.03968082750400293, -0.03646555530523991, 0.04488126176094746, -0.04811162138541925, 0.04042265954407267, 0.03255520649790998, -0.09395311897690288, 0.009560363628595126, 0.09662734960483155, 0.03297650985642543, -0.10475051936521038, 0.09412011247528479, -0.10490470181907163, -0.10564540575010357, -0.09289511342023492, 0.025872033568247934, -0.10958834454342092, 0.06102624128368883, 0.05290713931240246, -0.09563617789520251, -0.08437479839804678, 0.01565883176760271, 0.06545063612163887, -0.08535439282449213, -0.057458022491136865, 0.009447418525475485, -0.0673049221704087, 0.040924151167388144, 0.09827154772301802, 0.0887046018471779, 0.00397182033542299, 0.00029727295181993966, -0.07566790959371654, 0.009911647626139265, -0.06736583307015682, 0.06829058150717573, 0.03354106312169285, -0.025923192452012685, -0.08642534638124875, 0.06410484954074212, 0.012691841290982447, 0.019737347960472107], [-0.04371483623981476, -0.045558953079238365, 0.10753807128204805, -0.0037080691687586646, -0.012292091068977128, -0.09399866673156457, 0.0905845442276822, 0.034042611262170445, 0.10522726872610984, -0.10254884088637775, -0.07418949830364378, -0.0673458467182099, -0.01987803980783529, -0.016217908776382028, 0.03897497978018973, 0.0894353222825563, 0.01821173356364664, -0.1104641787203028, 0.042953027600234804, 0.09138829288594884, 0.10079737449499768, 0.05149821362087202, 0.024604622967354703, 0.05885901493170137, -0.008849026043666962, -0.0989825862927411, -0.0074142323795975094, 0.07132829163143484, 0.003492225227080328, 0.03565661223161401, -0.06827988256216472, -0.05430135929774556, 0.07131487652901372, 0.05414497824343948, 0.10016380107802011, -0.09550537296442801, 0.01987252307213233, -0.09415618343297533, -0.09877226502661463, 0.08814386767771393, -0.009792951172853963, 0.04449775070910212, -0.03165270375069088, -0.0677969224480479, -0.06030140689702216, 0.021894590493024852, -0.09784834058913502, 0.08489006235953608, -0.08178960478115764, 0.04490103353262372, 0.09576899199259102, -0.029512699959002485, 0.04558872249057445, -0.08571749609072798, 0.0018684107346509829, 0.01639054097677622, -0.08165548187830325, 0.1060718104766684, -0.04337256571838331, -0.017358061619726816, -0.03371706632487937, 0.07211457360368367, -0.016661576232127946, -0.013474095626577708, -0.053780308065656424, -0.10201648052739352, 0.08335729590711925, 0.004819820375004476, 0.04393950504626625, -0.05085881498623696, 0.08631154472234195, -0.0276699135606282, -0.03544400586780704, 0.08015808673087493, 0.10821236285373406, -0.03728758889699576, 0.01982364519758252, 0.047963130466799876, 0.10457032302285717, -0.10706853121519089], [0.08325567841529846, 0.060722753405570984, -0.04435190558433533, -0.10782346874475479, 0.10009351372718811, -0.08997295796871185, -0.06360765546560287, -0.0333595797419548, 0.03504815697669983, -0.08907891064882278, -0.017546825110912323, -0.035691939294338226, 0.06553426384925842, 0.055617555975914, -0.004806414246559143, -0.07635506987571716, -0.08122655749320984, 0.06909362971782684, -0.055428195744752884, -0.026003919541835785, -0.02685628831386566, 0.056690722703933716, -0.10729061812162399, -0.04823035001754761, -0.02232961356639862, -0.05451769381761551, -0.06532496958971024, -0.0032408609986305237, 0.04573562741279602, -0.0019987449049949646, 0.04286003112792969, -0.0003649890422821045, 0.06253489851951599, 0.048256441950798035, -0.08643294125795364, -0.025491230189800262, 0.017528623342514038, -0.04956459254026413, 0.0986722856760025, 0.10012413561344147, -0.08394438028335571, -0.11107992380857468, -0.08439211547374725, -0.10978642851114273, 0.037316739559173584, -0.07806582748889923, -0.003759711980819702, 0.051444679498672485, -0.001592107117176056, 0.002987802028656006, 0.06815941631793976, -0.10233798623085022, -0.03578173369169235, 0.054605498909950256, -0.04982786253094673, 0.046961426734924316, -0.03050187975168228, -0.031119756400585175, 0.06697477400302887, -0.06866113841533661, -0.03615575283765793, -0.026258550584316254, 0.10411624610424042, -0.014658577740192413, 0.10750904679298401, 0.004652552306652069, 0.03210362792015076, -0.003158256411552429, -0.04460711032152176, -0.011327989399433136, -0.07317633926868439, -0.027569591999053955, 0.08698996901512146, 0.0829133689403534, 0.0011664777994155884, 0.08483484387397766, 0.03919963538646698, -0.10238517820835114, 0.003952696919441223, 0.04909425973892212], [-0.03688875585794449, 0.052700117230415344, -0.0884726494550705, 0.038594961166381836, -0.09543228149414062, 0.04797278344631195, 0.06966452300548553, -0.09364870935678482, -0.10799577087163925, -0.06660587340593338, -0.06912826001644135, -0.02208618074655533, -0.029834896326065063, -0.08867119252681732, -0.04194214940071106, -0.06502184271812439, 0.053115472197532654, -0.08587498962879181, 0.04741503298282623, 0.03923794627189636, 0.03455585241317749, 0.09279300272464752, 0.05637657642364502, -0.039679624140262604, 0.03584828972816467, -0.03693214803934097, 0.07945418357849121, 0.0414644330739975, -0.06885112822055817, -0.0248592346906662, 0.02497251331806183, 0.053661078214645386, -0.06463116407394409, -0.10278631001710892, -0.02535487711429596, -0.04643740504980087, 0.015011817216873169, -0.0989261046051979, -0.05003504455089569, -0.032741397619247437, 0.03770528733730316, 0.09114937484264374, 0.10230298340320587, 0.0731172263622284, -0.06167100369930267, 0.04803137481212616, -0.005215659737586975, 0.019654452800750732, -0.05745631828904152, -0.07306770235300064, 0.02783285081386566, 0.09686897695064545, -0.012458495795726776, -0.03579111397266388, 0.006824314594268799, 0.05598220229148865, -0.06975014507770538, -0.0837584137916565, 0.06883032619953156, -0.040544696152210236, 0.06584542989730835, 0.07977855205535889, -0.08872067928314209, 0.07438793778419495, -0.06149911507964134, 0.05761270225048065, -0.026639878749847412, 0.020898640155792236, -0.10016220062971115, 0.1019173115491867, -0.05723318085074425, -0.05168205127120018, -0.06433753669261932, 0.010815605521202087, 0.06827127933502197, -0.05875227972865105, 0.06820914149284363, -0.0038452520966529846, 0.015325233340263367, 0.05475093424320221], [0.10146807134151459, -0.005338944494724274, 0.059742823243141174, -0.10522134602069855, -0.06487144529819489, -0.10353727638721466, 0.012447729706764221, 0.03268410265445709, -0.021490365266799927, -0.048179589211940765, 0.08609773218631744, -0.02865263819694519, -0.030710823833942413, -0.03375428915023804, -0.02056819200515747, -0.09234990924596786, -0.0502750538289547, 0.016627147793769836, -0.04856856167316437, 0.043664172291755676, 0.027444988489151, -0.015693821012973785, 0.06435801088809967, -0.05447608232498169, 0.02926059067249298, 0.04543307423591614, -0.0039328038692474365, -0.10279561579227448, -0.03264565020799637, 0.05437931418418884, -0.047839000821113586, 0.08933524787425995, -0.08829918503761292, -0.09148278832435608, 0.04072222113609314, 0.07763504981994629, 0.08664840459823608, -0.040220730006694794, -0.10376038402318954, 0.05191075801849365, -0.002732798457145691, -0.024898871779441833, -0.03913293778896332, 0.033422961831092834, -0.014133960008621216, 0.016247496008872986, -0.033043451607227325, 0.03299206495285034, -0.028009049594402313, 0.07460944354534149, -0.09430857002735138, 0.021050214767456055, 0.10365480184555054, 0.07298247516155243, -0.05309763178229332, 0.05565081536769867, 0.07105228304862976, -0.08642324060201645, 0.008875854313373566, -0.0004022270441055298, -0.10734769701957703, -0.04476908594369888, -0.0889597088098526, -0.016261428594589233, 0.02063584327697754, -2.8721988201141357e-05, -0.05266716703772545, 0.10963162779808044, -0.002131357789039612, -0.021465107798576355, 0.06930087506771088, -0.03732467442750931, -0.04278729110956192, -0.0323958620429039, 0.0933079868555069, -0.00046016275882720947, -0.014980047941207886, 0.1100320816040039, -0.055910881608724594, 0.036603182554244995], [0.07346318662166595, 0.0669416748382148, -0.10671272351228925, -0.025330294036899993, -0.07102396959693259, 0.06351933402274343, -0.08070881744785943, 0.10156082884263949, 0.08710255827099528, -0.017017094205097092, 0.05697096316707735, -0.08785108541605366, -0.0130507892301079, 0.0011713013293603932, 0.06218166306812017, 0.025188037137358787, 0.04268943626933936, 0.03827547535086244, 0.036681487065422326, 0.0706067016549105, -0.060105670264196345, 0.061132070520139706, -0.07734948451467821, -0.048386789965687675, 0.04710410160334156, 0.06830165159859934, -0.041107672567188995, 0.09489361360580553, 0.028705694289661212, 0.04857196220230224, -0.058571270810683876, -0.06147133117200045, -0.014568757593039454, -0.0461934579921729, -0.04722314707713753, -0.06512106113048047, -0.07286693926980217, 0.07591572043617736, -0.010891209854903676, 0.09243942713472818, 0.08434544587399985, 0.09517563463670303, 0.11127853753844727, 0.07937767382790764, -0.11093060769228488, -0.09328588463587136, -0.025706552116774833, -0.06945865196048842, 0.0380019873905292, 0.038018773453553825, -0.06889777191948053, 0.11228119531109254, 0.11132126137702833, 0.0519070060203674, 0.08791687714895925, 0.08882664519040542, -0.08410423983329679, -0.10741805975488355, 0.036429437896989804, -0.10555518789010052, -0.008182928544997626, -0.00217032323466516, 0.1051980604252759, 0.03389631848281976, -0.05058670876440344, -0.030995797665898453, 0.05095839945055445, -0.001471241719484689, 0.091220267764305, -0.06980025200737126, 0.07619664610453027, 0.06414232049792562, -0.016140868522643594, -0.10857108155326209, -0.10530685407374593, -0.0035144177612560063, -0.10290263954397531, -0.009437014918687592, 0.03737362097725298, -0.09505391120910645], [-0.030008211731910706, 0.10850307879275103, 0.06286983674341855, -0.008790374381304426, 0.041318926928496105, 0.08768153969590751, 0.0789801914482551, 0.08652664469346608, -0.10271370777575459, 0.004841160130536122, 0.10860798246323532, -0.0901883360454771, 0.08625617367219487, 0.08820436064876871, -0.0013915364879743498, -0.08262581897837365, -0.08633600450657034, -0.06653493593427909, 0.02855511435048126, 0.03852197045436128, 0.06761751345598069, -0.05034751281307222, -0.09963779849680536, -0.02663201718731727, -0.09400658715711695, -0.012329932132004976, -0.04988217119968244, 0.025748314767082503, 0.07428074711537555, -0.043902799547771425, -0.011894674284949475, -0.039502791321319335, 0.01387199833639652, 0.05719457856464901, 0.1044630556189072, -0.08269712626455517, 0.08111735305609863, -0.0897784434403722, 0.045183135600866835, -0.06025626571378288, 0.08981945054134906, 0.06947586086195522, -0.06900335325342968, 0.07307884969887574, -0.1077038243460825, -0.06723994005551456, -0.08024128071117916, -0.06203415318974049, 0.0012435309648930778, -0.03469350816439131, 0.023965612114528637, -0.0770429455635567, -0.020616243093212416, -0.003853833778735921, 0.015265825965642216, 0.02178197015272244, -0.09825420499638704, 0.044962457844339554, 0.019298875929574976, -0.10772667101823655, -0.06349209586134179, -0.04526322015301728, 0.020892150206301308, 0.06209887094400548, 0.047107604871813896, 0.05841697652522489, -0.0815406507698472, 0.10102626937437495, -0.09380482467916279, 0.05393570178092054, 0.039969231831992115, -0.05348629510314967, 0.010616878701595441, 0.0041718493909401536, 0.041247091848205644, -0.0038125849942920306, 0.07870864926076, 0.056998903695996445, -0.01241103348559161, -0.019909068942070007], [0.08926911652088165, -0.07351332589768175, -0.0480623258858969, -0.11088450020672823, -0.10644740382542875, 0.005203765707162898, -0.09697839219314675, 0.08560676107159311, -0.10926229930201573, 0.06008429849411182, -0.025192890656683394, -0.09821479149049178, 0.0605477510337575, -0.010989232537258847, -0.08530793450446433, -0.0037194698382225673, -0.02553363305128162, -0.08676875011575703, 0.02835889936332811, -0.004639326287914977, 0.052084035365026454, -0.009508128345918868, -0.10909426108901084, 0.017317873200468455, 0.09616088340497056, 0.09419388673931128, 0.054738647865063494, 0.07150877809668325, -0.1044575686862441, 0.08155310058754209, 0.09586145068716583, 0.0727913380278541, -0.07229412900939897, 0.05001815091553682, 0.049806779397215874, 0.056230304903619126, -0.07636557071110583, 0.006116713165108813, 0.10022519550697324, -0.09349701153087837, -0.005319413077352202, -0.03623826078550335, 0.0744574267875508, -0.0466504886875453, 0.009266020589239747, 0.056516149865899055, 0.018257896791067173, 0.0739817302180858, 0.07622823113069997, 0.042840599164251744, -0.10791683101814512, -0.10850276394582072, 0.09963315927838541, 0.0757220316660339, -0.0503895690265275, -0.0901389069340233, -0.01787330653338853, 0.03525774822537487, 0.061499307931375716, 0.022975408347208032, 0.08520335580270454, -0.09659608484153859, -0.01073617859231943, -0.029111830772990534, -0.08672762072793573, -0.07931002118019753, 0.014636366245259026, -0.11240945442960101, 0.03953412301724812, -0.10572421144178155, -0.08563479805256058, 0.05374026721993489, -0.09496683606854135, 0.02886151869041537, 0.08402706973061178, 0.0430801934968499, -0.08809398347018217, 0.09122166173756618, 0.050270777789580834, -0.04048186540603638], [0.024997010827064514, 0.010474697784086365, -0.05780253756065021, -0.047653570882073455, -0.012939598100559281, -0.07233252925136048, 0.038782640926053304, -0.001820094163574894, 0.00602549791967684, 0.031219078143036986, 0.048348289260493886, 0.09483142917433589, 0.008994970802348314, -0.06253652129578757, 0.0828253856628138, 0.06881709007508462, -0.0035778089910143214, -0.026941138791246926, 0.007827745426987866, -0.08291007500626138, -0.07977138107513532, 0.03891787049475754, 0.053398658501303126, -0.018910296447663257, 0.03678371007975515, 0.02662398810361708, -0.044599794608015504, 0.043835880951334914, -0.058314771919856186, 0.0452074461211691, 0.09494446078580406, -0.016051192773469142, 0.1015253314913762, -0.10688078780789834, 0.0659536257169937, -0.05003831541829783, 0.060114043948130386, 0.05996603637918823, -0.07036604372301496, 0.0464208082269376, -0.09973571011530821, -0.09968327345809543, -0.07109633207306262, 0.09659932256035347, -0.0858572087556772, -0.03990333376152269, 0.05265441914220313, 0.08710797632322188, 0.09831017721999472, 0.10966517170626137, -0.02886842718024351, -0.08980420085846408, -0.06680915017550179, -0.09088107867870855, 0.009434124875318155, 0.0746059120124918, 0.009693369455723713, 0.04034730328401334, -0.052231394919787295, -0.07661535943056003, 0.10182408165670923, 0.03122259522547796, 0.002240005420847437, -0.022383366569936912, -0.032214302401611224, 0.0568122484953207, -0.05528521682810612, -0.017202932719271827, 0.09254656011780889, 0.05320057617701374, -0.11029464556733436, -0.07398545474445632, -0.10465595198138744, 0.01973477042515063, -0.0703088511779074, -0.07407226817093651, 0.0867792369043742, -0.03974385362844815, 0.029676346942285395, -0.03017694503068924], [0.08413669466972351, -0.08144957273371797, 0.07440552231448916, -0.032017067274009645, -0.026523677555184533, 0.10595039600127638, -0.060895449080732696, 0.017738466527649134, 0.10850590256307437, -0.07371394510469885, 0.0948511206245793, 0.06298700487280054, -0.023802676625778632, -0.036366769727474005, 0.05766999177932995, 0.03675404498812744, 0.03737191843584797, 0.07534913947349862, -0.02059998323483325, 0.11396425098304709, 0.011821058775426923, 0.07565692865975307, -0.07032659399922137, 0.006498420100201285, 0.095469672460259, 0.052736893084741374, 0.03568881801763056, 0.08407382290256923, 0.04275617734964203, -0.06485339904963101, 0.05021749450664311, -0.06204067369819579, -0.042568902096497725, -0.027919092662667212, 0.03813049768788136, 0.04211707272400444, 0.006101263953360539, 0.01250696866629256, 0.03644309628860102, 0.05436865999257343, 0.09436333165610056, 0.09791238915069948, 0.01576086194398269, 0.0073322297204408814, 0.0553792282117408, 0.06730061197894299, 0.026723959930275855, -0.019825053789866248, 0.03934648832202851, -0.04487001909713536, -0.06683217083276187, 0.10059916241590663, -0.08178228508127636, -0.004283659676699705, 0.07930573842217851, 0.057590525369941116, -0.04303912953614103, -0.10570588212792631, -0.05807997712619709, 0.003433334444520875, 0.07388698428745309, 0.07727307041449409, 0.06223743925326986, 0.07509875309869035, -0.08189586112734863, 0.02838182992934924, -0.0645175262725298, -0.0834016637725329, -0.08026548987293404, 0.010269135918580145, -0.08118599478997736, -0.034735133622625605, -0.1105475103523218, -0.0662902904960838, 0.0041094017625480294, -0.025188842865366764, 0.07553702612773118, 0.06557664159160825, 0.09860009401209932, 0.10277791321277618], [-0.1101943850517273, -0.04326225492622144, 0.03952750456098276, 0.1045442509178666, 0.06244788411259228, 0.07671302749931898, -0.08673505370871024, 0.05043658404767744, 0.005108077027000893, -0.10494684219505147, 0.05467320837823735, 0.037500444239209375, 0.09975538228880912, 0.09295390928628591, 0.07480719031099511, 0.05871811215196483, -0.08828513072108465, 0.014870232996160682, -0.00949086340406719, 0.0881680912031813, 0.02852346272279819, 0.09881813529192371, -0.04202921886395195, 0.004614142550005771, -0.018785718988785602, 0.007759696766147878, -0.10297062311550044, 0.03326768350992412, -0.09127684269997628, -0.05668784089517983, -0.10028040103194383, -0.03222054698905027, -0.012310660265028374, -0.08340631884567082, 0.09226728884740602, 0.062150194207224396, 0.06842260340746625, 0.03300496668610373, 0.024289864840635538, 0.02766979226080531, -0.10238071271387691, -0.04020273292315888, -0.004713175008628755, -0.07884732166823133, 0.00105789407154605, -0.0833404800133301, -0.10915206658609569, -0.09559824428743134, 0.05884772994956052, 0.09497471592900422, 0.04978616319728287, 0.08485780988785775, 0.04989326822366504, 0.07614137295862101, -0.033560133501301076, 0.11246322483957752, -0.07048111952640042, 0.10124165762613992, -0.11011411699711246, -0.07768622309972843, -0.003269492711035743, -0.019320472159592476, -0.040866806265527904, -0.0976125697674827, 0.09851038749899035, 0.026975578653772352, 0.10863779102918955, 0.051612326751832666, 0.017267060095240393, 0.05477453909071101, -0.08274191826437159, 0.053166467748485095, 0.07521884352743397, -0.009731249162993885, 0.04684188769042407, -0.03703752997517162, -0.03095288450761114, -0.006908408222233832, 0.07025663975145109, 0.07791981101036072], [0.06690685451030731, -0.08734255284070969, 0.019624516367912292, 0.0018802732229232788, -0.07956419885158539, -0.06576314568519592, -0.0008459016680717468, 0.015394464135169983, 0.00899825245141983, 0.07949183881282806, -0.03488357365131378, 0.03813333809375763, -0.05628558620810509, -0.05008278414607048, 0.05750167369842529, -0.08805609494447708, -0.03216852247714996, -0.038262754678726196, 0.05883963406085968, -0.07627762854099274, -0.08937376737594604, -0.08372831344604492, 0.01706036925315857, -0.10920059680938721, 0.08849145472049713, -0.0404333770275116, 0.07327346503734589, -0.0054865628480911255, -0.07332157343626022, -0.04606354236602783, 0.05098399519920349, -0.010400131344795227, -0.003914766013622284, 0.10395030677318573, -0.10781368613243103, 0.027375534176826477, -0.04498467594385147, 0.0412803590297699, 0.056636616587638855, 0.08495825529098511, -0.0003660544753074646, 0.0831291526556015, -0.0017475560307502747, -0.03195520490407944, 0.029356837272644043, 0.03591158986091614, -0.06381189823150635, -0.05399348959326744, -0.04045780748128891, -0.03206372261047363, -0.09891857951879501, -0.03143225610256195, 0.10797937214374542, 0.06847763061523438, -0.04327902942895889, -0.11129859834909439, -0.03395938128232956, 0.06680835783481598, 0.09782253205776215, -0.05493580549955368, 0.038907796144485474, 0.059178829193115234, 0.08326447010040283, -0.05854199081659317, -0.04226849973201752, -0.06018507853150368, 0.025645270943641663, -0.00038627535104751587, 0.027803421020507812, -0.04611685127019882, -0.08662503957748413, 0.0033313632011413574, -0.05044509470462799, 0.08385324478149414, -0.04349566251039505, 0.09443286061286926, 0.08610527217388153, 0.02978155016899109, 0.015197426080703735, 0.01916705071926117], [-0.01696324348449707, 0.07108084857463837, -0.10621371120214462, -0.0969948023557663, 0.04325293004512787, -0.003701254725456238, -0.007408797740936279, 0.027325496077537537, 0.08266142010688782, 0.03530380129814148, -0.06739175319671631, 0.03842499852180481, 0.04470472037792206, -0.01917082816362381, -0.007943786680698395, 0.07726339995861053, -0.04106544703245163, -0.07055088132619858, 0.0322122722864151, 0.007819116115570068, -0.11012480407953262, -0.06443628668785095, 0.00808747112751007, 0.020193830132484436, -0.012096218764781952, 0.009112052619457245, -0.03483905643224716, 0.0018147826194763184, 0.027458563446998596, 0.009009689092636108, -0.06742739677429199, 0.02566687762737274, -0.03653537482023239, -0.08586077392101288, -0.06537854671478271, -0.07242221385240555, -0.052549999207258224, 0.034195125102996826, 0.10434623062610626, 0.07101631164550781, 0.08281967043876648, -0.06332050263881683, -0.0838501900434494, -0.07931315898895264, -0.042963750660419464, -0.04900302737951279, -0.025561697781085968, 0.10873310267925262, 0.016878172755241394, -0.07695947587490082, 0.1023508608341217, 0.08966584503650665, -0.061401594430208206, -0.07761086523532867, 0.07678519189357758, -0.0766972005367279, 0.02483963966369629, -0.05745244026184082, -0.019716784358024597, -0.10787121951580048, 0.07913175225257874, -0.07611245661973953, -0.03823373466730118, 0.08004111051559448, 0.01185520738363266, 0.03611040115356445, -0.031167536973953247, -0.08708513528108597, 0.02308519184589386, 0.012781195342540741, 0.041497036814689636, -0.08813097327947617, 0.051543235778808594, 0.10559248924255371, -0.05876864492893219, 0.09379002451896667, 0.09943798184394836, 0.014496058225631714, 0.0998707264661789, 0.003923654556274414], [0.08670647442340851, -0.015568160170555661, 0.024450616468008335, 0.10798426362635329, -0.10596650656336458, -0.07207708336540844, -0.07195174566104794, -0.004109890575692885, -0.00491975095671723, 0.023809542817026234, 0.0815033523736114, -0.01714433275383051, 0.004482093705179102, -0.09469286905277172, -0.07127891704591136, -0.07533128028987873, 0.10108182739811032, 0.09783696856862274, 0.08891530591432653, 0.050299897767774514, 0.018869025785371155, 0.1103271059195287, 0.03564749414379727, -0.05323235753224049, -0.0019068252677262587, 0.041992186082290224, -0.06453211979234681, -0.06370076576106433, 0.10092437607834921, -0.09724078840953732, 0.04315313704878939, 0.006705942947741279, -0.04930859903690549, -0.06272918673860861, 0.036651910653330705, -0.0591610221330332, -0.05588751248205593, -0.0064700206245532355, -0.09891853241669732, 0.045223191932765916, 0.06558337752428821, 0.09584107010113792, 0.004585895451461346, 0.07326638287986212, 0.00788791087905639, 0.028702019343159788, 0.07323806675779654, -0.059739592421081344, -0.05467105229603838, -0.09462238856227057, 0.004782018730467805, -0.010921206005316835, -0.0023087557233107277, 0.03991806880796416, 0.03922997556836743, 0.034635840022021615, 0.07104683357522644, 0.03853972499911655, 0.011306781371425828, 0.046121852319792433, -0.058503866173498086, 0.050048274217204224, -0.07301724430686203, 0.009737363342475039, -0.08846992784858715, 0.016714619846662056, -0.03342568321477973, -0.020601275815011873, -0.043955747855491084, -0.07491741165496059, 0.09370703442677866, 0.008577933875742657, -0.1131902994558356, -0.014905424205513985, -0.07335155926516865, 0.01680087115639358, -0.09278902056576445, -0.07079418890577154, 0.07599046891355565, 0.059416577219963074], [0.10945053398609161, 0.08843528566676964, 0.08823332809211312, -0.0635273367278655, 0.01669284103243872, 0.0965437900607482, 0.04747036962130234, 0.0555888446162533, -0.07960653575504556, 0.11156465259433672, 0.06525762716858974, -0.09452237307735993, -0.08565689668057595, -0.06861045609025462, 0.06691600501425203, 0.027684081968686106, 0.10141180324057125, 0.06554929226843985, 0.06704235938872471, 0.005132495099433702, 0.05734533903959037, 0.06962048568319, 0.04683743057717265, -0.04185201550302375, 0.08885918415165486, -0.10283684510896492, 0.061887580522591835, -0.012687388597832213, -0.059693679410019546, -0.0036541099527795874, 0.10540435514699907, -0.06004061319717628, 0.05546442517025349, -0.09050959493818218, 0.05725117731568324, -0.060549707976535805, -0.08280119836552036, 0.03430593726705682, 0.02598304541429439, -0.09531762422224399, -0.0264612364659655, -0.10107214988788524, -0.10147552905153409, -0.08761061191337216, -0.021034890892549535, -0.08255162793871866, -0.08468786481914585, 0.010831846809555309, -0.021739284015805934, -0.00895206681739775, -0.09497225034442341, 0.04916944374422136, -0.04459978288520765, -0.09401658512025579, -0.00764394771148868, 0.03753447675132212, 0.04646796310720313, -0.0019243994163412384, -0.08029518582414306, 0.056362859030935755, -0.04023111485851651, -0.11386732874001637, 0.08945716112644997, -0.0002912642310002093, -0.08219343858661368, -0.0349152249086612, 0.0655374492218922, 0.07999749526379739, -0.036685867908510375, -0.0628013681861698, -0.08722561744094773, 0.10935267331445947, 0.042464759748141845, -0.07850480942347209, 0.05717909221006477, 0.03567544223935084, -0.03616754113506479, -0.05525550119878346, 0.05119233491104252, 0.0361260324716568], [0.010671600699424744, 0.10745391249656677, -0.06525111943483353, 0.07083103060722351, 0.0013113990426063538, -0.06193224713206291, -0.04885706305503845, 0.1033635139465332, 0.044525206089019775, -0.006836250424385071, -0.03888782113790512, -0.019263267517089844, 0.0013493001461029053, 0.020303532481193542, -0.09721672534942627, 0.08317740261554718, -0.09735552221536636, 0.10879340767860413, -0.010813713073730469, 0.09150172770023346, 0.01582665741443634, -0.09601461887359619, -0.053712427616119385, -0.03215000778436661, -0.10130858421325684, -0.008917659521102905, 0.0030948445200920105, 0.01277950406074524, -0.04009803384542465, 0.0932420939207077, 0.051318392157554626, 0.005746275186538696, 0.012916512787342072, 0.05648535490036011, 0.10568350553512573, 0.08545039594173431, -0.08859225362539291, 0.07923771440982819, 0.07308423519134521, -0.026315584778785706, -0.029518917202949524, -0.001451246440410614, 0.04051564633846283, 0.06527432799339294, 0.022311076521873474, 0.10523506999015808, -0.10827367752790451, 0.009018577635288239, 0.0959433913230896, 0.03645747900009155, 0.08279573917388916, 0.059200987219810486, 0.07994058728218079, -0.06016869843006134, -0.028329648077487946, 0.1067284494638443, 0.07118883728981018, -0.08671948313713074, 0.02040386199951172, 0.043832287192344666, -0.08734770864248276, -0.018875330686569214, 0.029690876603126526, 0.10484220087528229, -0.013692602515220642, 0.025827646255493164, -0.030696168541908264, -0.05817349627614021, -0.05422891303896904, -0.06421433389186859, 0.037977248430252075, -0.08015894889831543, 0.10640867054462433, 0.05161648988723755, -0.09423186630010605, 0.0302484929561615, 0.002370014786720276, -0.0224258154630661, 0.021360725164413452, -0.017870798707008362], [0.08474868535995483, -0.0648836870057918, 0.11137198854998887, 0.0366448537193988, 0.0021020812360200473, 0.09661799922011637, 0.09098965954739525, -0.10079751897228781, -0.07173571368491974, 0.08790945653686437, 0.030948809352696952, 0.024870379786272795, -0.09685022462494239, 0.026969036831972194, -0.08213543476282736, 0.06493550637173762, 0.06208589150044938, 0.0032876183811996655, -0.0056040587296321024, -0.08720647391590385, 0.06941950903417346, 0.0617478831118393, -0.10136403917103773, -0.024676012021694626, 0.008538760544709572, -0.0002550613282882076, 0.05861816343008771, 0.04541823684325175, 0.094437326152115, 0.07400252513811403, 0.10094606337893154, 0.07805303869322285, 0.09983737788190607, 0.06533708156295312, 0.051148071513551795, 0.07234986680157238, -0.017587941857216016, 0.04996887808275469, -0.02768578320911501, -0.03732569407730456, 0.10759404938726774, -0.03020849138328459, -0.039188998095514856, 0.0661504462083551, -0.05824979948408662, -0.01425906978644759, 0.02264317392162787, -0.07121200880994562, -0.05220931408480144, 0.008019251545785406, 0.030734667254235203, 0.09838340167304979, -0.027340267292165325, 0.10825478497803913, 0.07516903245436773, -0.1087672787923139, -0.01165962763389545, -0.0862003189441585, 0.0029471845918846162, -0.014505593340413552, -0.1067892849752018, -0.09822875238754011, 0.10652834423142929, -0.10243290884826202, 0.09887653491091619, 0.0926697138112702, 0.019379832968595433, 0.10062938262112006, -0.053158960263510496, 0.06921216193121572, -0.05176084508070859, -0.06389854470455322, 0.08402657497299734, 0.021045614958220007, 0.061548260307090104, 0.10398170674167541, -0.0879950598561023, -0.0027782191784793612, 0.1075194407565929, 0.11058282852172852], [0.10196453332901001, 0.025219070711078637, 0.09951255087540753, -0.09843344370188338, 0.09716759163232314, 0.10531881002486054, -0.07526164414442914, -0.04743089846483398, 0.011275450379359028, 0.018180186326753715, -0.0920340380909712, -0.08832161205395529, 0.004140862509253971, -0.06834221217348893, 0.021224631166122214, -0.07362396437623402, -0.055062255332237874, -0.030131833935541873, -0.06621041152558799, 0.00427673480747623, -0.08510170461071129, 0.09672075937051121, 0.021297598651926587, -0.07369658179683412, -0.021231206324152187, -0.10230008438251728, 0.041824435339818423, 0.07651203812918013, -0.028152544289594933, 0.08340973654263069, -0.10833042847601815, -0.006694505504717456, 0.039768124483994124, 0.05876225180935717, -0.09815532147254862, 0.05927329867694193, 0.09594123377089316, -0.09660551099745106, -0.04801392566249094, -0.04143071398233504, 0.04558808580135436, -0.020007349440601254, 0.028781601774371373, 0.07521563456769174, 0.10411279291298575, -0.024293935007191528, 0.00822942756104612, -0.05069788407581198, -0.034417217083821665, -0.1001178399971302, -0.024311135201383133, 0.0002617354092658, 0.09707665501275713, -0.05674046044195694, 0.04230717495105976, -0.03069029543156223, 0.08179384298724855, 0.06269760949226134, -0.05789041201133075, 0.010372433377629465, -0.09171294144628925, -0.04605429615892893, -0.09058960310144924, -0.02545017518662771, -0.029285391979433098, -0.0806320069190481, 0.006786454054859477, -0.09459739296102856, -0.039358913129722374, 0.02980011322524854, 0.09061860067104138, -0.02668055394362142, 0.01124625227562118, -0.10496255097828967, 0.05785142334401305, -0.024074177325682518, -0.10174310823617357, -0.07443003718541272, 0.007034358582553869, -0.06656406074762344], [-0.057492248713970184, -0.04425586531652326, 0.09693671498072032, 0.004115412588654401, -0.08108179853251732, 0.01537828125770035, 0.04045371130909379, -0.03187098554871663, 0.013331401748385284, -0.030399609181288034, -0.09359845413877065, -0.08568171145621346, -0.06267661799106036, 0.06355598480207009, 0.11280576767442353, -0.061981027208333046, -0.02252176476631105, 0.09457501548731696, -0.06662842324613288, 0.016824541406749736, 0.017410895080444737, 0.004727068564454594, -0.074476241122909, -0.023858412578836575, 0.015786600245261805, -0.07308070417872081, 0.0009505096361711911, 0.10339963500111395, 0.10047045505728443, 0.027889895819712702, -0.05735932357506962, 0.06448546781561412, 0.07598749360434136, 0.08626760750378323, 0.005741195913588495, 0.11079038397166849, 0.03915191733381854, 0.045973157207860535, -0.07934119854373387, 0.045861793611848715, 0.007477680291330455, -0.10321785952644894, 0.055967713077173645, -0.0460850625588666, -0.00875300631616235, -0.03486871176603982, -0.10377902745569899, 0.00270301291354576, -0.03656074389240778, -0.030758905486295535, -0.03454584219365221, -0.08203993893351276, 0.0027393915811270097, 0.10124774840616434, 0.06861028876534114, 0.0709580956566089, -0.0988157620279635, -0.07740187739210565, -0.004035893103639166, 0.013049112408282824, -0.009742414372085598, 0.060599204810845374, -0.03400752473080535, -0.11010834502067622, 0.0009634170756387747, -0.07466172309634812, -0.06261636600595993, 0.031219618510336014, 0.047442806085978007, -0.08534191654013101, 0.014395240518453879, -0.023148361248698093, 0.07989901505015477, -0.013687426008838969, -0.09468696989829486, -0.007789039751975198, 0.10332811379856023, 0.04614599313962574, 0.08329015741838328, -0.03981846570968628], [-0.031353726983070374, 0.10099250078201294, -0.023465856909751892, -0.054202258586883545, 0.05049857497215271, -0.03323088586330414, -0.07031452655792236, 0.027133554220199585, 0.09583918750286102, -0.011808902025222778, 0.09859384596347809, -0.09593874216079712, -0.08499710261821747, -0.02639545500278473, 0.08563332259654999, 0.10448016226291656, -0.04412684589624405, -0.0023758113384246826, 0.041032880544662476, 0.03619082272052765, -0.01584085077047348, -0.02670472115278244, 0.021632298827171326, -0.0249473974108696, -0.10532546788454056, -0.09120705723762512, -0.098058320581913, 0.06330996751785278, 0.0004006028175354004, -0.10065020620822906, 0.09798116981983185, -0.032991863787174225, 0.0639769583940506, 0.10736753046512604, -0.08623768389225006, -0.10336974263191223, -0.10141877830028534, 0.00825444608926773, 0.05418795347213745, 0.01118750125169754, -0.05809631571173668, -0.04035653918981552, -0.039140038192272186, 0.08152875304222107, 0.03919091820716858, -0.09351981431245804, -0.03639774024486542, 0.020661503076553345, 0.04054476320743561, 0.07770547270774841, -0.06552036106586456, 0.05415534973144531, 0.045874401926994324, -0.03137124329805374, 0.055238351225852966, 0.1087043434381485, 0.01542651653289795, -0.07971133291721344, 0.003256753087043762, -0.004358522593975067, 0.04113306105136871, -0.019176721572875977, 0.006984233856201172, -0.048710428178310394, -0.08516990393400192, 0.026009246706962585, 0.10343794524669647, -0.019739441573619843, 0.0012987703084945679, 0.026511847972869873, -0.09787895530462265, 0.005412861704826355, -0.0018601790070533752, -0.08956541121006012, -0.10842139273881912, -0.0731392577290535, -0.020121142268180847, -0.0041048526763916016, -0.09219923615455627, 0.023754805326461792], [-0.03456832468509674, -0.10265368223190308, 0.011192217469215393, -0.011446513235569, -0.06134749576449394, -0.040331073105335236, -0.0877576544880867, -0.06084446981549263, 0.07641646265983582, 0.03488822281360626, 0.004483699798583984, -0.02019026130437851, 0.018037870526313782, 0.06825394928455353, 0.015533432364463806, 0.008106119930744171, -0.02800007164478302, -0.08721502125263214, 0.09572502970695496, 0.0703401267528534, 0.013373836874961853, -0.04464629292488098, -0.10646063834428787, -0.05674462765455246, -0.00021604448556900024, -0.03933008760213852, -0.10783246159553528, 0.015386760234832764, 0.04686121642589569, -0.010504625737667084, -0.048714183270931244, 0.052748098969459534, 0.034687429666519165, -0.0006655901670455933, 0.0033209770917892456, 0.09369972348213196, 0.035871416330337524, -0.09168857336044312, 0.11043915152549744, 0.03741106390953064, 0.056269899010658264, 0.04833938181400299, -0.09361717849969864, 0.005163215100765228, -0.01289297640323639, 0.05731715261936188, -0.06055121123790741, 0.04486817121505737, 0.01179293543100357, 0.05933694541454315, -0.01678379625082016, 0.014295220375061035, -0.06709830462932587, -0.047819264233112335, 0.049829572439193726, -0.044384464621543884, -0.10093528032302856, 0.00765305757522583, 0.07736490666866302, 0.001652449369430542, -0.08014410734176636, 0.03017529845237732, 0.015831857919692993, -0.09537156671285629, 0.060887083411216736, 0.09747591614723206, -0.018612168729305267, -0.020844653248786926, -0.055364567786455154, 0.059188783168792725, 0.02839009463787079, 0.052315935492515564, -0.05259547382593155, -0.03742140531539917, -0.05490851029753685, 0.10628196597099304, 0.024236664175987244, -0.0035303905606269836, 0.02907441556453705, -0.0832533985376358], [0.06305566430091858, -0.10492289811372757, 0.030483514070510864, 0.11106979846954346, 0.07983936369419098, -0.09988260269165039, 0.029383301734924316, 0.039355695247650146, -0.013005442917346954, -0.07948674261569977, 0.08045989274978638, -0.009055495262145996, -0.07382351905107498, -0.11066785454750061, -0.08377906680107117, 0.010374076664447784, -0.07401186972856522, 0.06331932544708252, 0.03659339249134064, -0.06501314789056778, -0.061241522431373596, -0.0029961317777633667, -0.0633329525589943, 0.008367784321308136, -0.02583661675453186, -0.09535718709230423, -0.03012080490589142, -0.03420558571815491, -0.07774782925844193, -0.08605828136205673, -0.10824715346097946, 0.004984341561794281, 0.021782830357551575, 0.012861467897891998, -0.11156324297189713, -0.10264937579631805, -0.04471765458583832, -0.03490056097507477, -0.043201081454753876, -0.08310076594352722, 0.039346858859062195, 0.028983131051063538, 0.0504918247461319, 0.10838940739631653, -0.032507188618183136, 0.06947295367717743, 0.009387314319610596, 0.04484152793884277, 0.05498418211936951, -0.06675250828266144, -0.07208792120218277, -0.0555252879858017, 0.0703960657119751, -0.10719790309667587, -0.05095009133219719, 0.10114294290542603, -0.06803058087825775, 0.09966106712818146, -0.1117551401257515, -0.008438169956207275, 0.09002017974853516, -0.037051886320114136, 0.025076791644096375, 0.09927517175674438, 0.01813890039920807, -0.03520882874727249, -0.06391406804323196, 0.09506714344024658, -0.09213060140609741, 0.033751994371414185, 0.06859749555587769, -0.029156021773815155, 8.368492126464844e-05, -0.09206636995077133, -0.11046337336301804, -0.09667427837848663, -0.04633074253797531, -0.08569809049367905, 0.02321814000606537, -0.032835058867931366], [0.0909423828125, -0.10208655148744583, 0.048897892236709595, 0.048754170536994934, 0.05697673559188843, -0.006752870976924896, 0.033429890871047974, 0.021167516708374023, -0.05702658370137215, 0.0973406732082367, 0.050484538078308105, -0.02686478942632675, -0.036260396242141724, -0.10634174197912216, 0.0022902563214302063, 0.05536951124668121, -0.03181847929954529, -0.010146036744117737, -0.11096077412366867, -0.05061269551515579, 0.04338231682777405, -0.08436587452888489, 0.024874627590179443, 0.041580602526664734, 0.09855473041534424, 0.06812798976898193, -0.09179268032312393, -0.08641481399536133, -0.09367994964122772, 0.0919112116098404, 0.08091852068901062, 0.036152273416519165, 0.04551926255226135, 0.10947680473327637, 0.09863285720348358, 0.0873604565858841, -0.00023277103900909424, 0.0923868715763092, 0.05981746315956116, 0.08822281658649445, 0.02295425534248352, 0.054372578859329224, -0.026825353503227234, 0.05904407799243927, -0.08820923417806625, 0.10729426145553589, 0.029254257678985596, -0.04857678711414337, 0.10103875398635864, 0.09593901038169861, 0.017488792538642883, -0.09361129999160767, -0.07352007925510406, -0.007176287472248077, 0.0003730654716491699, 0.0856761783361435, -0.0018823817372322083, 0.10776787996292114, -0.01979944109916687, 0.04912535846233368, -0.0635383278131485, 0.029068157076835632, 0.053507640957832336, 0.027458608150482178, -0.05606592819094658, 0.015338018536567688, 0.09945282340049744, 0.08502915501594543, -0.022862762212753296, -0.10501928627490997, -0.10668585449457169, 0.0445762574672699, 0.054424405097961426, 0.11039862036705017, -0.02126391977071762, -0.030479662120342255, 0.031031668186187744, 0.09841388463973999, 0.07188890874385834, -0.08523375540971756], [0.091717928647995, 0.10818629424459553, -0.03157707021307945, -0.003221569124984399, 0.048507907700348296, 0.06613332988307188, -0.08900735900768651, -0.0760092885346006, 0.09431879330443863, -0.09375246250900551, -0.002676632064830323, -0.002989346786785976, -0.06356521610523669, 0.06662780631030306, -0.08740893590005105, -0.01810836416068137, 0.02592148059877194, 0.0621396036409987, 0.03295916674090527, -0.03262497356704138, 0.10434516970483142, -0.09322871864627093, 0.009385747388348634, 0.07162840770329582, 0.11105446489547056, -0.03276972524067424, 0.026556426583123065, -0.02659495515747993, -0.047782272000386455, 0.07561273437665447, 0.04060699924580383, -0.04556206251156872, 0.10123542223033981, -0.06148922228107185, 0.006263194890283703, -0.035131532251546506, -0.024796019577138385, -0.04918199204168134, -0.03154533703179583, 0.02724380779000051, -0.04603453713389164, 0.006066050122692427, -0.09319490022697635, -0.08365794710005049, -0.001209948659231548, -0.010215787501596567, -0.0750252216230896, 0.02802556481304091, 0.04628461981785839, -0.0795984356080703, 0.034706894934907064, 0.0633522494626782, 0.0030917559377762597, 0.09523031681935802, 0.034894384957757214, 0.020222708862082557, -0.014637784229174694, -0.05752325572107794, -0.028443479530112982, -0.04851218019095735, 0.03262427321246527, 0.03604663553284503, 0.0897176979518281, -0.04492762112888136, -0.06559480357584895, -0.024276340131443055, -0.02229681450570335, 0.10903437350298373, -0.10254005093927294, -0.0033816361842045595, -0.02484251177039815, 0.03775727640820018, 0.10131518553205238, 0.022687774161189965, -0.0037859401254386926, 0.09257536261100728, -0.06990447872467077, -0.08106863036084175, 0.006405959917239216, 0.05745035409927368], [-0.09586732089519501, 0.02481233916404125, 0.00474976534937073, -0.019951692607968873, 0.10591649961410664, -0.03284246770388211, -0.01304982191965369, 0.10849254741248908, -0.016497409329407502, -0.09401204188511006, 0.05698831161337998, -0.056146821789365246, 0.07501721083000436, -0.0022523330051684508, 0.017571225202991394, 0.0039240341935417805, 0.03784963919220497, 0.026217116363517402, 0.06550741563265526, -0.1041761876044548, -0.1028080119091257, 0.05256754082495229, -0.08243035899197836, 0.05835024432528341, 0.038935427361841565, -0.028377650446793457, 0.08401231781765446, -0.08984312622295303, 0.09814460861331817, -0.05324245077827552, -0.01952909374117236, -0.05197349071863142, 0.06989959915420056, -0.08999734930065795, -0.0027833829127202263, 0.009734256285305297, 0.022163802780781058, -0.04129750784980192, -0.017325539574121952, 0.026715220142339957, 0.027212678264642465, -0.06674747498323959, 0.06477726009236706, 0.036647057137813265, -0.003823926764602944, -0.08226065091267727, -0.0003558117959149321, -0.09550984491845609, -0.04252542301651987, -0.08133585310102129, -0.03750155660054109, -0.10618815111762878, 0.01364822892890849, -0.05551158205791936, -0.07400086694250403, -0.0361856043280319, -0.01660035715687599, 0.0034180022934652203, 0.049140170990881755, -0.014669077257515546, 0.03252679267504571, -0.03497020522778238, 0.04783758675289952, -0.040311966672521134, -0.10767799581625676, -0.06902117971272648, 0.025344349582889125, -0.003434550751001992, 0.007211389802318031, 0.06183506766480302, 0.001644094783517029, 0.09845473466872481, -0.0035120488601667168, -0.10077048503711435, -0.008211796007093502, -0.012807562469827198, -0.05369951686564101, 0.041508393632429336, 0.08507549919960619, -0.035618796944618225], [0.10014241933822632, 0.040480794773652844, -0.07817769417300262, 0.05566588239303262, -0.08296620328912063, -0.04608546820739429, -0.0343769936804534, 0.04519398751239887, 0.07862335205883601, 0.061863995737394796, -0.11033534205790145, 0.09231775128447156, -0.010636160473278656, 0.09596656762311988, 0.10585855722872953, 0.061158816057563146, 0.09917865815998685, 0.07261409680129702, 0.08425540171315679, 0.08984205081684286, -0.04356703753789212, 0.06605694594227239, -0.03860862187928395, -0.05004865386936703, 0.00399140279668602, -0.014571992000494473, -0.0648329536058515, -0.0023514947402988665, -0.005531089317951574, 0.029416708069065736, 0.05538262699911254, -0.0329248232080599, 0.014745070313404895, -0.1072721269097384, -0.07893517378211333, 0.06359532382886687, 0.09080992480465871, -0.09753164523726898, 0.0997396427590931, -0.012955854895912848, 0.054099942806565035, 0.005472144166699592, -0.06769450879210037, -0.07091195722767812, 0.03923410269815651, 0.044004899891618085, -0.07606141156291403, 0.05322373035054317, 0.043854638679232234, 0.03033578122785433, 0.056955846233149816, 0.09926363260761302, -0.03874248056525837, 0.06204549768944679, -0.099925811151113, -0.021370798460424265, 0.025747549621796983, -0.042410772220428425, -0.10504032077633306, -0.05746684376875613, 0.10202193305270975, -0.034607429725432466, 0.044678337175830043, 0.06607571121810306, -0.0031424711526635324, 0.05731243609936501, -0.08516036473463111, 0.07061191866820204, -0.05569752925240137, -0.024974816075605262, 0.04033886676374961, 0.04760995744853399, -0.029805476391125834, 0.039261422956442936, -0.05429591360231717, -0.08334783236494736, 0.03292214675316184, -0.005257342069005606, -0.0023107700210359566, -0.08912636339664459], [-0.05811771750450134, -0.05970286721348789, -0.04812502271637046, 0.08841796307365113, -0.06046879341478736, -0.05827599146049066, 0.10841907042338629, 0.06940293079384181, -0.04085249422589262, 0.03418796899068368, 0.030089055763158002, -0.00409089520055681, -0.01833493180005347, 0.0005942975154815664, -0.08107310363651846, -0.05498358112221149, 0.10975033361685065, -0.0770775678495887, -0.07524068906577161, 0.10473774805513549, -0.10798143488282025, 0.07619776004642613, 0.09296281785587104, 0.09237301219283055, 0.01886121301620949, 0.03827819466806368, 0.032905870700666195, 0.04332514932094738, 0.07420341894430228, -0.07628703479484251, -0.09668285872152732, 0.10536381398440245, 0.06288626062187154, -0.0364943557096594, -0.05629405469505407, 0.09895183964526894, -0.01819742954045912, 0.005818606990915755, -0.0943848403047945, -0.06743636565735141, -0.006902010864712848, 0.04581096636766453, 0.05065344862307885, 0.045867261650864105, 0.04793105200969937, 0.04036389008967497, 0.08692905685435469, -0.05438297259124713, -0.047067535865315306, -0.10520299796649529, -0.07923588539644548, -0.04402801618379664, -0.04275296708284542, -0.11001476796943833, 0.011870486138096298, -0.005289153444466488, -0.03174170721350617, -0.014548869439161135, -0.03678668463319907, 0.014730914355457408, -0.017425161449586658, -0.006872368309182599, 0.10124515024228127, -0.0010002808667400032, 0.03632902976518062, -0.10281606933473017, -0.023261340426534258, 0.020180574724362247, -0.09901512668054668, -0.06458335147944376, -0.08149020018327244, -0.008308612122145075, -0.0792073286152682, -0.0084839858420112, 0.09447660796921298, -0.08607248166923138, 0.03823877783020324, 0.029070460862961636, 0.05202121430993106, -0.0401802659034729], [0.08398963510990143, 0.03792928903919467, -0.07970164485446553, -0.05080119615090337, -0.09990489560257687, 0.03284927822527408, -0.1088152504484407, -0.051366845310732566, 0.06459030482997309, -0.00348668691745173, 0.10376770247043962, -0.0016004307055534983, 0.028940034296193424, 0.09305873022422434, -0.04916660702143531, 0.04799102688249323, -0.04197106772817277, -0.020717723443370063, -0.1067470516526886, 0.1100448602015944, 0.10248194333775727, 0.007150641539613395, 0.09419966065506057, -0.08277236513381885, -0.018682468413167647, 0.0524252523489211, 0.06100487602225951, 0.06939132927738781, -0.07840948909561182, -0.07607509936936852, 0.09856117965453987, -0.051498119096913306, -0.056592199652454045, -0.06992352821262869, -0.06458911282730256, -0.06923255292794336, 0.09933217738000276, 0.07838894399111042, -0.02578356317093106, 0.02965695299952037, -0.09538764395563609, -0.08333613523433475, -0.10295309098665485, -0.003998213747419146, -0.10646891625502478, 0.01578806323719177, 0.042930551547131865, -0.05556580081675372, 0.041902449290909735, -0.04707793595069771, -0.043939225414910354, 0.004538331032200122, -0.08114460526787395, 0.0067057322216827475, -0.03129451170637349, -0.07817776900643761, -0.06938537367099835, 0.05128656006236955, -0.029861270347158103, 0.09583156111971648, -0.006314829843756715, 0.10794893461110076, 0.03659026153312226, 0.06178422534621858, 0.03920807992998388, 0.0004583618632398206, -0.014008926907631176, 0.08935170135291545, 0.026964315571791138, -0.025796929488795948, 0.11211487797131907, 0.005091779193979393, 0.08868112990359946, -0.08989404375150284, -0.02282053597149371, 0.027977295993678705, -0.030261135644789078, -0.0314333759976234, -0.06386258452755222, 0.06924009323120117], [0.07383891940116882, 0.06411333382129669, 0.09606516361236572, -0.08504705876111984, 0.020478084683418274, -0.08169391751289368, 0.09164725244045258, 0.05668884515762329, -0.040114253759384155, -0.11175166070461273, -0.09576406329870224, -0.010872438549995422, -0.07299797236919403, -0.07600656151771545, -0.04089061915874481, -0.04935266450047493, 0.08527354896068573, 0.08669984340667725, -0.021564334630966187, 0.055525049567222595, -0.05403561890125275, -0.10677701979875565, -0.017430804669857025, 0.08776041865348816, 0.039822086691856384, -0.0501149445772171, 0.03056187927722931, 0.008941054344177246, 0.015172973275184631, -0.10331368446350098, 0.021277859807014465, -0.07127324491739273, 0.017466679215431213, 0.08166413009166718, -0.08766038715839386, -0.005068786442279816, -0.026677928864955902, 0.10366924107074738, 0.0663624107837677, -0.007714860141277313, 0.07174870371818542, 0.03157581388950348, -0.0006450116634368896, -0.10464488714933395, -0.0931946411728859, 0.07561086118221283, -0.07849988341331482, -0.06837016344070435, -0.0468825027346611, 0.09663151204586029, 0.08501888811588287, -0.05485107749700546, -0.005436122417449951, 0.07426603138446808, 0.08846253156661987, 0.06255590915679932, 0.08649216592311859, 0.05755607783794403, 0.08131006360054016, -0.018946006894111633, -0.05926928669214249, -0.09569588303565979, 0.07352486252784729, 0.08758443593978882, -0.02150876075029373, 0.07353822886943817, 0.09405484795570374, 0.07473832368850708, 0.0595332533121109, 0.050682082772254944, -0.08035732805728912, 0.08546522259712219, 0.09317708015441895, 0.10174873471260071, -0.10753542184829712, -0.0204770490527153, 0.03865891695022583, 0.011781379580497742, 0.0055570825934410095, 0.07641784846782684], [0.07527662813663483, 0.06676076352596283, -0.07567957788705826, -0.07758782804012299, 0.057476043701171875, -0.10973535478115082, -0.06468194723129272, -0.03990279138088226, -0.06309687346220016, 0.046689897775650024, -0.0440165176987648, 0.013315856456756592, 0.10599075257778168, 0.0528600811958313, -0.08608942478895187, 0.04809063673019409, 0.02840326726436615, -0.05131089314818382, -0.05201243981719017, 0.09882774949073792, 0.09824734926223755, 0.0417296439409256, 0.04122224450111389, 0.029110684990882874, -0.046925343573093414, -0.10493344068527222, -0.10093902051448822, 0.10815928876399994, -0.03935539722442627, -0.03509480506181717, -0.009985297918319702, -0.037952691316604614, -0.06972774863243103, 0.050108060240745544, 0.03226625919342041, -0.08615364134311676, 0.0901881754398346, -0.015141375362873077, -0.04429665952920914, 0.004484392702579498, 0.0717630386352539, -0.08493595570325851, 0.08268482983112335, -0.0744892954826355, 0.08259068429470062, 0.08885259926319122, -0.07226112484931946, -0.04229813814163208, -0.06816171109676361, -0.013241134583950043, 0.08727724850177765, -0.01899126172065735, -0.039555005729198456, 0.0032357871532440186, -0.03597117215394974, -0.06845834851264954, -0.1108180433511734, 0.06447519361972809, 0.029334232211112976, -0.03420740365982056, -0.08069855719804764, 0.061640381813049316, 0.05063728988170624, 0.0953478217124939, -0.06016611307859421, -0.0182289257645607, 0.03404095768928528, -0.06147629767656326, 0.10440491139888763, 0.0760427862405777, 0.048812806606292725, 0.07674810290336609, -0.028681427240371704, 0.0692095160484314, -0.09592853486537933, -0.07858636975288391, 0.06509950757026672, -0.010291032493114471, -0.056823063641786575, 0.10090447962284088], [0.0026629194617271423, 0.01609957838069228, -0.0113492221727251, 0.07838214077152143, 0.030876637634249294, -0.04387734670975956, -0.005827760555221375, -0.0737255911733165, 0.10342380085688874, 0.08992025847015958, 0.07727534441642323, 0.020390106165719905, -0.08680429340226328, 0.11165408737449739, 0.06588042122903075, -0.1036054397420808, 0.021102988172572845, 0.07071474142848218, 0.07485107194526729, 0.01826115110595591, -0.010906451174010416, -0.018431007549553458, -0.04776561883331782, -0.07489975418129474, 0.005293207416319442, 0.03424189223034264, 0.07622849911626317, -0.09850969171295344, 0.0341110811833757, -0.07521791005535046, 0.015840782380444125, 0.06451110554154972, 0.0646078860224409, 0.09835766988185032, 0.025947988324117436, 0.08743310424716853, -0.08681669181014859, -0.01236017626393107, -0.06906642790062623, 0.1110564773833178, 0.08083717469817177, -0.057787336156533184, 0.10751502048838406, 0.04066953157808153, -0.03962312343747995, -0.06458510487551666, -0.09650025504019841, -0.03193675482880308, -0.0012166277807579972, -0.036308592713219234, -0.08361241226987919, 0.06020940977293076, -0.02720836544265568, -0.005487441720328172, 0.012356594371963707, 0.11020613258144894, 0.10805930818596393, -0.05092783766745084, -0.06687906415721839, 0.08543847573636931, 0.10267722448627581, -0.05932646106823023, 0.08323104731262958, -0.10899393354753847, -0.10335809938145436, -0.01919952375474179, -0.0874858269789705, 0.08609190613848841, -0.08169588240416135, -0.036117234513087744, 0.006011271528619701, 0.03987007161873537, 0.04620553063407086, 0.04819429502673324, -0.04266962568423, 0.09800077861884057, 0.06396440528236498, 0.08734617244147057, 0.02297670519341203, 0.023242458701133728], [-0.10659448057413101, -0.06899402290582657, -0.11118249595165253, 0.06622764468193054, -0.012976333498954773, -0.07301057875156403, 0.052647873759269714, -0.07665501534938812, 0.0690450668334961, 0.04867292940616608, 0.06865879893302917, 0.02356608211994171, -0.06169245019555092, 0.09990152716636658, 0.004364483058452606, -0.011330932378768921, -0.10481585562229156, -0.09819382429122925, 0.08943137526512146, -0.023379676043987274, 0.10460573434829712, -0.08441156148910522, -0.10466182976961136, 0.008706517517566681, -0.012775041162967682, -0.10169366747140884, -0.026321955025196075, 0.01690758764743805, 0.09168514609336853, 0.008786141872406006, -0.022322580218315125, 0.000995643436908722, -0.0750371515750885, -0.08487775176763535, -0.06511492282152176, -0.033103108406066895, -0.027279876172542572, 0.013469815254211426, 0.09396351873874664, 0.06191486120223999, -0.06633464992046356, 0.040136560797691345, -0.04967813566327095, -0.04933152720332146, 0.08470520377159119, -0.11096905171871185, 0.07431796193122864, -0.09322226792573929, 0.07515476644039154, -0.08433394134044647, 0.01853281259536743, -0.09381058812141418, 0.0903560072183609, 0.10424026846885681, 0.05533552169799805, -0.05587965250015259, 0.027407824993133545, 0.0989840030670166, -0.09073610603809357, -0.0724269300699234, 0.1071685254573822, -0.019703038036823273, 0.004391282796859741, 0.04257364571094513, -0.009534657001495361, -0.02611818164587021, 0.07805272936820984, -0.052494633942842484, -0.05114445462822914, 0.10667403042316437, 0.018794327974319458, 0.08963611721992493, 0.049939751625061035, -0.009321138262748718, 0.052674442529678345, -0.06627810001373291, -0.03392932564020157, 0.031167343258857727, 0.014882534742355347, 0.10773494839668274], [0.08527182042598724, 0.06393041407014623, 0.05214962321355403, 0.06510292212949662, -0.10585862002476137, -0.09096815672077374, -0.02665750348508224, -0.07202429039543767, 0.08312126358737403, 0.013858882815864407, 0.008654683190210536, -0.04000296982623444, 0.10701870851450075, -0.06444581832487756, -0.04263527866398291, 0.07270644712125429, 0.07996872992045745, 0.01740517884112473, 0.04845197053277625, 0.029393648023348696, -0.0856322076998611, 0.04954481140435386, 0.030183604367928375, 0.08578171105497967, 0.06597931373832032, -0.016978695713020922, -0.00797580020464537, 0.055411315505804234, -0.006257806946061435, 0.07456236429355836, -0.036582193366467196, -0.06825153231599221, 0.04043183257070247, 0.08244035470440315, 0.04912630961495242, -0.10618151594143072, 0.03499509333656421, 0.024252447716423233, -0.0655495202809153, 0.0053771292618466, -0.0026094397357655143, -0.0807490595907392, 0.007809129126838496, -0.08940635561035268, 0.07225844878893056, -0.09652968988972505, 0.026516712427592983, 0.09592988560709298, 0.03218412101247194, -0.0031997123442300333, -0.10575178362272478, -0.02884347267029447, -0.08465311581403179, 0.05409704731739637, 0.03685692670200025, 0.06687802385571197, 0.10637183217889179, -0.0873377606355714, -0.06888593748868155, 0.05333360553606939, 0.05031568813826477, 0.059523423000930414, -0.023635078664790348, -0.10684423328168258, -0.06752124535714754, -0.024408763386855558, -0.019776364306615092, -0.10253764622144808, 0.08629787507153855, 0.06280835036672763, 0.06031529781100479, -0.040421613657373776, -0.011296893524468932, 0.009053346156476575, -0.10622863981567188, -0.0070741290678175, -0.014067674386366864, 0.04902267497942388, 0.06521352435205684, -0.039540961384773254], [0.03656268119812012, -0.04735032283855557, -0.04489061936112084, 0.034108093577403326, -0.050128049498835474, -0.10788571933684307, 0.09806056695608083, -0.07778599497577438, -0.021071353626723587, -0.018004944596463554, 0.09966765613803023, 0.010105581764780273, -0.08776011061601359, 0.07755922935684038, 0.024162150032364983, 0.025031994971985095, -0.07039693317656165, -0.0271351466765729, 0.008973305102618956, -0.02352155328357176, 0.10372545428027688, 0.029938823893974415, 0.055945994355198196, -0.10921034980407686, 0.008226343266868458, 0.09170572854934285, -0.08574156401869609, -0.05304976867104883, -0.013026960867277393, -0.013883366211800434, -0.10639884654915806, -0.055218995575093646, 0.026261808472304502, 0.08569367640757662, 0.003683167003026614, -0.10240067519735462, 0.03384822074703224, 0.10840269084394767, -0.01947944617825424, -0.019763660434694085, -0.05374824553349517, 0.04482109106141008, -0.033476649777301144, -0.07214500967792524, -0.04871267847228875, -0.06602403750263752, -0.04093361311698056, -0.10075236310306088, 0.0788013423124784, 0.006088625234727816, -0.04867480047091977, 0.04383700408302906, -0.006825399235235486, -0.0666349163818662, -3.5587925296473675e-05, 0.06457448673973093, 0.05664280820480315, -0.08293882200908306, -0.04771807731718839, -0.08958227790345727, 0.05608967274987653, -0.017054912623199248, 0.09672812175658616, 0.026579018154188446, -0.10603808233475143, 0.01209378331199918, -0.10407779030282809, -0.10762036103077215, -0.10424144733389495, 0.062024396941574904, 0.09418175933139933, 0.0163713709239915, -0.030489217371733122, 0.013089288001976597, 0.09541087696728665, 0.014872926569023998, 0.007850551408749334, -0.02978022441891986, 0.07582215779615521, 0.08116552233695984], [0.05751173198223114, -0.03921382670029298, 0.10802347469463729, -0.05989343171998159, -0.07613416719784358, -0.042548676600500906, -0.09186390871367564, 0.004358646929517879, 0.07043978298121449, -0.020113256322676177, -0.07230125883281574, 0.017106523474482375, 0.06485465253467271, -0.034181894816107644, 0.01747717260145482, 0.023534739674567633, 0.000555163885471314, 0.047657262995833234, -0.007338360143670348, 0.08400044200717663, -0.02496240053228027, -0.008270751397327072, -0.07682682575531605, 0.0112664652010259, 0.0712274250875048, 0.05178269658437986, -0.01541713604231499, -0.08783812623576803, 0.049293902310292674, -0.006524962145817662, 0.07486668147440599, -0.053205128473277324, 0.002495914548090774, 0.010544882839847464, -0.007812083582672686, 0.032906279463038694, -0.014441728369806625, -0.031247678441737668, -0.07954723075754254, 0.08045871059138371, -0.017355019847937362, 0.03984918878204433, -0.03947441722657822, 0.09305001773080669, 0.10654242287231902, 0.06706015102127513, 0.09567277717001359, -0.0538109390432156, 0.006626143765683419, -0.04498772241469073, -0.016665029566752535, -0.03771840462342973, 0.03749234777049702, 0.06953972557087568, -0.026906556526339245, -0.10380428408484978, -0.07294451714957327, -0.09088039396457073, -0.03612732543496743, -0.06137055765935293, -0.068813402035825, -0.029808066593638147, -0.008094463959330375, -0.04683504130971144, 0.058998843370438175, -0.0997166886808806, -0.007120570086293344, 0.08048415099506667, 0.04553879264948004, -0.04749835511982095, -0.009462650371259207, 0.11119774257725719, -0.055704617411152034, 0.06226468915305249, -0.10707895679230993, -0.055511016812423666, 0.025568256732665464, 0.006606851934047771, -0.07841322775260316, 0.10459183156490326], [-0.04435459524393082, 0.10268142487122914, 0.04480352837195423, -0.10954974463819644, 0.09939782166784478, 0.021111436855550933, -0.058382510333532985, -0.005681934312879796, -0.09383552455083827, 0.04477141485841325, -0.05593564421928762, -0.058082839437712155, 0.03257789431936205, 0.08030345159162396, -0.051605864102156354, 0.09543079380700714, -0.028971374053159357, 0.03593065581971015, 0.09520901971481474, 0.06603699278117718, -0.030032924419246168, 0.11033697863308721, 0.0871982318155037, -0.0294671680389271, -0.028743178914111604, 0.11447604741849471, 0.01977198181232043, 0.08902513503729789, 0.10895374181169656, -0.015831056825189507, -0.009951681364215663, 0.09682219348028573, 0.09029032037153549, -0.103749348932157, 0.031816270858714114, -0.08039008260600633, -0.021271140247755917, -0.09091462057940204, -0.04733834327729848, -0.09236526019200582, 0.04426495260819689, 0.07388766767057088, 0.06591053170077045, -0.043519645064896674, -0.03718266456491872, -0.05303628063268377, -0.0496774323645731, -0.07098722205057449, -0.04965583852604296, 0.07480043964449291, -0.0862145909747792, -0.002610338353101309, 0.054330502751474705, 0.013663035058178202, -0.05897283550300172, -0.08544992529340416, -0.0022529635967388282, -0.03250069588343966, -0.09880795021740728, -0.04297390669027762, 0.04817087102650099, -0.05297317587755362, 0.08642169095820579, 0.007075302321115144, 0.09904975946237915, 0.09693109490922233, -0.09033105390657299, -0.10446523099071447, 0.04102359149693342, 0.05316734002030729, 0.058632123607086625, -0.030653045245247073, 0.05777799572139955, 0.04285690480398625, -0.0942345193741285, 0.08427678203279304, 0.02259466669201036, 0.1093410567606446, -0.036087546900056826, 0.0012244805693626395], [-0.07982602715492249, 0.04838204791187357, 0.013104983841304525, 0.008387468661870668, 0.09243084032147217, 0.01789668184771268, 0.07812866389668492, 0.024877810438596496, 0.012918042284261862, 0.09252522636657537, 0.06018886472237507, 0.09054249100253028, 0.10272671208736625, -0.04316905164318777, -0.08618838726205738, -0.0615678480843253, 0.030058737085846547, -0.09405663771722003, -0.0876810651767705, -0.03765660285482259, 0.07297779865853993, -0.050876670513801764, 0.10643732061175104, 0.08483083783644549, 0.0009627903583966441, 0.054680938919389806, 0.06693753145197132, -0.07074569059039909, -0.06567284246405991, 0.014645915337627968, 0.06184087910050236, 0.06344296176512915, 0.035478714456589754, 0.1009580425683514, 0.0382324220776578, 0.006849608692167403, -0.019207133752076822, -0.02231531056882388, -0.05052083246596667, 0.08387914454949162, 0.06478004002558925, -0.05003437138907102, -0.059215886263832986, -0.044307829040319734, -0.0006421053137761487, -0.02261732389927113, 0.0460930682953342, -0.0009627897048311534, -0.07742606241782385, 0.0078029163897625296, -0.022968422480648603, -0.09407834182062713, -0.08722879099224251, -0.031090873400957383, 0.05421880344549362, -0.0651780481222592, -0.015107619157017438, -0.07345424850968119, 0.02707253861849804, 0.01824627570516857, 0.025274550016020275, 0.016561861013219114, -0.05874445499685131, -0.014168883846787089, -0.07890451932156607, -0.02781065167265024, -0.06396729475659631, 0.10407364441993508, 0.05658962257340507, -0.10290528590929907, 0.11039620887035548, -0.05598732296825615, -0.025556297560655365, -0.03530028283513097, -0.09527045470728604, 0.10841860335261536, 0.043132409546766594, 0.03376792254554776, -0.03441141208051752, -0.09189356118440628], [0.10431833565235138, -0.03964848071336746, 0.07073670625686646, 0.0013421028852462769, 0.06301677227020264, -0.05580870807170868, -0.027216970920562744, 0.036212265491485596, -0.010872147977352142, 0.013522565364837646, -0.015813276171684265, -0.009926311671733856, 0.02096119523048401, -0.08930933475494385, 0.07907734811306, -0.0958947166800499, 0.04745662212371826, -0.08236061036586761, -0.07395736873149872, -0.0586024709045887, -0.07080015540122986, -0.04785773903131485, 0.09510017931461334, 0.004249937832355499, -0.06603332608938217, -0.007627733051776886, -0.08063339442014694, 0.015699386596679688, -0.07757095247507095, -0.09954863041639328, 0.0782993733882904, 0.04201619327068329, 0.012551523745059967, 0.10195048153400421, -0.008352808654308319, -0.08049561083316803, -0.09538847953081131, 0.017328515648841858, -0.10321695357561111, -0.023347944021224976, 0.07248543202877045, 0.10179072618484497, 0.017912492156028748, -0.07561585307121277, -0.031900227069854736, 0.10960398614406586, -0.01746104657649994, 0.06022563576698303, 0.04853719472885132, 0.027519389986991882, 0.07308459281921387, 0.05185435712337494, 0.012113980948925018, -0.08042573183774948, -0.05576076731085777, -0.026389271020889282, -0.024347476661205292, -0.08131945133209229, 0.06140656769275665, 0.00588623434305191, -0.02281893789768219, -0.0751803070306778, -0.02802729606628418, 0.0436244010925293, 0.011400297284126282, -0.10222256183624268, 0.04631544649600983, 0.0754200667142868, -0.018051527440547943, 0.032421812415122986, 0.10625074803829193, 0.020473867654800415, -0.08879496157169342, 0.0489385724067688, 0.04544705152511597, 0.057306885719299316, -0.06644530594348907, 0.10210509598255157, -0.024777479469776154, 0.008875913918018341], [0.05997788906097412, 0.07210088856213796, 0.019882920052719317, 0.0007446318560962725, 0.07167249979683397, -0.00169972812418846, -0.06842161619065801, -0.005886153587422407, -0.0875902825000869, -0.03982749530224033, -0.06687473577532217, 0.02549364352664317, 0.05686345542342518, -0.10421735859971845, -0.03953684651921323, 0.08303966739011409, 0.10735552312816211, -0.07416232764448594, 0.01952279579497889, 0.0841307636236931, 0.07393522080244823, 0.006689737823170783, -0.031498786633915775, 0.06873478748100402, 0.05005778283777782, 0.1023801004971957, 0.03000434871522579, -0.028574359810774462, 0.05376191651752244, 0.11251777231823648, 0.10350147904911927, 0.045945069407688395, -0.108289562982247, -0.0017056759197430617, 0.07695733227715111, -0.05574140572902385, 0.07442249278766785, -0.09323463712669998, -0.06223973661597768, -0.05527791173898203, -0.10888688100732347, 0.09541414707835706, 0.058901408061758566, 0.10961422403114165, -0.07359783103707608, -0.06091293164476968, 0.08084384312221575, 0.041196406704113626, -0.07072014979051235, -0.012289407570752465, 0.058886291383393144, 0.08086637938091504, -0.07281062265592322, -0.058521989842335295, 0.08379344283681156, -0.010268746921449403, 0.06873973451358674, -0.03996581154494775, 0.026709672722655186, -0.0638029974347572, -0.09840768537280808, -0.03844963234521464, 0.04888587534155318, -0.0858876586147649, -0.09622793265414836, -0.10716142719914386, -0.10960218988794482, 0.09536795472233443, 0.07285546576538718, 0.05512186956676883, -0.0749426116690236, 0.039436777770815924, 0.018197217294297276, -0.04266199565531215, 0.07328171765093706, 0.06821851370624067, 0.0586317643827076, 0.11022877428321823, 0.0629244636774708, -0.10925721377134323], [-0.011677533388137817, 0.0061289094054680785, -0.05427514144409477, -0.07888862771523164, 0.09069200052970472, -0.04742642041018742, -0.06196860594365915, 0.07410625647811253, 0.02915537919755196, 0.09742913923528887, 0.025583983554244436, -0.1045933441119949, 0.02676600374759145, 0.10416369660669887, -0.07716231076589837, -0.08087961637661222, 0.057213149046754216, 0.11632863704746636, 0.09574015706954918, 0.06865739332937443, 0.001796547564680532, 0.08322385816196864, -0.06552395584783939, -0.026348331525209694, 0.04600464357726256, 0.037673286602549, -0.0014910541234349002, 0.0937894807496313, -0.007724037215760053, -0.018333681834276843, 0.013178807671378925, 0.0671920277595039, 0.043093977659020524, 0.10280713301425186, -0.025259532539481298, 0.027122094883698464, 0.042010788395685957, -0.026130678081567077, 0.00012645966343346847, 0.00627416542260315, -0.06245839020697739, 0.005874275202231969, -0.04068314847940707, 0.008503820225911344, 0.09076283906481843, 0.043391570953959596, 0.08850616354222092, 0.06936298480721935, -0.1052312426685806, -0.10308642404825574, -0.04524382113165028, -0.08497228677506172, -0.014441743616128376, -0.07862372773310193, -0.09920228968625493, 0.047126123768165905, -0.01476173703443693, 0.019915122415641827, -0.11593519268850751, -0.05642340728920212, -0.11566742020153248, 0.058505577145233544, 0.07796602423602668, -0.02411775199160511, -0.04941540694549316, -0.0814969462288259, 0.027880693237241867, 0.03544911585270456, -0.07892065487329561, -0.007487946345210493, 0.10271252908441328, -0.044128416142418095, -0.10471386741904576, -0.04501625525142829, -0.10900813047119838, 0.0007094051027911068, 0.03380510491860077, -0.011750391337983022, 0.10928983021140279, -0.007726855576038361], [-0.04759708791971207, 0.09680069904610336, 0.08870847871622946, -0.03657264025856413, 0.0647903076718945, -0.005208235762258335, 0.06782742528390312, 0.01190130477654313, -0.104437429984296, 0.017324427203016732, -0.07527740435610568, 0.06037420361550869, -0.018978053666701453, 0.05339109878355905, -0.02127215100095584, -0.04245153101761537, 0.10381456050531553, -0.10388762257364324, -0.022979391523647464, -0.11424058159585768, 0.025151256669238002, 0.1069807050829067, 0.013940673012194288, 0.09916776177217945, 0.0626898166946951, 0.07594655851856531, -0.06502001751990076, 0.10542288172446364, -0.110047353470114, 0.0077067685867708, 0.05083409199415609, 0.02935484614851164, -0.010337283084259973, -0.10162916236172538, 0.0852047791625225, 