[[0.10382241010665894, -0.045981122010255934, 0.056523071808168686, -0.054659597346039784, -0.027637585202552467, 0.05293403110220904, -0.046642491333165774, 0.019914659889705512, -0.01684841013898518, 0.018375425622010926, -0.10834023604820157, 0.1124788851813554, -0.07290380038608635, 0.08845400604168027, 0.04229516480526401, -0.06482909288236255, 0.030383733841904764, 0.07186416599231746, 0.10841663416157998, -0.0835126106966594, -0.02729879691550013, 0.0761381819977864, 0.08353624400857737, 0.003922491643905343, 0.023010419433035976, 0.033474928043265274, 0.10579553118611375, 0.018531859470350652, -0.09737505764366601, 0.08209062301232063, -0.0012780136461746333, 0.10709208815408561, -0.03851346217728282, 0.0319529226095445, -0.05535607197326633, -0.024074309462403028, 0.028755503887053693, 0.06153932705592329, 0.05847185218115842, 0.04769479333716693, -0.06756717562037771, -0.09306796753188204, 0.04292667910385908, -0.04466876685034874, 0.05533392816195366, 0.07390137919229497, -0.030058426228261766, -0.1023596049036922, -0.09451303451371999, 0.09669716721730308, -0.05263730072094603, -0.10841663926242376, -0.03420851434562933, 0.10297817119692763, 0.07228958020410915, 0.024234978730759492, 0.0447182661552432, 0.0029897028469681353, 0.051679553078163964, 0.07804724945971288, -0.06507906416763272, -0.015352176983464126, -0.05299424442726113, 0.06420085039423998, 0.015202369950500765, -0.06157357190212682, 0.07787075844844729, -0.07758643887649455, -0.08653875751059044, -0.08952746291925527, -0.04041097222282946, -7.382534990636704e-05, -0.04617151919222591, 0.010604129843393297, 0.043687839892358846, 0.017380437949992826, -0.09512003906681965, -0.06126595867926816, 0.04076953028967491, 0.032008543610572815], [-0.0862363800406456, -0.005715308736483408, 0.10693960487864147, -0.07617163777389392, 0.03204997851256208, 0.014507969871120397, -0.007504974700044635, -0.090810405291704, 0.09113036103702431, 0.08412695556468815, -0.05972884662187499, -0.0527925259514832, 0.08639506398721969, -0.00678168953115313, 0.02008631394322843, 0.07015472234412444, -0.06080733638457815, 0.012086008994539068, 0.08469689387888744, 0.059541443138073614, 0.07736466857589604, -0.09370736267636633, 0.07860249656859601, -0.042489731712403694, -0.023000168127722365, -0.03113035932390047, 0.09534132891553317, -0.059073352419994826, 0.04937740071866025, -0.07708439640195949, 0.04712438721960642, 0.027132792948992634, 0.07243497456502038, 0.061028810793087154, 0.022768453989603643, 0.08007620806789263, -0.05496052688533189, -0.02336508121189799, -0.05051556511510398, 0.09688517053333452, -0.10895096112695864, 0.021273034649977884, -0.033316358068612245, 0.029068101556838918, -0.05018730993366146, -0.09715454402981058, -0.04234038537137238, -0.09839606071900445, 0.029448182702748397, -0.03813885290926555, -0.004587795217913471, -0.029510494612188073, 0.10923101117577433, 0.01235873586279467, -0.09653208330066888, -0.10492547370701348, 0.0234335903359084, 0.03810044747170238, 0.020842010641797352, -0.025250122276914866, 0.012346668393660852, 0.008751908949901565, 0.04298090437177887, -0.06328713495083267, -0.06177973331137912, 0.020676706572213457, 0.006752684420889305, -0.014524647584402589, 0.07993368348918176, -0.056963316428299715, 0.011346400980283356, -0.029176145868071615, -0.08787309171995755, 0.014308777845930076, -0.03412558700140015, -0.10391521676186376, -0.031040458678818796, 0.11131326258160938, 0.07775647009483987, -0.10832872241735458], [-0.0704106017947197, -0.0915313068990733, -0.07357138432086015, 0.03164082971301701, 0.02528291623823439, -0.08358088885436174, 0.05845399342032778, 0.08557488180482935, 0.05928476316509457, 0.11483593300092891, 0.08039106717142204, 0.11147228712363991, -0.03669546684827273, 0.006566400968046641, -0.09432150148199164, 0.010847564341963578, 0.04569334713377401, 0.00466794749981782, 0.01546341830855043, 0.057067879696572725, -0.033743826224660815, -0.013297684907411863, 0.07593585710915188, -0.058298032556697604, 0.1169889479068663, 0.04785628110136257, 0.026098015004970228, 0.10805360796746244, -0.03407021984208643, 0.009502322834662198, 0.009668130057535796, -0.08434910656406719, 0.04955699828010954, 0.0887218278552933, 0.02083492990819165, -0.060279312884281545, 0.008697400089771004, -0.017676999616354792, 0.06776597198645387, 0.0037491696415176824, 0.08092304295919031, -0.07965668138663094, -0.06413046101954561, -0.10227521717217643, -0.08559234871916957, -0.04900865968552788, 0.02638998509388699, -0.06981323447567374, 0.006018552495978631, -0.007902253049097687, -0.006580920380286042, -0.000793714078773912, -0.07585161748227108, -0.07685127317366773, -0.013309242725031131, 0.06954235740624405, -0.0850030669821053, 0.0010757504781856323, -0.030496596873307958, 0.005987418367719474, -0.04519827034064621, 0.0219247499668058, -0.05495806267744928, -0.09414633540071893, 0.09398784160381383, 0.09364461623476114, -0.031320902847261925, -0.07060969108138605, 0.004087886864702781, -0.10212339749368772, 0.0007486490894489808, -0.045193882413484744, 0.09216926835691383, -0.06183400518747677, -0.11285693193783647, -0.047931891491339564, -0.07110597398963572, -0.028150565554494637, 0.007708944774153568, 0.0079260841012001], [0.059173762798309326, -0.03708117098822949, -0.09455098178460239, -0.04980167243945881, 0.11320765386805619, 0.08081972297541686, 0.10399670730935977, -0.0016060383688240845, -0.04506502426854412, 0.09128938322417812, 0.08358126478092393, -0.0464198927507668, 0.1161485136301786, 0.06755725644504885, -0.08627004527497206, -0.08106492964376352, 0.08244018474406786, 0.09496587037475934, -0.0039909391284087565, 0.007175924835070494, 0.0717814535557042, 0.01508959997814025, -0.0030613864596308123, 0.07821931320820932, 0.009324214405954878, -0.016830559036269496, -0.004665511104785385, -0.06741558102849078, 0.041938698968700755, -0.020561982084376526, 0.033945174384787793, -0.003783890613470893, 0.0758747211737459, 0.043831190667429666, 0.04263037202550702, -0.04225388998635889, -0.04501684879630026, -0.02460114633329836, 0.09550018944695801, 0.10242316660890426, -0.028532160198782446, -0.11092038788750981, 0.10878983860500803, 9.559219449003306e-05, -0.10710559701076933, 0.10080015899942561, 0.07318521419974272, 0.06698964023162676, 0.011588254579459034, -0.04986791448660204, -0.06418483690513896, -0.005962475321106315, -0.04700166644570337, 0.035892540964805326, 0.04055251475287951, 0.005679355018197462, 0.030800830539120333, -0.07347457606239886, 0.07374834399301669, -0.06018036684978083, -0.03487139439330962, -0.05379529459475489, -0.01812341331871402, -0.06945634851045199, 0.0026265805755992153, 0.039828862780808154, -0.06128424011146912, -0.11609945155694784, -0.0037002299799653556, 0.059483398033216076, 0.040317985364269525, 0.06610981501332572, 0.0016565309535294397, -0.005831366587752689, 0.05082892182953786, 0.04764001001133803, 0.08067587260473015, 0.10950499739720466, 0.0847257638098276, 0.013251215219497679], [-0.09770724922418594, -0.01745614174463295, -0.05785300117268843, 0.0583275792685076, -0.07625509298213, 0.11286785111054427, 0.02432765463805995, 0.09198921444445216, -0.051930887717674984, -0.01314780629042267, 0.04011567347241161, -0.08252335723643645, 0.006791072678035884, 0.02734247651537229, 0.05342835711025823, 0.0666228649097196, 0.0964269442240519, 0.09864023438274916, -0.02719878446042333, 0.05419655467330698, 0.09078211560801251, 0.06792466692859668, 0.007339501046452262, 0.027688076456545013, 0.0056144248499470605, 0.006902818392540316, 0.07416448529072994, 0.0424589647459595, 0.09193123702732117, 0.06489955146381247, -0.04038492878177337, -0.08823722872475306, 0.0732758035998525, -0.05914946643857926, 0.04212765075366325, -0.02462479382645274, -0.09478784221328608, -0.10183819627681737, -0.021013242632980624, 0.03921161147358769, -0.09244705291989246, -0.056040021150474115, -0.003276114703025691, -0.10254573953233848, 0.020300029813162333, 0.082684862836196, -0.07139291988463452, 0.04734867903183078, 0.04073658112028769, -0.08725721101066874, -0.09920332093307362, 0.0718351321962735, -0.09484115825172391, 0.034626195475375515, 0.029224197555755258, 0.055583429728548114, -0.029941504558084624, 0.103085285759654, 0.08926319725578293, -0.08563987389162762, 0.013802048313028925, 0.03775615285813628, 0.06137363502204336, -0.04945970603626242, 0.08494162886564814, 0.10164954735255692, 0.011585346789757688, -0.053657079827255365, 0.013921823465875144, 0.010080795357697105, -0.03788499021169061, -0.025421714317132398, -0.08781640502243597, 0.10193007787250705, 0.023954476860914013, -0.012571570810003554, -0.0032542807546184784, 0.03553337510958, -0.047958912815074736, -0.020871907472610474], [-0.005996324121952057, 0.05128732295569623, 0.015246735395502736, -0.10778901754677338, -0.08049670858316206, 0.0721466374642608, -0.030000575758553368, -0.03699255870603688, -0.03256552239660803, 0.049840296773848214, 0.08070681099052791, -0.004352676723315993, -0.008412130303667631, 0.059319916300331205, -0.08802350825603465, -0.05722579580301914, -0.031728882041781724, -0.031563104582741974, 0.1097177532131536, -0.06467130968311555, 0.04535356025478567, -0.025923247315037937, 0.02557176036156878, 0.07744190403990725, 0.06393277195208588, -0.06758512395162751, -0.0492147580330649, -0.02872705265006242, -0.016602337657537415, 0.01758738168096128, 0.019637065350638135, -0.031441780644455325, 0.06650788911186245, -0.009612759084580286, -0.10268749184481037, -0.10844021008928799, 0.025472285559256805, 0.044353748541577635, -0.0913752529874743, -0.06381781145661598, -0.07347491637140983, 0.029586567367643708, -0.08938534824202861, 0.0007909737919966982, -0.10728685839454151, -0.07529281937011349, 0.08497226002919482, -0.04683350600801525, -0.06980867413898452, -0.07239692133627934, 0.015899327317718825, 0.08006063878449461, -0.09287769542017811, -0.07625188673088197, -0.026742996399209705, -0.04477597323172608, -0.026976692767667603, 0.0950394006320075, -0.049149890564333866, -0.07124288241646055, -0.016788205113618157, -0.09445868847917151, -0.08948539059071196, 0.04827882691940625, 0.0176671579157799, 0.017525362139301108, 0.10203104919954684, 0.05290182692556251, -0.00010388806073399428, 0.005647370179935669, -0.08646402802937939, -0.10535917857881003, -0.07512872530198925, 0.08072801766548235, 0.0068552809708359195, -0.009324980247690852, -0.0030950006955856825, 0.017237438379216607, -0.07039095433291669, -0.09758742898702621], [-0.06976713985204697, -0.0305706188082695, 0.0823628306388855, -0.0828794315457344, -0.07754886895418167, -0.061486080288887024, -0.03941433131694794, -0.05457672104239464, -0.07075350731611252, 0.05075836181640625, -0.001135028898715973, -0.08321671187877655, 0.046365246176719666, -0.06457731127738953, -0.054487504065036774, -0.057261500507593155, 0.07829457521438599, -0.0997920110821724, -0.05512448772788048, 0.08529004454612732, 0.0895252376794815, 0.03394746780395508, -0.06968028098344803, 0.07624155282974243, 0.04092155396938324, -0.042548321187496185, -0.027157805860042572, -0.06628189980983734, 0.025131553411483765, -0.09641972184181213, -0.07593122124671936, -0.01713062822818756, -0.05571785196661949, -0.0913865715265274, -0.07456117123365402, -0.07562100887298584, 0.11171706020832062, 0.02873450517654419, -0.019378118216991425, -0.00674767792224884, 0.10586635768413544, 0.014843925833702087, 0.10651752352714539, 0.025731340050697327, 0.016763895750045776, 0.020363613963127136, 0.025923505425453186, -0.021690182387828827, -0.03903215378522873, -0.033966295421123505, 0.0011943504214286804, -0.0641385167837143, 0.06863214075565338, 0.03862448036670685, 0.0394156277179718, -0.06514909863471985, 0.07021065056324005, -0.008796252310276031, 0.09838616847991943, 0.047115638852119446, 0.03849901258945465, 0.06915237009525299, -0.08972108364105225, -0.09784913808107376, 0.027208268642425537, 0.0274999737739563, -0.06358473002910614, 0.04500553011894226, 0.03863319754600525, 0.10375204682350159, 0.07380576431751251, 0.10845775902271271, -0.0624072290956974, 0.07429273426532745, 0.06512375175952911, 0.05516171455383301, -0.005937330424785614, -0.08856142312288284, 0.10751199722290039, 0.07247322797775269], [-0.09293763339519501, -0.10594110319126439, -0.08301958840849977, 0.06150012638779846, -0.03659513975285915, 0.1114176664616358, -0.027461993127836985, 0.017002816325038857, -0.05568765309485722, -0.04043531394259923, -0.054989021703745436, -0.09535308263807611, 0.00179178223180868, 0.09306286627207795, -0.013643389770151804, 0.07854328421744496, -0.09782323486190812, -0.016016128569016425, -0.027455470598451655, 0.03303364848268737, 0.10573287646626711, -0.07059440900493304, 0.03969940604905383, -0.10579367318595297, 0.0021036690277679046, 0.08914501645845614, 0.0010479034891606297, 0.1042479246691416, 0.012042876324823731, 0.10782984124241807, -0.08631676817293811, 0.03414799292601735, -0.09334335016218369, 0.022336585715170144, -0.0924917246582208, 0.0013370723909998127, 0.01766108034603038, 0.09528517831682687, -0.04257678063166067, -0.032873959612619796, -0.08581468336604858, -0.022021146402240364, -0.008720957828755527, 0.0036513203526312944, 0.09088354692986968, 0.09375719832202768, -0.054393327131624356, 0.018187026550447762, 0.10053275505982258, 0.038531068805415104, 0.096439687146559, -0.061027579001358495, 0.007408964650278031, -0.0008115710726262063, 0.029737982365663555, 0.04611163081697386, -0.11654930970226877, 0.08448752699156566, -0.0991939813930925, -0.09223024885510683, 0.06278582478391462, -0.02364150520492359, -0.11587373623334374, -0.05836473160404219, -0.07529374329241902, -0.068372385373948, 0.006308455227269326, 0.04968544885349173, -0.10828121669978782, 0.06077921806290303, 0.017321675779986303, 0.067756893307298, -0.09086397570928952, -0.047018093437180594, -0.10052925386684058, -0.0885842180738503, 0.09469538006571561, 0.07593165737155061, -0.10269208124171901, -0.10678867995738983], [-0.0350116491317749, 0.011857539415359497, -0.07956622540950775, 0.10194605588912964, -0.09120073914527893, 0.05196395516395569, -0.05975566431879997, -0.014017783105373383, -0.040123261511325836, -0.054252784699201584, -0.09659837186336517, -0.108919657766819, -0.03746753931045532, -0.018651872873306274, 0.11019028723239899, -0.01919088512659073, -0.09572680294513702, 0.07529713213443756, -0.012173600494861603, -0.04515471309423447, -0.06858929246664047, -0.0808192640542984, -0.09418530762195587, 0.052429988980293274, -0.023411981761455536, -0.09111941605806351, -0.0920652374625206, -0.042122967541217804, -0.03584565222263336, 0.09687137603759766, 0.012648075819015503, 0.028343215584754944, 0.026993930339813232, 0.07042424380779266, -0.06596402078866959, -0.02073322981595993, -0.06205669045448303, 0.06222756206989288, 0.00424579530954361, 0.0563168078660965, -0.011469133198261261, 0.07038252055644989, -0.047017902135849, 0.10621960461139679, 0.055084168910980225, -0.07072343677282333, -0.050076909363269806, -0.0745772123336792, 0.091385617852211, 0.0067689865827560425, -0.08019629120826721, -0.1058012917637825, -0.09992128610610962, -0.007916897535324097, 0.11163626611232758, -0.01987428218126297, 0.011642970144748688, -0.10501854121685028, 0.012806810438632965, -0.09274683147668839, 0.1088610589504242, 0.04546916484832764, 0.0463709682226181, 0.024970456957817078, 0.03471565246582031, 0.059148356318473816, -0.08253160864114761, -0.011914610862731934, 0.09818702936172485, -0.03943656384944916, -0.06044605374336243, -0.07282553613185883, -0.0025614798069000244, 0.042973801493644714, -0.106203094124794, 0.042361870408058167, -0.06655417382717133, 0.10783278942108154, -0.05378599837422371, -0.08214975148439407], [-0.06535570323467255, -0.09629177107857598, -0.07615502308544397, -0.027824460139466708, -0.01798749615120014, -0.003290273476026038, -0.024887722215728696, 0.028594582605441992, 0.08371975976258311, 0.01578805117818777, 0.08599003190214197, -0.056604930650289466, -0.09186819911521403, -0.025808919503981037, 0.08691380023034692, 0.09904371306682329, 0.07471806161196538, -0.029324598967476002, 0.09373793741534392, 0.0990195946856534, 0.09964069079470773, -0.0012158951865558498, -0.04130465875977357, 0.08613516119410475, 0.05447035092135001, 0.04427937196598573, 0.10301605675361095, 0.064912632331661, 0.04016797868627693, 0.015660541817897344, 0.08860679770550953, 0.09502271725456486, -0.08864238565156941, 0.03492797348657854, 0.10872278281551627, -0.08006861640841985, -0.08564468420487988, -0.09250632459475278, 0.062051890132420545, -0.04727981920429079, 0.05198531533666461, -0.07305763447045607, -0.04841239964412003, -0.06433944829362287, -0.014840999406265973, -0.02680743404728167, 0.06923224594434482, -0.07047030622770305, 0.032139709455563575, 0.07426755820669902, -0.0144131283614574, -0.05377449719328072, -0.07920038722496392, -0.1060954636707061, 0.02336346579684734, 0.09253467065076323, 0.009309547868471761, -0.014543239365874901, -0.0009177201284046367, 0.028553775438545592, 0.10335535536565428, 0.09478829065491517, -0.07431399041469547, -0.06325833104641737, -0.023140751872308064, -0.04432585685523671, 0.03385458542376185, 0.10493279219191996, 0.03180273760467332, -0.0944363974970059, 0.0019006180861288202, 0.08500111144751514, 0.08896742827884302, -0.06917025498382548, -0.09179715044460524, -0.05165286462140948, -0.07863657308559298, -0.1116771461493087, -0.01568279609633539, 0.00623544305562973], [0.10113561153411865, -0.013037636876106262, 0.0058441683650016785, 0.08310453593730927, 0.11021865904331207, -0.05579683557152748, -0.009336695075035095, 0.03876730799674988, 0.052572861313819885, 0.030763700604438782, 0.006493404507637024, -0.023588649928569794, 0.04196619987487793, -0.011853806674480438, -0.03869600594043732, -0.06925830245018005, -0.0692853182554245, 0.032667458057403564, 0.08209984004497528, -0.0006765574216842651, -0.08201276510953903, -0.07959651947021484, -0.09079574048519135, 0.05651548504829407, -0.08740635216236115, 0.05456681549549103, 0.03536118566989899, 0.04157932102680206, 0.0738147646188736, 0.03698800504207611, -0.09451799094676971, -0.07864117622375488, -0.1018141508102417, 0.00885867327451706, 0.04837039113044739, -0.11114832758903503, 0.05005067586898804, 0.06762833893299103, -0.0797138512134552, 0.04760867357254028, 0.01952718198299408, -0.06967982649803162, -0.03277182579040527, -0.04587845504283905, -0.09496068209409714, -0.03403325378894806, 0.009034067392349243, -0.08283810317516327, -0.06879988312721252, -0.06055404990911484, 0.07727664709091187, -0.0854392722249031, 0.0899772197008133, -0.06827946752309799, -0.02214469015598297, -0.003336302936077118, 0.02045665681362152, -0.05573847144842148, 0.01771634817123413, 0.09685899317264557, -0.0029494091868400574, 0.08743804693222046, -0.051716919988393784, 0.10380831360816956, -0.08750398457050323, -0.10140267759561539, 0.10792969167232513, 0.06789425015449524, 0.009814582765102386, 0.07411810755729675, -0.06233168765902519, 0.04499851167201996, -0.10197894275188446, 0.06864874064922333, -0.03332548588514328, 0.0010486766695976257, 0.09869346022605896, -0.05305780842900276, -0.04969543218612671, 0.079628124833107], [-0.0881321057677269, 0.0307401086581404, 0.08044360962157722, 0.05070019673442617, -0.09368831161527019, -0.00738740298736126, -0.04783590846168973, 0.09623371676698214, 0.07479297352672108, 0.02047399489116637, 0.1000179737728649, 0.06709791756258295, 0.011141614150816477, -0.1053752525301754, -0.05894165417635332, -0.10924257716878172, -0.03391626076346354, -0.059237213573325995, 0.03775596337332187, -0.0580408534003957, 0.00420386205147355, -0.05186586784884987, -0.056212029980094495, -0.06427560463561591, 0.07035980063464657, 0.07839738870872581, 0.0699133468562701, 0.03708500287881014, -0.04932124669871697, 0.10975494424022603, -0.002129662880843894, 0.04177303850558, -0.051205111643783656, -0.02178435881710007, 0.07176821430974316, -0.11009579015451658, 0.07829346389713439, 0.01899977833859942, -0.05486869128867532, 0.06495249676386669, 0.029548849585849597, 0.019816224151100438, -0.025450230249095183, -0.01646546156349331, 0.08900818837362516, -0.07356618841939282, 0.05227590461349418, 0.044712593755237666, -0.023204708992506925, -0.08566838865523921, -0.05205962622679651, 0.052919236377099846, 0.06488093115935216, -0.06705683895889308, 0.03240083609805951, 0.0305690572879075, -0.07316178366527978, -0.017611448092787002, 0.10244578825995986, -0.005157238344655923, 0.019011389274762737, -0.04930648671402393, -0.012063274392019386, -0.011901017562094197, -0.08950702467219118, -0.09933801436340918, -0.07369723184387092, -0.006558791827971051, -0.02968575096712341, 0.07792309523405497, -0.037040554563521656, 0.09871528314709178, 0.09997012599215024, -0.1053391326178318, 0.05453146580445783, -0.027827387115675412, 0.07958998371029137, 0.051607902977414265, -0.0253440629137213, 0.07875417172908783], [0.06348928809165955, 0.013418704271316528, -0.06514100730419159, -0.0014103129506111145, -0.07450620830059052, 0.03670664131641388, -0.09189876914024353, 0.060055822134017944, 0.07372443377971649, -0.0874282494187355, 0.0068662166595458984, 0.05823764204978943, -0.001524604856967926, -0.026971399784088135, -0.10530588775873184, 0.015264302492141724, 0.025669515132904053, 0.07135176658630371, -0.01861540973186493, -0.0981639176607132, -0.10590557008981705, 0.09562474489212036, 0.094198077917099, -0.05813143402338028, -0.0392875000834465, -0.03446277976036072, -0.049777187407016754, 0.025405824184417725, -0.06168621405959129, 0.047738537192344666, -0.05637117847800255, -0.09365906566381454, -0.011350676417350769, -0.07274626940488815, -0.0413852334022522, 0.05166636407375336, 0.07272878289222717, 0.05586521327495575, -0.1025291308760643, 0.07713086903095245, -0.023935146629810333, -0.07074908167123795, 0.03643634915351868, 0.09654480218887329, 0.11166289448738098, -0.010182566940784454, 0.07928025722503662, -0.04829017072916031, 0.08406431972980499, -0.10287046432495117, 0.050176024436950684, -0.010812327265739441, 0.050151705741882324, 0.019008353352546692, -0.09232020378112793, 0.08792854845523834, -0.10062990337610245, -0.06761768460273743, 0.021343976259231567, 0.07710953056812286, 0.10000801086425781, -0.027851127088069916, 0.03735038638114929, -0.05108465254306793, 0.0020388811826705933, -0.029577650129795074, 0.03245754539966583, 0.020170047879219055, 0.03730602562427521, 0.013175159692764282, 0.10610635578632355, -0.06735634803771973, 0.08185242116451263, -0.04788525402545929, 0.06343673169612885, -0.09070231765508652, 0.03402799367904663, 0.06679244339466095, -0.047817572951316833, -0.04408031702041626], [0.002878725528717041, -0.09009746796384482, 0.08889096626036135, -0.06062452886356853, 0.07554402280822041, -0.06407620487990287, 0.07786499972362546, 0.056388603195894456, 0.032825818560708805, 0.0903420394513636, -0.018454808179956452, 0.10538091879801094, 0.10595859413861108, 0.10366918734942518, -0.09424254939484444, 0.027230291155613637, 0.042672397052511336, -0.03273936610311398, 0.08041903446141688, -0.029083663593858968, -0.01621033166734946, 0.10215068055050112, 0.018850884857936855, 0.08332501606100762, -0.10075030828671044, -0.025571402015030047, 0.036762625830408714, -0.03827611839568395, 0.030585830737152445, 0.10898295788654583, 0.07375015304292334, -0.10170045684155478, 0.03663197029385556, -0.08520921996168943, 0.0793398429390034, -0.007067558275268514, 0.09186721763450395, 0.08103724160636104, 0.0320014858507355, -0.06775559543015011, -0.09748098196147435, 0.08493868467576926, -0.0028671879454916414, -0.07606491616803895, 0.08079912226061642, -0.03598969771824635, -0.041559972555114906, -0.08582977820191384, -0.08489332904044145, -0.011299982525955694, -0.016706131385652866, 0.08663369185825306, -0.05913259351456385, 0.01149338398671456, -0.10993212848728963, 0.07409060354189462, 0.053055447777569646, -0.0802045385272944, 0.02912750648601299, 0.08521699820844933, 0.021834896873564016, -0.0553696013492726, 0.005003797520102539, 0.06658387049509575, 0.0782573237144577, 0.013152747308490772, -0.056041656357393964, -0.0062979069900402805, 0.06920358914418873, -0.09947745930709279, -0.0700903481099635, 0.09525188217342963, -0.007674442276705172, -0.05831962342281384, -0.09071793677029703, 0.040074772348258965, 0.04695941899075055, 0.008529398357940518, 0.09872372037664078, -0.07266053557395935], [0.02294422686100006, -0.027059942483901978, 0.03465721011161804, 0.0807894617319107, -0.10547713935375214, 0.03597289323806763, 0.08365404605865479, 0.04424741864204407, -0.10489910840988159, 0.011974170804023743, -0.049516770988702774, 0.06390133500099182, -0.007004544138908386, 0.04533432424068451, 0.0704491138458252, -0.07710172235965729, -0.08136598020792007, -0.06127277761697769, -0.003099866211414337, -0.05761662498116493, 0.08065105974674225, 0.004701785743236542, -0.09227460622787476, -0.028003163635730743, -0.02243480086326599, -0.04404158890247345, -0.07214288413524628, 0.018317580223083496, 0.03208228945732117, -0.04347260296344757, -0.080066978931427, 0.03172507882118225, -0.05290481820702553, -0.00844758003950119, -0.08112761378288269, 0.0632353127002716, 0.057741180062294006, 0.03623838722705841, -0.07711806893348694, 0.004671134054660797, 0.009765245020389557, -0.018275462090969086, 0.03741258382797241, 0.04733556509017944, 0.026573002338409424, 0.02524307370185852, 0.03663960099220276, 0.0028892457485198975, -0.07317139208316803, 0.00449768453836441, -0.06518711894750595, 0.03782130777835846, 0.01581616699695587, -0.09831436723470688, -0.03607649356126785, -0.018400751054286957, -0.022309042513370514, 0.05313670635223389, 0.006029628217220306, 0.0914592444896698, 0.08789128065109253, -0.06496882438659668, 0.10770028829574585, -0.08942879736423492, -0.10101418942213058, -0.08407892286777496, 0.09581522643566132, -0.04433949291706085, 0.03309312462806702, -0.0426156148314476, 0.021050572395324707, -0.08821569383144379, 0.06343668699264526, -0.016703464090824127, 0.06854189932346344, 0.02654111385345459, -0.06010080501437187, -0.06164838746190071, 0.06387591361999512, 0.06427560746669769], [-0.10038179159164429, 0.062299404690884595, 0.07384985357163, 0.08866819561542924, -0.050072427892444794, -0.01767646520314257, 0.09546707423425332, 0.003125399926546016, -0.09970053939823943, 0.07290439202884018, 0.10711093564367259, 0.00239713366594348, 0.09512980079878273, 0.08542102005312993, 0.06582702637071942, -0.05466932164879049, -0.06725408280805632, -0.0446220298995178, -0.10867225968831333, -0.06727153789620074, -0.08360719798254083, 0.06630501183084973, -0.020871315222160597, -0.022673170015831027, -0.0630082767887618, -0.001821053878206684, -0.07258403733552056, -0.09464010123839978, -0.034139972177854944, 0.012325328201785364, 0.052435750176903655, -0.031226760580871857, 0.036522887456930296, 0.055995770173107605, 0.05047186894542991, -0.07564121389055349, -0.016529007578265243, -0.09590038226604544, -0.015317392398833724, 0.04135926331071495, 0.007993255903438343, 0.05142986481380412, 0.09678665117979132, 0.03777318331040102, 0.10119488739633657, -0.02136754675037681, -0.06943591721538209, -0.0889034269338018, -0.08197884367432758, -0.02568073015451138, -0.007980663687720576, 0.026052672413698602, 0.0357997370206416, -0.09089180394827766, -0.04866165135727458, -0.09963315534753543, 0.08418476109268191, -0.09605674066029332, -0.026847355387730688, 0.003105686289540042, -0.015612289492085846, -0.04591281867033688, -0.010047491849501822, 0.03098535681680723, -0.10457783830909524, 0.051260382529541494, 0.05046354804207728, 0.05245551669370231, 0.09377960984144178, -0.09287841935491527, 0.026523144101111295, 0.07812983452086288, 0.09798393340980728, 0.07836811391615256, -0.012007571766995979, 0.057936590218303864, -0.013456134210247356, -0.02432506948349524, 0.02116268460927104, -0.06455764174461365], [0.09082640707492828, 0.08680754899978638, 0.021953880786895752, 0.07161258161067963, 0.033201053738594055, 0.09546396136283875, -0.059229422360658646, -0.07201282680034637, 0.03311924636363983, -0.0013036355376243591, -0.01977461576461792, -0.10925501585006714, -0.10808876156806946, -0.06009908765554428, 0.056191056966781616, -0.0450671911239624, 0.06108669936656952, -0.04889671504497528, -0.08690334111452103, -0.09287700802087784, -0.010119646787643433, 0.10345688462257385, -0.01583748310804367, -0.0867907702922821, -0.11151888221502304, 0.009229481220245361, 0.03361770510673523, 0.04646497964859009, 0.02070818841457367, 0.017240062355995178, 0.07242713868618011, -0.06352514028549194, -0.08554036915302277, -0.017404809594154358, -0.028537601232528687, -0.098406583070755, -0.07423186302185059, 0.05697375535964966, -0.07250791043043137, -0.048848479986190796, -0.07359996438026428, 0.09638889133930206, -0.07156740874052048, -0.041163861751556396, -0.08482684940099716, 0.06719908118247986, -0.042877934873104095, 0.03312066197395325, 0.04948708415031433, -0.01029226928949356, 0.050802022218704224, 0.008668303489685059, -0.025506585836410522, 0.03476296365261078, 0.10007451474666595, -0.09543834626674652, 0.09338110685348511, -0.03262607008218765, -0.03262392431497574, 0.08419837057590485, -0.038305722177028656, -0.09921722859144211, 0.01389320194721222, -0.0454593151807785, 0.007520057260990143, -0.09802672266960144, 0.08600866794586182, -0.00284779816865921, 0.029301226139068604, 0.0063997358083724976, -0.039896540343761444, -0.08739268034696579, 0.10614332556724548, 0.10057587921619415, 0.050370290875434875, 0.0657084584236145, 0.07689690589904785, -0.0333244726061821, 0.06405602395534515, -0.007154539227485657], [-0.10619039088487625, -0.08265863418414057, 0.03153136944808001, -0.11075941446138421, 0.06247343389517935, 0.10246046704691676, -0.01880563818055711, 0.005210725214224703, -0.08134559754488413, -0.011879936589325093, 0.04908935292441066, -0.10048004560071909, 0.03964058882255409, 0.0920853880462672, -0.07279265091240858, -0.005521023944156193, -0.012182016261676644, 0.024246829206513446, 0.03213434204130998, 0.09219231483538963, 0.07984558372700258, 0.07336390243591931, 0.05844661509779921, 0.04959063297139606, 0.0378151358967937, 0.09678575219172962, -0.010960558582371747, 0.03076844102509357, -0.06594912582362253, 0.08114933371740057, -0.0754350517151962, 0.03827837724002165, 0.10094726879606264, 0.06806890520427279, -0.11058218606159205, -0.011938023515062873, -0.05770242548515676, -0.11121818906460301, -0.025525850545766417, -0.04854310109987741, -0.000733116718382781, -0.09525791059791797, 0.025862862531285447, 0.05658927894165395, 0.11110414112361008, 0.02706555851146693, 0.019785927206539575, -0.022300906968212297, 0.02986309807984072, 0.0363454241512428, 0.06171291172308252, -0.010651165011281183, -0.05235644987590648, 0.08286573939425378, 0.031111331567578223, -0.07972508388816486, 0.09461516076696912, 0.025166437866411304, 0.06482025755820606, -0.027177459289670424, -0.03540085283120491, 0.04812150910824904, 0.07746007794661613, 0.00035155225620636947, 0.08620885975672486, -0.10332358464180971, -0.046308313053610495, 0.02598399096470024, 0.10154076985914194, 0.11280808285992924, 0.026311383380020287, 0.08070648674128, 0.031115169081944578, -0.06570460624855437, -0.07379712981623439, -0.03293211279637488, 0.08996903124166528, 0.003816434979066902, 0.09789065331055583, -0.07899682223796844], [-0.04404301196336746, -0.09749484062194824, 0.11151701211929321, 0.08281728625297546, 0.03599642217159271, 0.08727382123470306, -0.04630129784345627, -0.08111973106861115, 0.09345822036266327, 0.03309337794780731, 0.10652555525302887, -0.027198627591133118, 0.06912839412689209, 0.037431225180625916, -0.09602756053209305, 0.026513680815696716, -0.0007671564817428589, 0.0517609566450119, 0.05072978138923645, 0.07245245575904846, -0.0883125513792038, -0.023592762649059296, -0.06977145373821259, -0.0777166336774826, 0.057338595390319824, -0.03023776412010193, 0.06335940957069397, -0.08846519887447357, -0.010011546313762665, -0.0846758484840393, -0.032428428530693054, 0.06273066997528076, -0.022104576230049133, -0.051853302866220474, 0.09176786243915558, -0.06155601143836975, -0.0012034401297569275, 0.08258673548698425, 0.06104010343551636, -0.10752828419208527, -0.03430213779211044, 0.1040627658367157, 0.062068745493888855, -0.015236161649227142, 0.06394082307815552, -0.0495062954723835, 0.0005476102232933044, 0.009747825562953949, 0.056173697113990784, -0.0013852491974830627, 0.05262911319732666, -0.0705818384885788, 0.10658594965934753, -0.08177204430103302, 0.017821520566940308, 0.008885271847248077, -0.03415658324956894, 0.061142727732658386, -0.020930498838424683, 0.0025905072689056396, 0.0563025027513504, -0.02419058233499527, 0.09815770387649536, -0.07636725902557373, 0.08409832417964935, 0.04655739665031433, -0.05345023795962334, 0.09547311067581177, -0.08770953863859177, -0.006304986774921417, -0.06896376609802246, 0.05115777254104614, 0.014660075306892395, -0.05494549497961998, -0.09265249967575073, 0.06559450924396515, 0.0701279491186142, -0.011018365621566772, -0.1101963073015213, 0.04177963733673096], [0.04055945575237274, -0.019507935716541552, 0.03150011904491473, -0.03618550911709112, 0.07981042553473683, -0.021479519274940646, 0.03823248369368072, 0.11216775288932787, 0.053820032764164104, 0.06097162975712429, 0.11371648821936799, 0.0800441855815197, -0.03905517498684346, 0.05841706244663115, -0.0076071879117344384, 0.03723700715823026, -0.07404128137613274, -0.0921534703519765, -0.04940728356761558, 0.017262182881576636, 0.010454154680631366, -0.014839052544236543, 0.02920385486779534, 0.00979593763055503, 0.05252540083464612, -0.043575262137973386, 0.037714883673245374, 0.03957153182112109, 0.06100548250226948, 0.0641653270810467, 0.10125948002071997, 0.04241946384307431, -0.021820827812156725, -0.018582511705200443, -0.09136772088559114, -0.01259711327171824, -0.09128180910376381, 0.11218105463999126, -0.04142283572767261, 0.08399225583265592, -0.07523658683489136, 0.06599026842926066, 0.01392659337503124, 0.005602359962738551, -0.060561404208178536, -0.039850392119570026, -0.08625001831646661, 0.04072068581005091, -0.1131850709020763, 0.006310803094190505, -0.11474906964000281, -0.11446615500001915, -0.03949190746628176, -0.03766864537006086, -0.016346278181946214, 0.010244995636377499, 0.06389110168514515, -0.09522472358641974, 0.03678666739285032, 0.06913214259300493, -0.09678897981856481, 0.08378790950102429, -0.007122707233147656, -0.050813603665580846, -0.01828358693642486, -0.06311103717996137, -0.10470395831779329, -0.03576972444819992, -0.0457321087148926, -0.09485263887749867, 0.06362813995437004, 0.05079352469375976, 0.07392511555797582, 0.01237853544084116, 0.003952915039768488, 0.10946923504780565, 0.08397398010059565, -0.09736678309692405, 0.09375150360050985, -0.04189401865005493], [0.07445648312568665, 0.03315124093576729, 0.08970240020813013, 0.014142043615914398, -0.10232014803512611, -0.06311422976826125, 0.10531973293238718, -0.07518579094251, -0.046064431140887804, 0.007934028999521248, 0.1081491585377078, -0.028233752795955757, 0.09589343333888009, -0.03163030835956419, 0.04508062587569928, 0.059831657297144604, 0.04607202076754731, -0.017672789145591755, -0.046434625611179614, -0.0946655633274495, -0.06070935793197576, -0.05715760807489071, 0.10066040794125496, 0.09916490001639083, 0.0665086337184962, -0.08975464508280298, -0.03126236215680644, -0.10174861379022104, 0.10300527908650184, 0.048573741334826684, -0.046340344192617205, 0.032794111645439813, -0.0949718998188591, -0.018354529999462754, 0.016058906459931844, 0.07771015344302583, 0.11070952566248872, -0.01778820798195342, 0.08021778783351173, -0.04116745488679329, -0.06641196263992898, -0.006368832500279063, 0.0867285122016764, 0.009994894248419412, -0.032915206534075474, 0.03771273837077189, -0.09563728187206556, -0.05859028087905851, -0.04365956155083533, -0.06981371557510568, -0.051299778390080666, 0.05585562787207839, -0.10670618139153022, -0.07206561997086018, -0.05160495981231149, 0.022960113658899606, -0.028132971953951934, -0.014593312542351982, 0.06904992680047647, 0.0021939470616621102, 0.014881147665161154, -0.03506790138734028, 0.08590315734255566, 0.06508764660515598, -0.05574701804591246, -0.03489071266244626, 0.05379581543773496, 0.01870436405491845, -0.04129409675905997, 0.0635582332011838, 0.10588279853610798, -0.04352211736632579, 0.07558158068497978, -0.015491614250479907, 0.08692463877771787, -0.0058474630274008305, 0.0980799275382987, 0.05152646934925079, -0.06258256911321888, 0.05437536537647247], [0.07327693700790405, -0.07801327109336853, -0.01625458151102066, -0.05951789394021034, -0.02850862592458725, -0.024188756942749023, 0.018597036600112915, 0.00971175730228424, 0.10183051228523254, 0.06015506386756897, 0.006445154547691345, -0.07342341542243958, -0.08459000289440155, -0.0732940286397934, -0.06220785528421402, 0.06738884747028351, -0.08708477765321732, 0.020028501749038696, -0.02015770971775055, 0.062344029545784, 0.03853824734687805, 0.014886647462844849, 0.07112699747085571, -0.09707169234752655, -0.07766921818256378, -0.09841631352901459, -0.09259485453367233, -0.019131429493427277, 0.008744411170482635, -0.0860753133893013, 0.01749362051486969, 0.11049661040306091, 0.11164671182632446, -0.09449775516986847, 0.050177738070487976, 0.05129307508468628, -0.02487906813621521, -0.02703438699245453, -0.03435970097780228, -0.09155604243278503, -0.10356278717517853, -0.027609385550022125, -0.073463074862957, 0.09664487838745117, -0.11106102913618088, 0.03660343587398529, 0.09022024273872375, -0.08148989081382751, -0.0070698559284210205, 0.06194484233856201, 0.10847838222980499, 0.0826953649520874, 0.06058183312416077, 0.03006500005722046, -0.05416816473007202, -0.10053960978984833, -0.08926649391651154, -0.06949569284915924, -0.011987835168838501, 0.09086430072784424, -0.0741819217801094, 0.025852814316749573, -0.05883864313364029, -0.01746353507041931, 0.09131164848804474, -0.09804848581552505, 0.00286305695772171, -0.013608120381832123, 0.012670159339904785, -0.01573871821165085, -0.02491774410009384, -0.03360724449157715, 0.05137217044830322, -0.09046394377946854, 0.07421872019767761, -0.0917147547006607, 0.09589451551437378, -0.10389447957277298, -0.07093572616577148, 0.036824703216552734], [-0.011235028505325317, -0.05940566956996918, -0.014370903372764587, -0.080246701836586, -0.0940222293138504, 0.07681243121623993, 0.018916189670562744, -0.07565723359584808, -0.07742825150489807, -0.05395513027906418, 0.05784052610397339, -0.0742502510547638, 0.10757598280906677, -0.0003563538193702698, 0.07095082104206085, 0.08106915652751923, 0.04413162171840668, -0.05075079947710037, -0.07357941567897797, 0.022346198558807373, -0.0599801205098629, -0.10548904538154602, -0.0020371749997138977, -0.02517227828502655, 0.018427610397338867, -0.11051724851131439, -0.018910087645053864, -0.06768913567066193, 0.07184602320194244, 0.03375503420829773, 0.07735651731491089, 0.008379273116588593, -0.06542862206697464, -0.0553407222032547, -0.09654973447322845, 0.00724136084318161, -0.09124299138784409, -0.06734035909175873, -0.04773811995983124, -0.020161539316177368, 0.027509450912475586, 0.059768423438072205, 0.10667133331298828, -0.0003528296947479248, 0.08805087208747864, -0.061335086822509766, 0.06593909859657288, 0.01734711229801178, 0.10071738064289093, 0.07604813575744629, -0.09336096048355103, 0.0055340006947517395, 0.01507367193698883, -0.06039206311106682, 0.017328158020973206, -0.09954877942800522, -0.05963916331529617, -0.11043267697095871, 0.08773717284202576, 0.02782115340232849, 0.05505429208278656, 0.030044838786125183, -0.09480639547109604, 0.0637492686510086, -0.05166896432638168, -0.08812394738197327, 0.0873597115278244, 0.05392618477344513, -0.06525076180696487, -0.03423486649990082, 0.061243295669555664, -0.05339711531996727, -0.10923068970441818, -0.09430306404829025, 0.0781766027212143, -0.015254206955432892, 0.09874218702316284, 0.07877101004123688, 0.05302664637565613, 0.08741895854473114], [-0.043167442083358765, -0.021321021871772514, 0.01913475589422973, 0.08377677076226976, -0.044805617099160644, 0.05132744096243612, -0.06495803703438324, -0.06894367830901435, 0.04742762030472968, -0.08282143515956367, 0.12398773468702484, 0.002822400528711694, -0.07381810846656149, -0.039295942958782165, -0.015387796580537107, -0.016206015046921932, -0.03563200482414963, 0.031423316894850443, -0.09210855233774388, 0.013662442287146779, 0.08902017408738855, -0.053328911232020236, -0.06778258486062858, 0.10799572300007278, -0.0007142305109695501, 0.015298704090426263, 0.026804226950208655, -0.02126085717847503, -0.09381231534643013, -0.03851471434646428, 0.03814693405622353, 0.10644024469797764, -0.03704911988350122, -0.046080146325124784, 0.03254071487763407, -0.028566762335295818, -0.04608379399135981, -0.10471224701390883, 0.07620967387413546, -0.08619647250189613, 0.10348542556776825, -0.10060568361734908, 0.0472858465312543, -0.09245854893967226, -0.11627490120411337, 0.005420365792722689, -0.09874241020034426, -0.09233567345765907, -0.02611911156122852, -0.0857015015124689, -0.07800336961335355, 0.05682360994977804, -0.09993838559219666, -0.08068406911234054, -0.11800256598264942, -0.1143923968341158, -0.11492070983936721, 0.04876819653779824, -0.031689842773411615, 0.062472525893347515, 0.038369074741661846, -0.07216628548397815, -0.0713973656285621, 0.028231894460189175, 0.006535198685017721, 0.0549483231899582, 0.03730921211499974, -0.06922651601106342, -0.08069968362502544, -0.07665839828222441, 0.02742814165961713, 0.04371054886469629, -0.12030184371323292, -0.09100079427588896, -0.09481073550904022, 0.065892481272573, -0.005272335044210414, 0.024793673590137646, 0.06361523355743014, 0.039701491594314575], [0.097853884100914, -0.08785846389863994, -0.08602528194747264, 0.07866090335295588, -0.005103512432182229, -0.03755389257275742, 0.002621363000512755, -0.01649944008685748, 0.016308979798920712, -0.10561039482424975, -0.10679868372375476, 0.029375626220243613, -0.09093153898123536, 0.10471768820132252, 0.07161271889402755, 0.042196992162026395, 0.08577227609989521, 0.05823089469077554, 0.10015681138721658, 0.03844775915698773, -0.0248274301245991, -0.01573002649712618, 0.011048409206488414, -0.04683029829225869, 0.0017141633793309793, 0.09241211234909136, 0.05392426374055311, 0.02743949901702899, 0.0042509701566393375, 0.11018148034131302, 0.07387214722002466, 0.08517418315378275, -0.04549185440021979, 0.041829211825513704, 0.10361308974277339, 0.06989975264793621, -0.08518343090653974, -0.0012339520779213289, 0.024589749108132018, -0.02283192116156427, 0.03504788565769982, -0.05206871224480499, -0.06533749219507352, -0.04746894866585139, -0.01528875520950542, 0.03144173699367716, 0.052135156279420995, 0.0865282590695048, -0.02162863572803598, 0.007605666202655385, -0.03937642990863141, -0.034459446044414824, -0.01904203158262272, -0.04653035971023008, -0.0848414581952675, -0.10832567598070693, 0.0958718004699739, -0.0758355958887127, 0.10796434743571344, 0.06225891607554591, -0.04705292642669446, 0.007003071396673453, -0.010661321765207824, 0.0808883158600581, 0.05114990162535764, 0.08248129169747939, -0.05007886656965277, -0.05037488366957888, -0.011385320200460774, 0.08412795277530657, -0.016625037442939545, 0.03141046900593454, 0.10829262704946167, -0.09306996603453209, 0.01686345889174619, 0.07016561063727196, 0.07519829474045843, -0.07549099703468984, -0.10966439984704947, 0.09461444616317749], [0.06721809506416321, -0.06806737929582596, 0.0008465126156806946, -0.04467502981424332, 0.03537753224372864, 0.01680701971054077, -0.10475801676511765, 0.0074683502316474915, 0.033834308385849, -0.08907312899827957, -0.07803527265787125, 0.00820186734199524, 0.006917797029018402, -0.07329618185758591, 0.08454574644565582, -0.015192896127700806, 0.06967204809188843, -0.09538359940052032, -0.07598237693309784, 0.09329423308372498, -0.01359298825263977, -0.07672756910324097, 0.08257845044136047, 0.053539425134658813, -0.004822619259357452, -0.10219918191432953, 0.10669134557247162, 0.013513684272766113, 0.06817753612995148, 0.021045520901679993, 0.011243611574172974, -0.03338370472192764, -0.0482560470700264, -0.07941123098134995, 0.018900379538536072, -0.03220618516206741, 0.04226742684841156, 0.03242102265357971, -0.06276722252368927, 0.07798135280609131, -0.10804007947444916, 0.10973107814788818, -0.09634364396333694, 0.007620483636856079, 0.1068422794342041, 0.0913027673959732, 0.0869298130273819, 0.008963778614997864, -0.00013411790132522583, 0.0366310179233551, 0.07315681874752045, 0.09603141248226166, -0.045573242008686066, -0.07894003391265869, 0.049125343561172485, 0.11139388382434845, 0.024911731481552124, -0.008892297744750977, -0.06832106411457062, -0.0469222366809845, 0.10516194999217987, 0.013332709670066833, -0.004770584404468536, 0.016744330525398254, -0.0966528058052063, -0.10524968802928925, 0.10371053218841553, 0.026037022471427917, 0.07675853371620178, 0.03772938251495361, 0.0011512711644172668, -0.0354737862944603, 0.06864586472511292, -0.0208461731672287, 0.06782816350460052, 0.08862213790416718, -0.08316854387521744, -0.05302855372428894, -0.053756315261125565, 0.09467378258705139], [0.09312430024147034, -0.08269782920842514, -0.013717773912271898, 0.0900058494257744, -0.03950051571250331, -0.06471914470818174, -0.09878207480588166, -0.013951719397310939, -0.02274273822214746, -0.07458716363531194, 0.042919295129993956, 0.026557327915921157, 0.020761693672911044, -0.0691129981587153, -0.026299743330842815, 0.06761119049880453, 0.013915660238826505, -0.043870172462322964, 0.045230314150790915, -0.06132372472545516, -0.09358541546440984, 0.006093355477843934, -0.08763284956302259, 0.07647848261165112, 0.08550034342234714, 0.08531161977732322, -0.09813514251909275, 0.001426691312832003, 0.05994140949154398, 0.026182769140819465, 0.07802251058192584, 0.09293378064402691, -0.05797183721844885, 0.08660367002777426, -0.04044309257422667, -0.0872038188995191, 0.05269563862816706, -0.026063865716419665, 0.04413888199442388, -0.03811493444164093, -0.094457507851526, 0.06437396662122251, -0.10937205821756343, 0.06412565043433356, -0.04910808469640484, 0.020200543095218886, 0.03545484075256023, -0.014199459705903524, 0.03953263988724612, 0.06801888269810345, -0.009704781970600138, -0.07547497596645907, 0.053322059910255536, -0.07074558834829311, -0.09122898264610908, 0.09218983473355193, 0.0358230607433371, 0.030816398311516155, 0.034618047415222473, -0.08560091378115749, 0.04120168466231238, 0.010168068095703493, -0.06679511163487216, 0.06477436199132162, 0.06459510046150724, -0.05219797196351805, -0.057921546786048175, 0.022703607721551538, -0.02182259570528504, -0.07376499682448233, 0.00426728756052098, -0.059860127771829176, -0.06665541917681256, 0.10688888019004074, 0.06906824231770171, 0.009538348568681649, 0.04691865580799093, -0.11009837353436042, 0.05018919517760636, 0.005144186317920685], [0.014862388372421265, -0.05309089926149973, -0.004268400309749664, -0.04721550738844592, 0.018022476492792126, 0.0745812612889272, 0.06522829823810578, 0.014342737382115679, -0.06105524878682238, 0.015404979813799125, -0.07126029284126205, 0.06448656449920974, -0.05762228550407336, -0.11026434020864331, 0.006401467498083725, 0.0464266644503596, 0.09314954664364594, -0.06187357792202498, -0.008493733028127485, -0.10837652365058852, -0.04021061995092329, 0.08219397626938267, -0.08935209193790634, -0.0970333632555278, 0.10870221204171052, 0.025274311715925507, 0.07472772335403992, 0.022154827393119313, -0.025871557861651448, -0.11035389902585063, 0.00728789417126343, 0.06228977553239229, -0.08993143627603477, 0.025035675975157812, -0.09820037924984644, -0.08722954305315521, 0.05108619806007033, 0.06001974149158459, 0.08580452240579742, 0.031221128171398407, 0.10317877762942095, -0.03806401080959443, 0.057888542576523025, 0.014125410945857767, 0.057021015011315776, -0.1043679357196932, -0.014810692879035093, 0.08191242108304923, 0.01387297995695716, 0.06800777764937699, 0.10040337296717677, 0.011815776795233756, -0.04651702640158414, -0.06804943268889023, -0.09541230421718445, -0.03747923619160518, 0.06424445328381378, 0.05034547129238338, 0.05364357866225774, -0.08507335892852855, 0.008885761893691651, 0.046801325300885925, -0.0066718008225772054, -0.06890109564915436, -0.004853892483902214, 0.06585668456957741, -0.06643923951519168, -0.04949340043571546, -0.08137029538757644, 0.06017042399770636, -0.061868078190788524, -0.02521088142214673, -0.06900971103257121, -0.101968482068367, -0.039989795100496245, 0.03805418425950429, -0.004242203175690543, -0.060726426603130275, 0.08953459096219656, -0.0794362723827362], [-0.073117196559906, 0.09157989919185638, -0.015126816928386688, 0.07542020082473755, -0.049926675856113434, 0.048842281103134155, 0.07738371193408966, 0.05348418653011322, -0.09365551918745041, 0.07825800776481628, -0.04177837073802948, 0.0025959983468055725, 0.10353264212608337, 0.08695369958877563, -0.10248611122369766, -0.025174707174301147, -0.013452529907226562, 0.05283309519290924, -0.08502770215272903, -0.073967844247818, 0.07389791309833527, 0.03150904178619385, -0.0006032288074493408, 0.0475807785987854, -0.03115399181842804, 0.09817513823509216, -0.008287444710731506, 0.10186000168323517, 0.07702487707138062, 0.08923253417015076, 0.00850985199213028, -0.0435926616191864, -0.06408217549324036, 0.03488777577877045, -0.034663163125514984, 0.07601863145828247, 0.020180821418762207, -0.10229837149381638, -0.11114291846752167, 0.056131139397621155, -0.09539028257131577, 0.04932403564453125, -0.00789611041545868, -0.011041373014450073, -0.004940733313560486, 0.07556787133216858, 0.10513673722743988, -0.07008426636457443, 0.06288900971412659, 0.09303052723407745, 0.10632564127445221, -0.07542778551578522, 0.0557580292224884, 0.003950856626033783, -0.039254821836948395, 0.0012029558420181274, 0.06382730603218079, -0.012630186975002289, -0.0009254813194274902, -0.08323699235916138, 0.11113737523555756, 0.08175399899482727, 0.037023499608039856, 0.05619986355304718, 0.08867840468883514, -0.02557254582643509, 0.036510318517684937, -0.011041916906833649, 0.10228466987609863, -0.04531259834766388, -0.0007895007729530334, 0.06689588725566864, 0.007298268377780914, -0.0216926708817482, -0.036191344261169434, 0.014318972826004028, 0.010626174509525299, -0.013124547898769379, 0.006974250078201294, -0.07440106570720673], [0.035340845584869385, 0.06737447150490734, 0.014372410377038463, -0.09804510551522264, -0.08623051430176834, 0.012787093874493703, -0.024783621548795595, -0.03870446444502464, 0.10050976421376767, -0.08242322186530456, -0.07258207110671389, 0.005217973202356966, 0.10091367589189945, -0.09307076439611008, 0.046321084058675126, -0.0035286788462584725, 0.11900447788426924, -0.07457572919748283, -0.050431845220871685, 0.002959302619108279, 0.04354289992174289, -0.06994635135447994, 0.008076131512685297, 0.0880517728813107, 0.06534374874865509, -0.05282990115277841, 0.09213445241767144, 0.009244087082187831, 0.08718584980181787, -0.04513235481539489, -0.08055873389310106, -0.04260806571031189, -0.04941658396321203, 0.04344866412319722, 0.0021028569745990327, -0.09026300525451153, 0.031141335230650498, 0.02212413945124728, -0.1099385854723736, 0.065222119170086, 0.08128652982149881, -0.07306197910282172, -0.002621410273772413, -0.10138005213099895, -0.06522838780498057, 0.0656972625446349, 0.0032480881866022923, -0.06605125497979306, -0.09872734714960506, -0.08015825425320403, 0.01378829496064891, -0.09619091953448389, -0.04025339607600406, 0.09386272077244544, -0.05676346046335629, -0.08162837845122305, 0.006525405477721228, -7.218139366675118e-05, -0.056862835878968024, -0.09327610655149615, -0.018259449854501838, -0.10295037787859829, -0.0032530655203057307, 0.0012055438499683961, -0.06111143337498269, -0.10112416491547577, 0.06491475955001404, -0.08673852907373841, -0.11506511649478417, 0.07832015065459598, 0.08775958100856172, 0.06635883305529054, 0.04170172871103874, 0.08699336182990118, -0.013889757451096642, 0.020173957302084787, 0.048509547887544635, 0.03390457282446531, 0.022937979619283757, 0.0367380827665329], [0.01621842384338379, -0.03508073749395184, -0.030957985314491294, 0.04273890052857293, 0.06328285271050815, -0.01957614970632267, 0.013786928813878845, 0.013447918552181911, 0.0912397447361141, 0.10762410363421317, 0.03912454179107947, 0.09152205391281543, 0.06633834531773197, 0.02375821200318979, 0.052786725387894765, 0.01589211864743238, 0.07748849358108861, 0.07222005369755426, -0.07469018569106915, -0.012162306300687951, 0.05336129401760295, -0.02440534282534615, 0.003848833842869965, 0.06549571602543856, 0.016999552431279093, 0.08485381526991234, 0.036259296208556356, 0.04849940282698478, 0.02622842985207985, 0.027320838247429084, 0.05397348979812401, 0.007327642967863416, 0.04655689122302616, 0.09976165602037765, 0.05775221650502861, 0.01228485264004503, -0.1084072228498756, -0.042519570986622894, -0.05029810207326573, -0.004635401025608856, 0.05252090837080846, 0.011374469719721569, -0.00590289225161637, -0.0805164415411652, 0.07083785526334, -0.08882825289867102, -0.02710226038525009, 0.07407605526821473, -0.0189659714009001, -0.03945838788848656, 0.0016377356899869742, -0.038769723949980635, 0.0952255751431385, -0.0055826630889731005, -0.07421040011688576, 0.07874964695913221, 0.02540786416331314, -0.012924594684239628, 0.008654331155710439, 0.05409857894344136, -0.10160941542000715, -0.03339491019134692, -0.05073365959021238, 0.10476494167300837, -0.07728841198954582, -0.02256534509452541, 0.05679393383554744, 0.08463017651568781, -0.03623546762817803, -0.030141555579302533, -0.061739889292573555, -0.08386690349713863, 0.022181778591849506, -0.06865412936729572, 0.07476261508889857, 0.02817147439596763, 0.04007571841654882, -0.003217172232505745, -0.06903641013054117, -0.05706659331917763], [0.0440668910741806, -0.10628563165664673, 0.10935920476913452, 0.04797327518463135, 0.0046507567167282104, 0.07013802230358124, -0.005173034965991974, -0.04043562710285187, -0.044547975063323975, 0.10623186826705933, -0.11133695393800735, -0.07069051265716553, -0.06725374609231949, 0.014814257621765137, 0.07101252675056458, -0.09106378257274628, 0.04180702567100525, -0.08692658692598343, 0.054910480976104736, 0.10932622849941254, -0.09975399076938629, -0.03655635565519333, 0.06469792127609253, 0.021207913756370544, 0.005893215537071228, -0.034476131200790405, -0.055367499589920044, 0.07704831659793854, -0.012392602860927582, -0.04762750118970871, -0.07272624969482422, -0.08100144565105438, 0.06567984819412231, -0.06542234122753143, -0.0657971203327179, 0.054277896881103516, 0.039197057485580444, 0.014102503657341003, 0.07515458762645721, 0.07442337274551392, -0.03230017423629761, -0.08541259169578552, -0.05291837081313133, -0.06722617149353027, 0.051962822675704956, 0.028676271438598633, -0.005539439618587494, -0.019765175879001617, -0.07572944462299347, -0.09272965043783188, 0.07825036346912384, 0.03673022985458374, 0.01875893771648407, -0.008887402713298798, 0.016077890992164612, 0.013694331049919128, -0.03548767417669296, 0.08272334933280945, 0.020829975605010986, -0.011775515973567963, -0.03232194483280182, -0.06282183527946472, 0.08459976315498352, 0.08605585992336273, -0.027166150510311127, 0.0699826329946518, -0.06379298865795135, -0.1052582785487175, 0.09315097332000732, -0.057992421090602875, -0.04268796741962433, -0.012026600539684296, 0.0823369175195694, 0.05280604958534241, -0.014469161629676819, 0.07189033925533295, -0.09747127443552017, 0.006221376359462738, 0.03332160413265228, -0.0460989773273468], [-0.008534654974937439, 0.034028783440589905, 0.06667380034923553, -0.04025799781084061, -0.001588471233844757, -0.022837281227111816, 0.11037333309650421, 0.03719329833984375, 0.014302119612693787, -0.04562831670045853, -0.0736113116145134, -0.07908949255943298, -0.06400768458843231, -0.03471134603023529, -0.03850731998682022, 0.08650901913642883, 0.08775132894515991, 0.06980028748512268, -0.10188541561365128, 0.06884852051734924, -0.030617833137512207, 0.10317450761795044, 0.09269914031028748, 0.0012320950627326965, -0.06700940430164337, -0.09365886449813843, -0.050260353833436966, -0.023457765579223633, 0.00980917364358902, -0.06066999211907387, -0.10828211158514023, -0.02196849137544632, 0.04785923659801483, -0.051783811300992966, 0.04810169339179993, -0.04848740994930267, -0.06723186373710632, 0.04979155957698822, -0.0824543759226799, 0.08740229904651642, 0.1055460274219513, 0.06784211099147797, 0.08344697952270508, 0.08146271109580994, -0.07637512683868408, 0.09244422614574432, 0.025627970695495605, -0.02011294662952423, 0.044006869196891785, 0.10822880268096924, 0.05309872329235077, 0.014435917139053345, -0.08767976611852646, -0.06594452261924744, 0.10007445514202118, -0.07000429928302765, 0.04215574264526367, -0.06114592030644417, -0.07494015246629715, 0.004022032022476196, 0.0975857824087143, -0.07303548604249954, -0.0932154729962349, 0.02208268642425537, 0.03722463548183441, 0.018376171588897705, 0.05625666677951813, -0.08680936694145203, 0.110645592212677, -0.008568637073040009, -0.04332800954580307, 0.012041039764881134, 0.015285655856132507, 0.10224258899688721, 0.10218769311904907, -0.025902390480041504, 0.033540308475494385, -0.08723722398281097, 0.04512675106525421, -0.046008773148059845], [0.021752700209617615, -0.10308399494628476, -0.019194054757272778, -0.10412463065861767, 0.07121650459285808, 0.010284728867282529, 0.00623478505743738, 0.02003706478022004, -0.11302758640801439, 0.018388963711662865, 0.06980902380436456, -0.06227924583028209, 0.08851780630533852, 0.00476560318389391, 0.05646070361584515, 0.05044029274092682, 0.014067819565164626, -0.10068157160130083, -0.11356781493766953, 0.10093317530867231, 0.0070529691826959695, 0.0675222525490378, -0.10473830277705624, -0.0493406856389663, -0.07219350846611601, 0.08851101949195606, -0.0360973138355877, 0.05170047356304677, -0.017791261966788947, 0.054830824574154446, 0.035436569079587525, -0.0827889656540764, -0.08410399802217373, -0.1029463355951845, 0.059786067153363535, 0.026358517235545158, -0.10849731470284928, 0.07547187744378685, 0.04963278804365687, -0.09407671914668193, -0.1113123111310471, 0.09519705142434547, 0.018939242374900633, 0.013666220557074458, 0.09318968432542894, 0.05683720037803143, -0.0033275539464414894, -0.05990586034765351, -0.012545631277857969, 0.05051186837272876, 0.03126796559460775, 0.000390416081512152, -0.06281115932879008, -0.06396597288611867, -0.05464315369109848, 0.02244457366072284, -0.05727821048778083, 0.10999853933835461, 0.023312350164547115, 0.010889139031205544, 0.03577176131490093, -0.03111379522935701, -0.08580822652730406, 0.002440677732599197, 0.06750934204949366, -0.03138575226515621, -0.09327719682374455, 0.020367630944798806, 0.07787269262145412, -0.033874471254048716, -0.05879682995121059, 0.00860256589209564, -0.057397468466981925, 0.11363706227408653, 0.05848743810010945, -0.04856991725083423, -0.10309539470196659, -0.1106151311052684, 0.07491216506700085, 0.09260988235473633], [0.057546645402908325, -0.0042726625222376125, 0.004350220796109928, -0.11140211060312337, -0.044235269602769536, -0.005632383999229183, -0.0012034560846207953, -0.03275262933264159, 0.0627994792001906, 0.048311268937618904, 0.06719349455860613, 0.040864061502675714, -0.05474617473793528, 0.007141230471685643, -0.0047916095625854475, -0.05978657284935691, 0.08762171220103243, -0.09612817772710926, -0.005723072708740423, 0.055486311604382124, -0.04274799518187953, -0.03231030517761579, 0.007125186812606572, -0.03782205755317746, 0.021169604007540404, -0.036374978569938966, -0.04537507368016352, 0.052383985817251934, -0.09691059004372618, 0.06977387252796793, 0.010593896706113255, -0.03817413492032675, -0.0423686828212911, 0.10760181562391621, -0.05283749260979209, 0.03794165842424449, -0.08024443110540376, 0.07391536103195946, 0.05917035423910319, 0.0008173275731114823, -0.10436350740413904, 0.03911921001279655, -0.07885850088305273, -0.06818214634344116, -0.055497986750708175, 0.07741629117208072, 0.103120615916573, 0.0048762883739645975, -0.005994240512164559, -0.08262669106245936, -0.06027171868432603, -0.04408101577454553, -0.02018381327372623, -0.08913116680693486, -0.09008879974703589, -0.10596773887091686, 0.10301768506372522, 0.07426509718922061, -0.09063881075437157, -0.07249249674479044, 0.027332896898387405, -0.0528982220877264, 0.03867348738992842, 0.0806632851429846, -0.06516456996837876, 0.045038461304853054, -0.03824004329021276, -0.10887940458940988, -0.04553380974934545, -0.0742972655299044, -0.018637245547802644, -0.055650174005574336, -0.07861853022088562, -0.047866328497040554, 0.037318228062988144, -0.007696581009394105, -0.005019551667899166, -0.035703098412992074, -0.062364726839620806, 0.09102095663547516], [-0.02764786034822464, -0.06729634666894893, -0.04510500825388245, -0.025555904831635026, 0.11025490434191777, -0.04871620794860787, 0.019110074727292543, -0.013301540868158566, 0.08473369968839004, -0.02684163451542541, 0.043636311290932935, 0.06776897208888394, 0.07914191519900259, -0.09249675281014709, 0.05793657991078164, 0.06562479844568708, -0.07351451792946527, 0.04640374090195772, 0.029383715186616928, 0.0049939961277820025, -0.030829814131067862, 0.09797673651054885, -0.06838825856128, 0.06451871325908, 0.11365226452758025, -0.0860027754511097, 0.09178584141942478, 0.09748257806950014, 0.09163417867043683, 0.10179365668602149, 0.04618310813013914, -0.018603779803371287, -0.046267582854655764, 0.05606767649191764, 0.08909570763446119, -0.04468167616931762, -0.10835925180094914, 0.10857261001810019, 0.0863434803139546, -0.03417562203629701, -0.11105635506884376, -0.07901382264011882, -0.015134677586402252, 0.031956557814056666, -0.01475283459814219, 0.012620289226996576, -0.008869529910267989, -0.041015551605793454, 0.09031471652851103, -0.044141947069805884, -0.03864788506336354, -0.07013528993943398, -0.011979975909522886, 0.013359821603569943, 0.04190095605509052, -0.06992605870177458, -0.011079535686352686, -0.03052414442619979, -0.09935156234577681, -0.043646360879136675, -0.08472706983917722, -0.030610915217897453, -0.013621365089427314, -0.005505907747833983, 0.10733883568765185, 0.0008629625758860237, -0.10709128521713944, 0.07011264527157846, 0.05757841868202803, 0.03554738640956753, -0.02592310160050707, 0.026216844788119052, 0.07901142235266707, -0.0007027150080161227, -0.06250612998278683, 0.0788201781985943, 0.024584982421146914, -0.10277649216907267, 0.09674888664936047, 0.10829174518585205], [-0.04484082758426666, -0.06449830532073975, -0.06617538630962372, -0.04163229465484619, 0.014261454343795776, 0.06337012350559235, -0.07946155965328217, -0.03229079395532608, 0.01790885627269745, -0.0722050592303276, -0.028731495141983032, -0.0692354068160057, 0.048749879002571106, -0.0885724350810051, -0.03639311343431473, 0.0096622034907341, 0.048456817865371704, -0.0709444135427475, 0.07821729779243469, 0.01940937340259552, -0.07210496068000793, -0.05578509345650673, -0.11021508276462555, -0.06905779242515564, 0.012583024799823761, -0.04221615940332413, 0.09669007360935211, 0.06816615164279938, 0.022937506437301636, 0.05293940007686615, -0.10972676426172256, 0.07500655949115753, -0.08819277584552765, -0.05071881040930748, -0.0721282809972763, 0.0931277871131897, -0.03955903649330139, 0.0745832771062851, -0.010701492428779602, 0.07764275372028351, -0.09922288358211517, -0.011442609131336212, -0.10259704291820526, -0.11026647686958313, -0.06557546555995941, 0.025599390268325806, -0.058803193271160126, 0.10826563835144043, -0.046008817851543427, 0.054029613733291626, 0.09254142642021179, -0.05335889011621475, -0.0867859348654747, -0.009607411921024323, 0.1089215874671936, 0.057142019271850586, 0.023365840315818787, 0.02209712564945221, 0.06042592227458954, 0.08087250590324402, -0.0016127973794937134, -0.02741030603647232, 0.023198634386062622, -0.04668787866830826, -0.060667701065540314, 0.05520950257778168, 0.04002667963504791, -0.031477317214012146, -0.08968649804592133, -0.021085143089294434, -0.0025771409273147583, -0.07096998393535614, 0.09493954479694366, 0.030992314219474792, 0.016007497906684875, 0.005266465246677399, 0.04064150154590607, 0.08944906294345856, 0.0719732791185379, 0.031590357422828674], [0.10254290699958801, -0.08819675085970695, -0.08451625261578898, 0.08316862740232521, 0.0020589431165331006, 0.004585712605824008, -0.07682860892010744, 0.038356782838184694, 0.0053875488882515025, -0.03646936435673967, 0.04221118043100372, -0.04761519368029226, 0.0771762193681206, -0.03373879847701039, 0.10146884605241605, 0.07722736136675935, 0.08663870138135245, 0.07836621393998042, 0.04176384080187442, 0.019502706625947646, -0.08067328525477128, 0.11347087752057261, 0.08669429514699704, 0.051188185886144426, -0.06235436932699326, -0.08384300479588262, 0.11330011009416001, 0.07601024811976284, -0.004973803706292004, 0.029259744725841107, 0.052054731808802185, 0.07423401515652703, 0.09472006940066208, -0.024586765277126058, -0.10268082147868682, 0.0030656454597425883, 0.09646846581625541, 0.08094712070212194, 0.08211199793594692, 0.06658780017325762, -0.10880588182637575, 0.08630594756824157, 0.046519692027713284, -0.10039300699162083, -0.04075088328465927, -0.10480393046108678, -0.04489565808798993, -0.05765610941469139, 0.06791647631953202, 0.0981009465826549, -0.0012601126653133737, 0.0282946797682084, 0.04008298510796676, -0.05620968609294316, -0.09232561579051261, 0.010507619246407742, 0.019988164230585227, -0.01343494895988189, -0.01795076113177479, 0.10145964516096788, 0.0003068821639922242, -0.05397799480692508, -0.11766296764452826, -0.08410879713502219, -0.028423078224669506, -0.10753080233884638, -0.11343401017014527, -0.011580585086485594, 0.05333772759175885, -0.04968900780117049, 0.06782829929564664, 0.0021023633236434934, -0.04771635864623294, -0.0005037759642502882, 0.08321052843917423, -0.03330635031448529, 0.023143468716601914, -0.0767047077032532, 0.013556104282825703, -0.02780734747648239], [0.025798380374908447, -0.0338854119181633, 0.03185708820819855, 0.05225348472595215, -0.10369222611188889, 0.08281084895133972, 0.06455039978027344, -0.011438481509685516, 0.03238371014595032, -0.04283758997917175, -0.09137745946645737, -0.03448278456926346, -0.06444920599460602, 0.027503296732902527, 0.036645591259002686, -0.051650237292051315, 0.10034987330436707, -0.05224058777093887, 0.07466097176074982, -0.016618087887763977, 0.042778149247169495, -0.09405894577503204, -0.039984360337257385, -0.019115805625915527, -0.06636407971382141, -0.09199729561805725, -0.06185241416096687, -0.0593789741396904, -0.07627654075622559, -0.06684313714504242, -0.055643480271101, -0.027194149792194366, -0.008063428103923798, 0.027673959732055664, -0.04945053160190582, 0.04005622863769531, 0.08219754695892334, 0.1076439768075943, -0.06134207174181938, -0.01213046908378601, 0.0742567628622055, -0.07873973995447159, 0.07689806818962097, 0.1065419614315033, 0.10364313423633575, 0.031945884227752686, 0.07302232086658478, -0.05979516729712486, 0.06449463963508606, 0.01988755166530609, 0.04365451633930206, -0.07783344388008118, 0.07314179837703705, 0.0974070280790329, 0.025627821683883667, -0.03908108174800873, -0.11141642183065414, -0.033785998821258545, -0.002408050000667572, -0.07109867036342621, 0.0816432386636734, 0.07877583801746368, -0.03735969960689545, -0.07035151869058609, -0.028967387974262238, 0.11153797805309296, -0.024023830890655518, -0.020990602672100067, -0.08531076461076736, 0.004805035889148712, 0.021344125270843506, 0.009268559515476227, -0.013176754117012024, 0.053834959864616394, 0.07456180453300476, -0.0962962806224823, 0.004828512668609619, 0.04533855617046356, -0.06901772320270538, -0.06397275626659393], [-0.07479622215032578, -0.002440136149905935, 0.10555510393909553, -0.09482589049547213, 0.011961437062382134, 0.05655982442423932, -0.03308521188115293, -0.04301711203639118, -0.09352352743555009, -0.1098432529098443, 0.08820489094631699, -0.05169359666628511, -0.11230693054386157, -0.04245371840568328, 0.047145259378251834, 0.09946431332172767, -0.04508427828295053, -0.015346079214823252, 0.00533929519083851, 0.09211090029564546, -0.05333600790620361, -0.012479633193526948, 0.007080750989304872, 0.08561724423251069, 0.07250735673260074, -0.08534035047556926, -0.037763169557367304, -0.00501687112863711, -0.06500995466345927, -0.03926710641636792, 0.051758963255508765, -0.047910538633884565, -0.026353746613561695, -0.0010662789196610495, -0.05380340139637251, 0.08876148284351841, 0.10053334948936621, 0.016295939413567946, -0.07021231286749627, -0.10801852948274937, -0.0037865369835820744, -0.10946620173230384, 0.01503531661842211, -0.031138343786393782, 0.0225007492216824, 0.0041892028904940825, -0.05143959422401189, -0.025929190257490093, 0.05454872282368101, 0.02131995222129024, -0.010993333098745919, -0.06194351306324819, -0.004951290454309667, -0.059004464595998785, -0.03354754338000251, 0.11023437467265744, -0.10406132786354935, 0.06664950169385783, -0.015056729216064714, -0.09001589714168992, -0.10777014316406892, 0.09828755207631237, 0.05162270282150507, 0.04477285146457971, -0.00856094919981374, -0.09809648692399008, 0.06035154781909728, -0.0686919237952612, -0.017262759829333705, 0.1067164684735057, 0.08846431852645197, -0.09134705091308654, -0.004027686695412713, -0.03090165578509157, 0.043362296146897156, -0.052786856190323264, 0.03931320889204044, -0.0995730253272448, 0.08506335713007332, 0.04883633553981781], [0.006594948470592499, -0.0159713476896286, 0.0851411372423172, 0.03968095779418945, -0.05395050719380379, 0.029466062784194946, 0.06550268828868866, -0.09567002207040787, 0.10522715747356415, -0.07369919121265411, 0.015651121735572815, 0.07252487540245056, -0.09990184009075165, -0.11150068044662476, -0.012563936412334442, 0.09400404989719391, -0.08697919547557831, 0.01889832317829132, 0.10359925031661987, 0.0478290319442749, 0.1088809221982956, -0.11126822233200073, -0.04026312381029129, -0.06579668819904327, -0.0528700165450573, 0.05280517041683197, -0.10114981979131699, 0.03894971311092377, -0.08996890485286713, 0.09418293833732605, 0.012888029217720032, -0.04244068264961243, 0.09493023157119751, 0.083844855427742, -0.02109597623348236, -0.09212077409029007, 0.05261187255382538, 0.02214278280735016, -0.09012241661548615, 0.05897064507007599, -0.00967378169298172, -0.05240660160779953, -0.027733057737350464, 0.022206246852874756, 0.030231118202209473, 0.09070831537246704, 0.0679187923669815, 0.01403091847896576, -0.06997054815292358, 0.1029154509305954, 0.04296767711639404, 0.04679238796234131, 0.08186568319797516, -0.006839878857135773, -0.06118297204375267, -0.033529311418533325, -0.062959685921669, 0.0949331670999527, -0.11035463213920593, -0.11139741539955139, 0.10317593812942505, 0.013633877038955688, -0.0006022900342941284, -0.06802530586719513, 0.09290346503257751, 0.028062909841537476, 0.04515640437602997, 0.05204106867313385, -0.054901257157325745, 0.025350481271743774, -0.0943368598818779, 0.06853725016117096, -0.07223597913980484, -0.025502145290374756, -0.06631787866353989, -0.01674429327249527, 0.03355516493320465, -0.009302213788032532, -0.05742931365966797, -0.06105397269129753], [-0.10901930928230286, 0.08293509483337402, 0.0846102386713028, 0.0007439032196998596, 0.10727593302726746, 0.043083906173706055, 0.11045315861701965, 0.09065587818622589, 0.05799262225627899, 0.0018586590886116028, 0.0007976442575454712, 0.0881957858800888, 0.07306234538555145, 0.008831799030303955, -0.06929726153612137, 0.023150429129600525, 0.10963420569896698, -0.004149354994297028, 0.03113599121570587, 0.030573680996894836, 0.0054704248905181885, 0.07814744114875793, -0.06942835450172424, 0.03541284799575806, -0.10347019881010056, -0.10374630987644196, 0.07404978573322296, 0.08679409325122833, -0.08959296345710754, 0.09613056480884552, -0.0301077738404274, 0.009620033204555511, -0.07922203838825226, -0.037786222994327545, -0.05556896701455116, 0.08855202794075012, -0.032147251069545746, -0.05558459833264351, -0.08696316182613373, 0.041748031973838806, -0.009115651249885559, 0.05685162544250488, -0.01906953752040863, -0.06385399401187897, 0.007859013974666595, -0.10217276960611343, -0.09883559495210648, 0.04288899898529053, 0.062350690364837646, -0.03027571737766266, -0.09615157544612885, -0.0033369287848472595, 0.03205639123916626, 0.09737364947795868, 0.09951615333557129, 0.10522064566612244, 0.0866176038980484, -0.08600912988185883, -0.026663415133953094, -0.006902292370796204, -0.03798571974039078, 0.02507205307483673, 0.10615529119968414, 0.09920226037502289, 0.07963196933269501, 0.0386272668838501, 0.02532266080379486, 0.09967944025993347, 0.03673072159290314, 0.03554701805114746, 0.10040310025215149, 0.04635576903820038, 0.037433117628097534, -0.04403151571750641, 0.020225241780281067, 0.10252988338470459, -0.10154852271080017, -0.0860329121351242, 0.00053396075963974, -0.10270306468009949], [-0.02622232586145401, -0.06407979597282216, 0.07809467663801367, 0.09820855378707376, -0.00758078665288641, 0.007218785090430105, 0.014940808801436774, 0.04173273476425093, -0.07187962819464526, -0.08349782613303607, -0.031698622748638924, 0.0993290028729837, -0.031286541713943745, 0.03570418323183525, 0.05588049585169305, -0.07252768989651422, 0.09256238785382047, 0.07275589389358283, -0.09425627974770778, -0.05028514959488507, 0.030607769889972523, 0.09860732754869185, 0.01980380779972651, 0.08781541471828563, 0.07748024992064105, -0.022275696544730484, -0.024704634821818006, -0.053367615602813605, -0.07833723048358533, 0.016705381311084087, 0.10371567987037017, -0.04811982448651371, 0.04165626566842725, 0.07998037356326852, 0.025784732004545317, -0.056996721791300824, 0.02792701265262293, -0.06251270916200145, -0.05190521903020853, 0.024099335988892124, 0.01971374360667368, 0.048394747596807404, -0.01675401035809074, -0.0061702667777410935, -0.09656540302726326, -0.0782966624702438, -0.0005870165247706911, 0.007883047051871466, -0.11149474595234868, 0.06125310875343967, -0.0941339829932699, 0.10108031402021023, -0.00792292792359748, 0.012052446282312994, -0.059436623902237626, -0.07021985284403431, -0.016199837974205978, -0.01549540526142692, -0.08491682609719954, 0.07857248683438509, -0.0375774500461996, -0.05586139695741418, -0.08715410364423516, -0.06029423621292828, 0.02256083305924176, 0.06714374428445363, 0.10121123229360149, 0.08408885110782639, 0.10848803006025148, -0.011436342253898045, -0.10390835615608748, -0.07032718967072643, -0.07199536147180474, -0.04008127310731443, -0.027658663196547327, 0.08852803678067875, -0.05018800094326432, -0.10361895015276132, -0.011769908471586736, 0.05715183913707733], [0.08657005429267883, -0.07318331301212311, 0.006202958524227142, 0.07135012745857239, 0.005492366850376129, -0.07157330214977264, -0.10520555824041367, 0.0430433452129364, -0.08406201004981995, -0.1092526987195015, 0.10780084133148193, 0.04330816864967346, 0.09092061221599579, 0.10259178280830383, -0.04925388842821121, 0.039783671498298645, -0.0690414309501648, 0.10490070283412933, 0.028217419981956482, 0.08650314807891846, 0.04916137456893921, 0.010031014680862427, 0.08212006092071533, -0.10126842558383942, 0.0794513076543808, -0.0477486252784729, -0.0555880106985569, -0.005345582962036133, -0.039515428245067596, 0.1069013923406601, 0.037757039070129395, -0.10474884510040283, -0.049584876745939255, 0.05293457210063934, 0.023094594478607178, -0.054453182965517044, -0.09046705067157745, -0.08426953852176666, -0.039815545082092285, 0.04813355207443237, -0.11104579269886017, 0.10396797955036163, 0.10450109839439392, -0.017138533294200897, -0.0003556162118911743, -0.05626899003982544, -0.10658503323793411, -0.11160654574632645, 0.08329178392887115, -0.07790502160787582, 0.03908461332321167, 0.08526024222373962, 0.045083001255989075, 0.10208451747894287, 0.06263993680477142, -0.08754986524581909, 0.09166805446147919, 0.09182274341583252, 0.09357631206512451, 0.034726276993751526, -0.018327392637729645, 0.06355462968349457, -0.026457086205482483, 0.10821953415870667, 0.10465385019779205, 0.0032859519124031067, -0.06235877051949501, 0.07734502851963043, 0.06291025876998901, -0.01724262535572052, -0.0568339005112648, -0.10365181416273117, 0.018692344427108765, -0.11024954169988632, -0.050304003059864044, 0.08518363535404205, 0.005378223955631256, -0.09139181673526764, 0.03727009892463684, -0.04479379206895828], [0.10199719667434692, 0.0852035821800815, -0.011033990132205521, 0.04544487636041318, 0.07027139191445131, 0.10278412533366629, 0.09167220301120613, -0.06552768563635114, -0.010043757249924921, 0.07969331305391382, 0.09662376926192177, 0.027407475988139925, -0.003842955508852665, -0.09256399594432645, 0.0783321039564797, 0.09980806853522516, 0.0675975052832767, -0.05077754655448155, 0.022872213244107452, 0.07576921030786726, 0.07759581335172458, -0.08405606301719847, -0.059948548534809167, -0.0668154070252534, 0.07237569403181333, -0.01298745146544931, 0.10202196846711359, 0.08048443672368741, -0.0996116067469932, 0.016241141827363904, 0.08955021805225304, 0.05389402149416178, 0.009544367009537988, -0.040125496776603875, -0.0008507767835149223, 0.020375550882333865, -0.017607416900555513, -0.02629155793733744, 0.023044763377967854, 0.09209621126304678, 0.042723251632346505, 0.013596193619903496, 0.08892685303039688, -0.10189286252601946, 0.02832952032852734, 0.09949770813374657, 0.03986666360666674, -0.04129529934539163, 0.008290692286718367, 0.05439699583591495, 0.01217436674092307, -0.019008475989021962, 0.08160558166792178, 0.060913467304829015, -0.027486993162312612, -0.06287506755719423, -0.020650855255687793, 0.09509845064014076, 0.005592151007005392, 0.021643178385641126, 0.07336825683805254, 0.03386875617537214, -0.1076492113474257, -0.1048628656386539, -0.056776871493952025, -0.022540301252145373, 0.014942409323518573, 0.0027688574582583635, -0.10130226729320523, 0.05748260929337583, -0.06437721040017194, 0.05760674386224486, -0.014783769196202655, -0.04914975769012289, 0.04238133298790531, 0.08668155546370729, 0.07446898479509662, 0.02266905521094108, 0.06842792617029081, 0.080855593085289], [-0.0828387439250946, 0.0019598760481087225, 0.014600774116756534, 0.038283083376615644, -0.086404262862588, 0.02250907432801027, -0.027382725777571917, 0.06742614072395642, 0.01949781315185189, 0.11265889647757595, -0.08345604280577226, -0.02378479078143127, -0.09622133042813055, 0.011072532355366826, 0.08387633951814011, -0.08070686575506153, -0.09610076226488849, -0.09843898443762782, -0.09599172689953726, 0.049131881563460156, -0.04299223898101936, 0.0238141735542666, 0.031022657143211296, -0.08982813751289945, 0.09543442531747649, 0.01863691879194544, 0.037684316812289294, -0.09068774143938427, -0.09399367518217068, 0.09712918094078503, 0.10283501655711476, 0.057717864856629796, -0.10518256307516106, -0.046344210005337186, -0.08238667257602192, 0.10664834435659477, -0.030403950217152864, -0.07678742406661644, -0.05463446684701039, -0.01895367123289235, -0.03875396631555424, 0.020996891041823017, 0.031671796718193215, -0.02704255938253281, -0.04039813931661717, -0.08083863548462414, 0.05439298654251713, 0.005771380969619626, -0.11375105147114323, -0.06680520460857695, -0.008263789030708816, 0.05383828676731028, -0.10101300020928979, -0.10496061581207564, 0.0009256758006258569, -0.021906910382936722, 0.044269252773023654, -0.010773349987602281, 0.026554388786469804, 0.0523566725676168, 0.027678090961182872, 0.011776525462063824, -0.07540748389180181, -0.06187861062391512, -0.08898647758628903, 0.021533074057985747, -0.1038040454383481, -0.11504233363866098, -0.08983972981841058, -0.06256335263504495, 0.04412240442479036, -0.09686740623571019, -0.039484675346148496, -0.006442895231301166, 0.08033917236560133, -0.0008982505579939632, -0.074480119881361, -0.10314213282609203, 0.06436838872478302, -0.05434838682413101], [-7.565319538116455e-05, -0.10234356671571732, 0.10871905088424683, -0.01855950802564621, 0.04197201132774353, -0.0024325326085090637, 0.01970142126083374, 0.003025054931640625, -0.07687420397996902, -0.05368461087346077, -0.017858274281024933, 0.03463877737522125, -0.02590595930814743, -0.09018580615520477, -0.06861430406570435, -0.027105852961540222, 0.08637849986553192, 0.06144459545612335, -0.039040498435497284, 0.10375191271305084, -0.011622630059719086, -0.05398658290505409, 0.012277156114578247, -0.025735095143318176, -0.03459092974662781, -0.003817059099674225, -0.006314903497695923, 0.015721842646598816, 0.06053990125656128, 0.028777867555618286, -0.0845099687576294, -0.009975634515285492, -0.09047207236289978, 0.04938095808029175, -0.11022300273180008, -0.10603845119476318, 0.027224957942962646, 0.10656756162643433, -0.0634477362036705, -0.04551190882921219, 0.008631683886051178, 0.01671062409877777, 0.04661564528942108, -0.0194769948720932, -0.10636600852012634, 0.05107933282852173, 0.0373447984457016, -0.10736965388059616, -0.08337529748678207, 0.08455449342727661, -0.1046985313296318, 0.11056138575077057, -0.07814256846904755, -0.08182352036237717, 0.0830630213022232, 0.06483113765716553, -0.03236308693885803, -0.04174445569515228, -0.0007297620177268982, 0.012149006128311157, 0.015573859214782715, 0.06242513656616211, 0.10187800228595734, 0.09495416283607483, 0.0065279752016067505, -0.1044735535979271, -0.07015316188335419, 0.04316362738609314, -0.01056990772485733, -0.0005679577589035034, 0.09053413569927216, -0.05715889111161232, 0.02388077974319458, -0.016838975250720978, -0.009158045053482056, 0.0025505274534225464, -0.10826998203992844, 0.07842980325222015, -0.014685951173305511, 0.01911245286464691], [-0.0584518238902092, -0.0027159483760293844, 0.08181639931264226, 0.08646608989011494, 0.046242130792778696, 0.06879261795766155, 0.09829401299290977, -0.03417674579112285, 0.05180340899882366, -0.09347000871811563, -0.00013391169037259716, 0.04666374426292132, -0.021607814156588176, 0.06547721296422779, -0.06306399384584706, 0.03959266645062218, -0.06439755498507763, 0.03261489512486824, 0.028956523776878396, -0.057612818827485625, 0.024797499095262635, 0.0625263736620162, 0.018600639821410633, 0.07112835403575912, -0.09225948040267837, 0.028586504835168457, -0.011155937284688357, -0.047382758859174263, 0.06485331984239442, -0.0702781674715787, 0.018421460086210106, 0.09433110935751693, -0.008066381491376761, 0.06767805427803895, 0.022814176295679535, 0.09817982351450037, 0.036855516464811985, -0.012504168662876607, -0.00706657044512494, 0.0029080156357039685, 0.07134469411065696, 0.08423396967274421, -0.08294629224792026, 0.014487462608712526, 0.08528616392942358, 0.005825840617734503, 0.026477868254042646, 0.026018711901857252, -0.07292946560446514, 0.0165972670971319, -0.08155743057996931, 0.113077184241239, -0.009855223890764571, 0.003626320928792369, -0.05632732607750073, -0.05685245360353484, -0.012169905566120477, -0.10365356964004076, -0.054497397042772754, 0.014713287438093171, -0.0321267199017052, 0.10489962375081621, 0.09282883165316196, 0.10907136662939332, -0.09085541767227905, 0.09676487723436573, -0.061254805027178005, -0.04035240618032601, -0.0822004730622645, -0.010506798901897327, -0.017708627832787583, 0.022709042888307267, -0.10314649961502774, 0.005607417971560109, 0.04906683500521423, -0.08986338774029606, 0.10435536403883251, 0.03429471530851988, -0.07841048821511923, -0.019516170024871826], [-0.04467497766017914, 0.07463444769382477, 0.11112603545188904, 0.06303173303604126, -0.018269293010234833, -0.049243293702602386, -0.03762158006429672, -0.0644775927066803, 0.05966027081012726, 0.013118937611579895, 0.014209657907485962, 0.11174580454826355, 0.03000834584236145, -0.10475759953260422, 0.0856618583202362, 0.09556800127029419, 0.012673214077949524, -0.012288205325603485, 0.09141023457050323, -0.09894192963838577, -0.017898179590702057, 0.0699312835931778, 0.08198851346969604, 0.09299707412719727, -0.10558237880468369, 0.06857055425643921, -0.08974538743495941, 0.03599923849105835, -0.04567108303308487, -0.04831278324127197, 0.030977100133895874, -0.005487032234668732, -0.03740885108709335, -0.06969919800758362, 0.07990390062332153, -0.10999983549118042, 0.0693526417016983, 0.10386785864830017, 0.013580217957496643, -0.053400978446006775, -0.01993316411972046, 0.04806904494762421, 0.06845518946647644, 0.04460883140563965, -0.07629162073135376, 0.021194517612457275, 0.03088715672492981, 0.08434039354324341, 0.08941763639450073, 0.10616184771060944, 0.10675579309463501, 0.07019452750682831, 0.09845902025699615, 0.07568737864494324, 0.0181809663772583, -0.09973873198032379, -0.054060276597738266, 0.10363522171974182, 0.08978542685508728, -0.08849907666444778, 0.014623716473579407, 0.11144803464412689, 0.05909399688243866, -0.026983901858329773, -0.053639110177755356, -0.0649319663643837, 0.11095024645328522, -0.017137281596660614, -0.018049731850624084, -0.027451984584331512, 0.08897845447063446, -0.10910297185182571, 0.07786764204502106, 0.0068802610039711, -0.023724086582660675, 0.05190533399581909, 0.0033610016107559204, 0.022233933210372925, -0.11175829917192459, 0.043053627014160156], [0.029924675822257996, 0.06816299259662628, 0.08937148749828339, -0.0008669197559356689, 0.015758514404296875, -0.09195014834403992, 0.002500757575035095, -0.09786964952945709, -0.05500746890902519, 0.0272655189037323, 0.004622749984264374, -0.06627800315618515, 0.1033419668674469, -0.0035127252340316772, -0.012914992868900299, 0.022924363613128662, -0.07386934012174606, -0.0679260790348053, -0.0034077689051628113, -0.018300160765647888, 0.042447224259376526, -0.09845597296953201, -0.015093602240085602, 0.04706616699695587, -0.07575037330389023, -0.0431290864944458, -0.10624141991138458, -0.05330691114068031, -0.08330228924751282, -0.0811968743801117, 0.014007166028022766, -0.028946302831172943, 0.1020006537437439, -0.08517264574766159, -0.07402092218399048, 0.024321705102920532, -0.016465619206428528, 0.06986343860626221, -0.052260756492614746, -0.09995991736650467, -0.026603907346725464, -0.026652246713638306, -0.08079956471920013, -0.008244581520557404, -0.04577385634183884, -0.09412603080272675, -0.012183062732219696, 0.07413174211978912, 0.04414491355419159, 0.016912192106246948, 0.045717522501945496, -0.027857676148414612, -0.08106429129838943, -0.04620732367038727, 0.10050065815448761, -0.10644465684890747, -0.10554827004671097, -0.06788370758295059, 0.06034836173057556, -0.10283391922712326, 0.10834963619709015, -0.02875729650259018, -0.09181281924247742, 0.057127028703689575, 0.03353556990623474, -0.09479454159736633, 0.04886119067668915, 0.08770038187503815, 0.014010190963745117, -0.07182195782661438, -0.04110853374004364, -0.08461381494998932, 0.08492529392242432, -0.01622094213962555, -0.006003879010677338, -0.06048201397061348, -0.016349278390407562, 0.09448359906673431, 0.025063157081604004, -0.041072577238082886], [-0.029257476329803467, 0.022803708910942078, -0.1100715845823288, -0.040297217667102814, 0.06644946336746216, -0.08183743059635162, 0.005865320563316345, 0.07714246213436127, 0.09637649357318878, -0.026656843721866608, -0.09299153089523315, -0.1044304221868515, -0.08912131190299988, -0.08595846593379974, -0.08468762785196304, 0.04655581712722778, 0.011677093803882599, 0.04543603956699371, -0.04547986388206482, -0.09575909376144409, -0.014911860227584839, 0.10472966730594635, -0.10519184172153473, 0.09386232495307922, -0.005038827657699585, 0.07042059302330017, 0.031474366784095764, 0.05952499806880951, 0.08769658207893372, -0.061694901436567307, -0.05096268653869629, 0.058192819356918335, -0.05180362984538078, 0.08067113161087036, -0.04378268122673035, -0.07895885407924652, 0.009762577712535858, -0.04421862214803696, -0.11090121418237686, -0.0814104974269867, -0.014403626322746277, 0.0030137524008750916, 0.055512845516204834, 0.04685686528682709, -0.02257082611322403, -0.08596563339233398, 0.10113677382469177, 0.0910433828830719, -0.08286000043153763, 0.09582920372486115, 0.07754456996917725, 0.10835203528404236, -0.011492840945720673, -0.0960092693567276, 0.10637776553630829, -0.07275360077619553, -0.023690029978752136, 0.07534973323345184, -0.08361269533634186, 0.07980409264564514, -0.035684846341609955, -0.023440904915332794, 0.029081106185913086, 0.056625500321388245, -0.046793051064014435, -0.031779102981090546, 0.1056894063949585, -0.11098591238260269, 0.030010908842086792, -0.045774854719638824, -0.03022664785385132, 0.020305857062339783, 0.02316303551197052, 0.09408515691757202, 0.04154783487319946, -0.0065299347043037415, 0.08181701600551605, -0.09296166896820068, -0.004102692008018494, -0.013831652700901031], [-0.009998425841331482, 0.04910158047316493, 0.08836776212651436, -0.004908619916535029, -0.10383768771363792, -0.09598431561734634, -0.0587435473987849, 0.01588838052064673, -0.08407347344585298, 0.10821911846324689, -0.0650368877460112, 0.10286816300645522, 0.03273976438181569, 0.07006410276812008, 0.03681846054769428, 0.017376760170192882, -0.013837876571489858, -0.024648729553940766, 0.05075837112581034, -0.01892060393226974, 0.09721818248864762, 0.10779082943732342, -0.034237854448160354, 0.04488612598429368, 0.04113748207568444, 5.243185021530619e-05, 0.03809132585701868, -0.00578324215598512, -0.06991435513094878, 0.03659162895529129, 0.0878188976985742, 0.060416156649840624, -0.05359621084200549, -0.008991747853180793, 0.07080651312566934, 0.05222929609831614, 0.05254843121471547, -0.03462110370180099, 0.061650381832312286, -0.027975989668302757, 0.1089942512797642, 0.0803120569894802, 0.06110430419227568, -0.06189326604905271, -0.10424752874191992, 0.07705809683107197, -0.0036392810374289864, -0.06404102110398595, 0.019752880334603037, -0.04535452965324448, -0.05134553687422133, -0.01565142795249031, -0.06067807135991634, 0.04573380043330266, -0.06998158457734227, -0.004359024612896761, 0.0029502969359331706, 0.015590124097666145, -0.08151371945674023, -0.08830618540879838, 0.0016587933315121099, 0.05090401135767202, -0.08161858857559864, 0.07382759715445202, 0.05974689669874153, 0.10166540650152295, -0.08102068817537716, -0.0643724783553379, 0.04429287372335699, 0.051255504112398216, -0.09199185823127515, -0.06565463847688797, -0.015402431302373645, -0.012131136160155858, 0.07104635064151242, -0.09501052256153525, -0.028797821605109568, -0.014764325775691768, 0.06843234172226983, 0.1016710102558136], [-0.006848834455013275, 0.012546456689631452, -0.10130373314826482, 0.08874219654113304, -0.027678852004699144, 0.03781579064180474, -0.05439169757814513, 0.0883433312806462, -0.10724443008382366, 0.003951689070830733, 0.05069013704697354, -0.009497409106249214, 0.06043388890333744, 0.09128099435770734, -0.03953244921416303, 0.0445672475447836, 0.07055719613323941, -0.09590142440358838, -0.06720312193602744, -0.06446800522062561, 0.059686262844534405, 0.011279562850721972, 0.08305224815714624, -0.08870831569786501, 0.05722007994368914, -0.09342757214085996, -0.0744347191449678, 0.032771096710707194, -0.010002221573719383, 0.0016600921516901667, -0.03576198208467974, -0.09888632494737527, 0.09017249341785487, -0.009542765243576796, 0.10492925537770581, 0.0066197204318618075, -0.012267629001868216, -0.10187730199275769, 0.08469225794997078, 0.08664311639436606, 0.07573076911798593, 0.0647044297960772, 0.04238709068475494, -0.08832606455253315, -0.06324408826499948, -0.033860536348278764, 0.09231835804753159, -0.012749434967633196, 0.02489603955079911, 0.019506238283085876, -0.03327431378417099, 0.0449378598822445, 0.019661648984406935, -0.1007688873413527, -0.017281878998113304, 0.08757593388840303, -0.10355416992549467, -0.08238162139761712, 0.06879991815494685, 0.11161376094963933, -0.04763328515436857, 0.012572834944431103, 0.10533046197454174, -0.05374411910067365, -0.0857314147701449, -0.1072945407345865, 0.0006070161441540064, 0.04218629551820187, -0.05954859650040204, 0.11424111555178883, 0.10330999099575465, -0.049608124446082064, -0.034767703774866536, -0.02686206571011454, -0.050584778208037424, -0.08548876174003668, 0.08721855284660805, -0.03423742278606884, -0.07970552825430581, -0.09702762961387634], [-0.09599848836660385, -0.031605533770380424, 0.026397287704951516, 0.06359349909732875, 0.11295596470985275, -0.10518969670493536, -0.1052133507870059, 0.07988345152445409, 0.10932297397725228, -0.07830210944127784, -0.10561272469904047, -0.10611630645238711, -0.0702411406692151, -0.028390285875996617, 0.008919084327568738, 0.010176113486521757, 0.0643106496237268, 0.0925826162179387, 0.04488638404552957, 0.02056933104417953, -0.011509080086092515, 0.1162555341472683, 0.0869322786138819, -0.10180005310061153, 0.08112854226491038, 0.05919172111750176, 0.039536188542978114, 0.11449850483959058, -0.05205601702498773, -0.0018339766160504216, -0.04603086254745994, 0.07530772276493376, 0.06982753490310091, -0.05933838492673454, 0.016603007646545712, -0.0772921315083787, 0.06267878245357611, 0.11115914429717003, -0.015333163653863186, -0.009350166137276164, 0.022752814407406362, 0.0025940715422756912, -0.11283366973690925, 0.08602368999477293, -0.07867983517548588, -0.05947961259101317, -0.08539939144212155, 0.06680414761204345, -0.07515817471119231, 0.044004520691933974, -0.03722204882941084, -0.02041652177405957, -0.01089713855808097, -0.08106357902301943, -0.02635182682276308, 0.08675032393076833, -0.022946105618450993, -0.03983110878928119, -0.044210252617842005, -0.030586350109239026, -0.0552527113201441, 0.04418900247867087, 0.09624476432004805, -0.003542440225933623, 0.046202295779950026, 0.10377795074666477, 0.04366360357066061, -0.08876512711681095, 0.014111560253732633, 0.027491524495144727, 0.062452355226990316, 0.0003889338267606237, 0.02454939955167209, -0.11209639982954454, 0.05257761553485362, 0.0349221755012532, 0.04468060311366914, -0.08524813488960954, 0.10229014556771382, -0.058033287525177], [-0.02862275391817093, -0.057542661525839804, -0.041784704911067685, -0.09194215375612952, 0.015822494183470433, 0.10298305048142752, 0.10293167090523633, -0.03773838834159421, -0.04814205613656001, -0.000810806212558686, 0.0007864818265621819, 0.07861225787478734, 0.07452580376789533, -0.0732113139938293, 0.05300099190895599, -0.04933718765810575, 0.01586419074049918, -0.013729751558367812, -0.02662073513845867, 0.05053865409882457, -0.06848983399682256, 0.08527301240532908, 0.01508376860712912, -0.0503688103320548, 0.06105210709500085, -0.07788413347141293, -0.09293928884594645, 0.036866522834886374, -0.11098994776056424, 0.09240348750575829, -0.06608290114685221, 0.035138880098193735, 0.07084523103031412, 0.09888090255181656, -0.08364692540704431, -0.07376097065748687, 0.019775302250932953, -0.07407118001698454, -0.02394080994650294, 0.022184909690475332, -0.03300039600238766, -0.08538736315444531, -0.03710618993521787, 0.029070570032048926, -0.03812798189578562, 0.058092238622299876, -0.03602902653138503, 0.05150900819507334, -0.10288371630939816, 0.10982004442497416, 0.06493319457546423, 0.07481209650085584, -0.0358136067849291, -0.09719087041289602, -0.01473023413284266, -0.002490200876472036, 0.08592757049822307, -0.06432358288859231, -0.07687682647078548, 0.11361207001023503, 0.024010320534392362, 0.021002319365543785, 0.019743644149367384, -0.08712213961592662, -0.07952619170114006, -0.03609224197094482, -0.09934264251480718, 0.01642226383760005, -0.05128319296914345, 0.02767724689934791, 0.0005078358031653749, 0.002118687301110746, -0.059440592366528044, -0.06498602783787641, 0.014532662495028265, -0.08212232009022426, -0.03787898283768904, -0.031318193984672824, -0.01700093006289577, -0.07757130265235901], [0.060341715812683105, 0.0863264948129654, 0.04049491882324219, -0.10573377460241318, 0.050511449575424194, 0.07574641704559326, -0.034162335097789764, -0.08803801238536835, -0.08918137848377228, 0.011454448103904724, 0.08517414331436157, -0.034506507217884064, 0.05537372827529907, 0.026251807808876038, 0.09099188446998596, 0.07200032472610474, 0.07485897839069366, 0.009895294904708862, -0.09310080856084824, -0.08550728857517242, 0.09953676164150238, 0.04569824039936066, 0.037041664123535156, -0.07889300584793091, 0.041158199310302734, -0.09979072213172913, -0.021741360425949097, -0.11072839796543121, -0.004910275340080261, -0.005965597927570343, -0.08820787072181702, 0.029923677444458008, 0.02254195511341095, -0.06158459931612015, 0.06528520584106445, 0.09108017385005951, 0.0741032212972641, -0.08022432029247284, -0.059424955397844315, 0.1026623547077179, 0.05765879154205322, 0.07329429686069489, 0.09691134095191956, -0.007819324731826782, -0.019323602318763733, -0.08966059982776642, -0.05334528163075447, -0.05233050137758255, 0.09812526404857635, -0.07043041288852692, -0.08963716775178909, 0.08554767072200775, 0.056591764092445374, 0.03368377685546875, -0.009486563503742218, 0.04760022461414337, 0.03781725466251373, 0.11092111468315125, 0.1070144921541214, 0.04714348912239075, 0.03996884822845459, 0.0792320966720581, 0.039154842495918274, -0.07135361433029175, 0.08664937317371368, 0.10559874773025513, -0.01885402202606201, 0.03442154824733734, 0.09641735255718231, 0.0011339187622070312, -0.087037593126297, 0.07343177497386932, 0.08963902294635773, -0.07093165814876556, 0.007031083106994629, 0.08816811442375183, 0.04448111355304718, 0.07477129995822906, -0.004302196204662323, -0.005197905004024506], [-0.030128367245197296, -0.10675042867660522, 0.10616368055343628, -0.10075492411851883, 0.05459694564342499, -0.10495366901159286, -0.014117248356342316, -0.07720007002353668, 0.10154181718826294, 0.05228753387928009, -0.009971559047698975, -0.017023608088493347, -0.037126101553440094, -0.04480885714292526, 0.04800210893154144, -0.04188239574432373, 0.005994923412799835, -0.05160271003842354, 0.09334340691566467, -0.01213894784450531, -0.0457003116607666, 0.002933815121650696, -0.058728381991386414, -0.024480968713760376, 0.024751469492912292, 0.09184692800045013, 0.029533356428146362, -0.03129236400127411, -0.05838814377784729, -0.0687459409236908, 0.08237740397453308, 0.07555446028709412, 0.08638858795166016, -0.005560614168643951, 0.1084660142660141, 0.10464377701282501, -0.09416945278644562, 0.07121425867080688, 0.010577313601970673, 0.012399934232234955, -0.11160021275281906, 0.02370564639568329, -0.03575659543275833, 0.01143839955329895, 0.059616684913635254, 0.07111527025699615, -0.07077905535697937, 0.05080746114253998, -0.04238688945770264, -0.05044979974627495, 0.009983636438846588, 0.05852319300174713, -0.0771438330411911, 0.06018981337547302, -0.08682670444250107, 0.026990756392478943, -0.10656484216451645, 0.03396087884902954, 0.03226649761199951, -0.051403578370809555, 0.04682205617427826, -0.08608200401067734, 0.0977901816368103, 0.09112395346164703, 0.05181972682476044, 0.09937179088592529, -0.06358765065670013, 0.03405776619911194, 0.047531455755233765, 0.003380902111530304, 0.08174262940883636, 0.07716390490531921, -0.01599983125925064, 0.025479957461357117, 0.04124854505062103, -0.016772478818893433, -0.04372625797986984, -0.08724812418222427, 0.03328990936279297, -0.09465213865041733], [0.08584201335906982, 0.11158576284301307, -0.0013547134163868033, 0.04292999416780968, -0.07694586824173363, -0.023744202997858843, -0.02071686351298066, -0.1079304060018854, -0.07100278275307001, -0.029923978151865063, 0.03501159686852219, -0.06321329956840252, 0.06523945217969163, 0.06183217282541212, -0.09960126906676915, 0.10102573956204584, -0.0891481076332497, 0.00602529332281038, -0.060494060909369894, 0.04877755718585896, -0.003790450057718462, 0.009137740269700259, 0.07261208413575451, 0.03983798172082398, 0.0741306344123422, 0.07606750332694032, -0.06991699112316528, 0.03699054706543163, -0.10185520844208878, 0.09647390727733801, 0.06085905657363004, -0.08756065885108856, -0.09758983674162593, 0.014370310850677633, 0.07424648347403086, 0.059376545526524244, -0.05877347869697071, 